http://dbpedia.org/resource/I_Am_Sam 0.181601598858833 -0.066869460046291 0.583873152732849 0.820229530334473 0.693108618259430 0.134485855698586 -0.118505686521530 0.264333426952362 -0.031542170792818 0.536214768886566 0.191552624106407
http://dbpedia.org/resource/One_Soul_Now -0.492508143186569 0.471510738134384 0.231177061796188 0.453196644783020 0.895351171493530 0.329716563224792 -0.008646414615214 -0.141859814524651 -0.571138978004456 0.179464086890221 -0.135618180036545
http://dbpedia.org/resource/Copenhagen 0.087613359093666 0.185325354337692 -0.357720047235489 -0.024509526789188 0.557885468006134 -0.247657164931297 1.212123155593872 0.489779293537140 0.281215965747833 -0.842240631580353 -0.022456163540483
http://dbpedia.org/resource/University_of_La_Verne 0.379742115736008 -0.504321694374084 -0.583319365978241 0.355271935462952 0.098867759108543 0.590078532695770 0.383701860904694 -0.144989103078842 -0.005221772007644 0.060650579631329 -0.488040089607239
http://dbpedia.org/resource/University_of_Delaware 0.510253310203552 -0.028878323733807 -0.471720486879349 -0.087653599679470 0.102513082325459 -0.359136313199997 0.119313195347786 -0.001931700506248 0.067016698420048 0.159057155251503 -0.378332495689392
http://dbpedia.org/resource/First_Daughter_(2004_film) 0.546606600284576 -0.390051305294037 0.223788917064667 0.349049419164658 0.452934145927429 -0.358227252960205 -0.064107142388821 0.211205661296844 -0.122326202690601 0.002430583350360 -0.067661605775356
http://dbpedia.org/resource/Role_Models 0.126378029584885 0.038472436368465 0.167332530021667 0.666489660739899 0.370635539293289 0.204388320446014 0.100215651094913 0.114106856286526 -0.211505576968193 0.378884762525559 0.091761857271194
http://dbpedia.org/resource/Humming_by_the_Flowered_Vine -0.205984100699425 0.365187495946884 0.241601645946503 0.133564502000809 0.614896953105927 -0.070278003811836 0.233242362737656 0.039400134235620 -0.338219761848450 0.775570690631866 -0.063422158360481
http://dbpedia.org/resource/Gjensidige -0.162517338991165 0.592813134193420 -0.274431228637695 0.190987616777420 0.714720249176025 0.548120737075806 0.182528600096703 -0.162565439939499 -0.074791185557842 0.232723593711853 -0.105940639972687
http://dbpedia.org/resource/Premonition_(2007_film) 0.777842104434967 -0.247407585382462 0.177271887660027 0.410931587219238 0.279393881559372 0.273706585168839 -0.179142266511917 -0.016047431156039 0.100480556488037 0.162221387028694 0.424304813146591
http://dbpedia.org/resource/The_Last_Broadcast_(album) -0.093904025852680 0.312919944524765 0.054524179548025 -0.084431342780590 0.914774715900421 -0.689086973667145 0.336149334907532 -0.216332271695137 -0.317800432443619 0.304555416107178 -0.349102646112442
http://dbpedia.org/resource/Mitsubishi_Chemical_Corporation -0.366678237915039 0.416544586420059 -0.039662566035986 0.397317469120026 0.431015729904175 0.515822827816010 0.218423247337341 0.102412804961205 -0.247500300407410 0.171914845705032 -0.156068280339241
http://dbpedia.org/resource/SpareBank_1_SR-Bank -0.135736361145973 0.042295332998037 0.036815665662289 -0.008512941189110 0.541718006134033 0.668139874935150 0.165215075016022 -0.050368513911963 -0.435835510492325 -0.024331390857697 -0.367685496807098
http://dbpedia.org/resource/Thunder,_Lightning,_Strike 0.020309558138251 0.156235769391060 -0.164872258901596 0.170401692390442 0.719440162181854 -0.214100405573845 0.280545920133591 -0.044281378388405 -0.585658669471741 0.106743909418583 -0.061485745012760
http://dbpedia.org/resource/Principal_Financial_Group -0.061581920832396 0.144071772694588 0.078929357230663 0.442042708396912 0.248408630490303 0.650471270084381 0.189255714416504 0.294870406389236 0.028679857030511 -0.013264373876154 -0.178749740123749
http://dbpedia.org/resource/Country_Garden 0.139173135161400 0.260562717914581 0.410353064537048 0.465807408094406 0.263063997030258 0.225141555070877 -0.184949770569801 0.292115986347198 -0.346243888139725 0.292797833681107 -0.140477016568184
http://dbpedia.org/resource/Secret_South -0.061576314270496 0.360362619161606 0.091623440384865 0.416846305131912 0.816873788833618 0.016747590154409 0.169284597039223 -0.389577597379685 -0.301870524883270 -0.195181012153625 -0.235314488410950
http://dbpedia.org/resource/Greenville_College 0.218645051121712 0.308057874441147 -0.189115718007088 0.119422994554043 0.168588578701019 -0.051357213407755 0.359253734350205 -0.084100000560284 -0.074095115065575 0.053409267216921 -0.353000879287720
http://dbpedia.org/resource/Best_Night_of_My_Life 0.390454828739166 0.079294979572296 0.409580558538437 0.226886019110680 0.799161791801453 -0.317143321037292 0.192153990268707 0.260749459266663 -0.346526712179184 0.166819989681244 -0.593423128128052
http://dbpedia.org/resource/Saint_Louis_University 0.490345239639282 -0.262161970138550 0.216934636235237 0.815465927124023 0.104354955255985 0.702325165271759 -0.255796939134598 0.261992216110229 -0.542449474334717 0.114374853670597 -0.378808557987213
http://dbpedia.org/resource/NHPC_Limited 0.080311514437199 -0.021022090688348 -0.022149946540594 0.396090865135193 0.685017764568329 0.437691271305084 0.260557621717453 -0.010911406949162 0.253847807645798 -0.162751719355583 0.030023058876395
http://dbpedia.org/resource/Goon_Affiliated 0.324623107910156 -0.087472096085548 0.124914534389973 0.349764019250870 0.421607613563538 -0.129453539848328 0.295462131500244 0.241169065237045 -0.262463629245758 0.330563753843307 -0.516329050064087
http://dbpedia.org/resource/Xenophanes_(album) 0.113080248236656 -0.234298333525658 0.041705060750246 0.034361429512501 0.216134816408157 0.156277269124985 0.423986911773682 -0.212207660079002 -0.071715004742146 -0.011800728738308 -0.264815062284470
http://dbpedia.org/resource/A_Separation 0.454548865556717 -0.351279556751251 0.749042272567749 0.684947252273560 0.572621822357178 0.404150992631912 -0.163896322250366 0.208643689751625 -0.387834608554840 0.223453179001808 0.274578779935837
http://dbpedia.org/resource/Emotion_&_Commotion 0.197479560971260 0.049343943595886 0.602832436561584 -0.086114123463631 0.581340670585632 -0.008628867566586 0.189589828252792 -0.092747546732426 -0.329794377088547 0.110993333160877 -0.296664565801620
http://dbpedia.org/resource/Antitrust_(film) 0.166168674826622 -0.143291965126991 0.298062801361084 1.024433374404907 0.476766675710678 0.130830973386765 0.274977922439575 -0.016633016988635 0.112069673836231 0.091201767325401 0.153700530529022
http://dbpedia.org/resource/Virginia_State_University 0.516952931880951 -0.147315606474876 -0.049289908260107 0.323265016078949 -0.335681527853012 0.465262472629547 -0.121661506593227 0.070556379854679 0.166417554020882 0.218969792127609 -0.508793950080872
http://dbpedia.org/resource/Lethal_Weapon_3 0.211221605539322 -0.030238587409258 0.343482643365860 0.756167173385620 0.291427314281464 0.110321268439293 0.002133546164259 0.061346039175987 -0.088277764618397 0.154324695467949 0.159326732158661
http://dbpedia.org/resource/The_Keys_to_the_House -0.305377662181854 0.058090761303902 0.330815285444260 -0.136023774743080 0.427716493606567 0.288098752498627 -0.306662112474442 -0.575440883636475 -0.204942718148232 0.164669886231422 -0.018300808966160
http://dbpedia.org/resource/Have_One_on_Me -0.066037356853485 0.291845023632050 0.265538841485977 0.108433306217194 0.723916769027710 0.027380429208279 -0.029700620099902 0.052449245005846 -0.337174147367477 0.034284487366676 0.309420049190521
http://dbpedia.org/resource/Yamada_Denki -0.808909773826599 0.520910501480103 0.057055618613958 0.150721982121468 0.837295472621918 0.710969507694244 0.227465063333511 -0.092554062604904 -0.171963006258011 0.270504176616669 -0.183205664157867
http://dbpedia.org/resource/One_for_the_Money_(film) 0.112762115895748 -0.124837249517441 0.454348176717758 0.412992596626282 0.216259166598320 -0.274202704429627 -0.193679913878441 0.265040069818497 -0.278390765190125 0.298597544431686 0.233250066637993
http://dbpedia.org/resource/Merci_Docteur_Rey 0.082706905901432 -0.256502866744995 0.290645182132721 0.379973560571670 0.621733605861664 0.107861451804638 -0.014297659508884 -0.195061013102531 0.063388928771019 0.069956898689270 0.355826854705810
http://dbpedia.org/resource/Jump_Tomorrow 0.003668803721666 0.385167777538300 0.190234631299973 0.367484390735626 0.243606969714165 0.042735610157251 -0.160147398710251 0.122660264372826 0.139920890331268 0.262625604867935 -0.089626140892506
http://dbpedia.org/resource/Verizon_Communications -0.358500272035599 0.658452153205872 -0.030622193589807 0.450470983982086 0.587611496448517 0.419448494911194 0.195287719368935 0.322376728057861 0.015985030680895 -0.461116731166840 0.596553623676300
http://dbpedia.org/resource/Baku -0.272265166044235 -0.388718456029892 0.418927103281021 -0.524871766567230 -0.402506947517395 0.900736927986145 0.366451203823090 0.051408812403679 0.017587995156646 -1.259446740150452 0.039804507046938
http://dbpedia.org/resource/Akbank 0.119869582355022 0.432507812976837 -0.037859305739403 0.272094488143921 0.122439935803413 0.658170759677887 0.068807028234005 0.244509994983673 -0.006804610136896 0.068884648382664 -0.179395958781242
http://dbpedia.org/resource/Samsung_C&T_Corporation -0.188690915703773 0.468949705362320 0.101174496114254 0.346743851900101 0.391924351453781 0.372523963451385 0.142443299293518 -0.171564951539040 -0.193167969584465 0.103391952812672 -0.004964168649167
http://dbpedia.org/resource/Helplessness_Blues -0.154775381088257 0.115903288125992 -0.022016141563654 -0.013848230242729 0.563472151756287 -0.374066084623337 0.364696860313416 0.050960097461939 -0.649142324924469 0.012325673364103 -0.371522814035416
http://dbpedia.org/resource/Abu_Dhabi_Commercial_Bank 0.215934708714485 0.261970490217209 -0.073449045419693 0.193870872259140 0.559513449668884 0.366729140281677 -0.336401343345642 0.149901822209358 0.281068474054336 0.359408885240555 -0.453615874052048
http://dbpedia.org/resource/Covidien -0.258392214775085 0.209421142935753 0.082980774343014 0.739425718784332 0.766661107540131 0.048603739589453 0.307327389717102 0.210542634129524 -0.130533128976822 0.183101773262024 0.047510918229818
http://dbpedia.org/resource/Life_in_a_Beautiful_Light -0.261785566806793 0.418053030967712 0.453633546829224 0.035204041749239 0.639550387859344 0.197636321187019 0.312511533498764 0.179938182234764 -0.399713695049286 0.320070594549179 -0.243851140141487
http://dbpedia.org/resource/Unforgiven -0.003981553018093 0.287702798843384 0.103969611227512 1.083590745925903 0.608700811862946 0.325314521789551 0.225381001830101 -0.254296600818634 -0.139715313911438 0.207763463258743 0.384147107601166
http://dbpedia.org/resource/Rochester_Institute_of_Technology 0.327113837003708 0.520492613315582 -0.175574034452438 -0.091765649616718 -0.410413771867752 0.381736963987351 -0.034756924957037 0.090647757053375 0.159479454159737 0.092958271503448 -0.068074554204941
http://dbpedia.org/resource/Shimao_Property -0.223518326878548 0.059831436723471 -0.149301275610924 0.442566275596619 0.224259480834007 0.015931271016598 0.140579760074615 0.100159265100956 -0.046671655029058 -0.035664238035679 -0.061351854354143
http://dbpedia.org/resource/Where_God_Left_His_Shoes -0.141216993331909 -0.058075740933418 0.215230137109756 0.121508404612541 -0.173090010881424 -0.140616878867149 -0.122778601944447 -0.260203778743744 0.229608133435249 0.188027009367943 0.092711113393307
http://dbpedia.org/resource/BG_Group 0.351918250322342 0.044981908053160 0.024868838489056 -0.037093389779329 0.773448884487152 0.498770833015442 0.357993215322495 0.172680884599686 0.320496767759323 0.182967782020569 -0.123034983873367
http://dbpedia.org/resource/West_of_Memphis 0.168144822120667 -0.395667135715485 -0.162819281220436 0.800565600395203 0.645484507083893 -0.348490715026856 -0.020456239581108 0.042466048151255 0.010093640536070 0.149480536580086 0.116306968033314
http://dbpedia.org/resource/Moscow 0.646291315555573 -0.745583772659302 -0.281747967004776 -0.072355233132839 -0.395026236772537 0.240662604570389 0.059089984744787 0.625177383422852 0.174374997615814 -0.586804926395416 2.173146963119507
http://dbpedia.org/resource/JPMorgan_Chase 0.451625645160675 0.481373608112335 -0.651657342910767 0.827659785747528 0.147636950016022 0.206050619482994 0.034931022673845 0.523305535316467 0.206377625465393 0.420785486698151 -0.219663277268410
http://dbpedia.org/resource/Ferrum_College 0.180986300110817 0.073999956250191 -0.287906229496002 0.601283729076385 0.053351964801550 0.248038783669472 -0.064171656966209 0.312156677246094 -0.128182634711266 0.338978946208954 -0.222181618213654
http://dbpedia.org/resource/The_Meadowlands_(album) -0.286360472440720 0.183626815676689 -0.054072659462690 0.248137101531029 0.569059193134308 0.267263531684875 0.345705538988113 -0.285367608070374 -0.786767542362213 0.269925147294998 -0.018645804375410
http://dbpedia.org/resource/Mississippi_Burning 0.106793001294136 -0.373984605073929 0.233702838420868 0.738379061222076 0.297800272703171 -0.202957674860954 -0.020862448960543 -0.216521188616753 -0.153562709689140 0.185282647609711 0.406831979751587
http://dbpedia.org/resource/The_Wanted_(EP) -0.146120414137840 -0.127306625247002 -0.105052717030048 0.313704967498779 0.768651723861694 -0.529487550258636 0.511929392814636 0.293803095817566 -0.243316411972046 0.159642487764359 -0.396412938833237
http://dbpedia.org/resource/Basic_Instinct_2 -0.242176666855812 0.040057439357042 0.309689015150070 0.210073202848434 0.526998221874237 0.362067550420761 -0.105679444968700 0.027857733890414 -0.087868139147758 0.137397795915604 0.206572160124779
http://dbpedia.org/resource/Army_of_Shadows -0.135914713144302 0.158400058746338 -0.112460657954216 0.546347379684448 0.423354059457779 0.534062325954437 -0.081370726227760 -0.596727371215820 -0.100483633577824 0.059335727244616 0.390121787786484
http://dbpedia.org/resource/Barry_Munday 0.205155417323112 0.088816463947296 0.281898111104965 0.354229718446732 0.140159964561462 0.106505058705807 0.159216254949570 0.274905592203140 -0.262746840715408 -0.117442160844803 0.251215606927872
http://dbpedia.org/resource/WREJ 0.209757626056671 0.136637210845947 0.039880499243736 0.462829679250717 -0.497462332248688 0.337662786245346 0.295805960893631 -0.090240158140659 0.170381650328636 0.373697161674500 -0.432877480983734
http://dbpedia.org/resource/Tropic_Thunder 0.225142210721970 -0.150737732648849 0.465407401323318 0.691470265388489 0.226139545440674 0.134693369269371 0.278920054435730 -0.150443494319916 -0.260658621788025 -0.104198709130287 -0.216349974274635
http://dbpedia.org/resource/Tsotsi -0.318134933710098 0.123340159654617 0.500274300575256 0.085020646452904 0.613401770591736 -0.085193127393723 -0.128676965832710 0.124631762504578 0.144250839948654 -0.327105224132538 0.315914511680603
http://dbpedia.org/resource/House_on_Haunted_Hill 0.114623054862022 0.299630612134934 -0.136725172400475 0.317812532186508 0.143803626298904 0.140656888484955 0.049374844878912 0.179769486188889 0.214160829782486 -0.384554147720337 0.482263356447220
http://dbpedia.org/resource/Road_to_Perdition -0.271320790052414 -0.178727224469185 0.339906901121140 0.605033099651337 0.405041188001633 -0.099936679005623 -0.099465183913708 0.307104855775833 0.319332987070084 -0.336102724075317 0.256261169910431
http://dbpedia.org/resource/Arise_(film) 0.196251630783081 0.340723782777786 0.172066807746887 0.489513427019119 0.437298029661179 0.253194212913513 0.261449307203293 0.204091265797615 -0.005842707585543 0.546459257602692 0.250055611133575
http://dbpedia.org/resource/Detroit_Rock_City_(film) -0.293024599552154 -0.029739324003458 0.014349796809256 0.907309055328369 0.309638798236847 0.249468028545380 -0.190987721085548 0.093108296394348 -0.237315461039543 0.150112763047218 -0.081476591527462
http://dbpedia.org/resource/Copia_(album) -0.152718976140022 -0.286322891712189 -0.127927526831627 0.090689547359943 0.309454709291458 0.273625820875168 0.426605761051178 -0.078855022788048 -0.579510569572449 0.149298772215843 -0.181198447942734
http://dbpedia.org/resource/Flavors_of_Entanglement -0.162245586514473 0.430667251348495 0.435731291770935 0.329615682363510 0.735026061534882 0.296465069055557 0.320067137479782 0.233244255185127 -0.339064687490463 0.292015433311462 0.072114527225494
http://dbpedia.org/resource/Wright_State_University 0.299396336078644 -0.536666274070740 -0.123448461294174 -0.413161069154739 -0.075240120291710 -0.400734871625900 -0.024231005460024 0.315919131040573 0.366669327020645 0.169205114245415 0.059284672141075
http://dbpedia.org/resource/Intercontinental_Exchange -0.128069207072258 -0.018872361630201 0.161744624376297 0.694780468940735 0.433181583881378 0.193085417151451 -0.066401951014996 0.245272412896156 0.059908263385296 0.135814055800438 0.013187398202717
http://dbpedia.org/resource/Florida_Southern_College 0.204733982682228 -0.648779034614563 -0.207394436001778 -0.701876938343048 -0.407087415456772 -0.048192568123341 -0.076934970915318 0.566414773464203 0.046839434653521 -0.087246619164944 0.221378609538078
http://dbpedia.org/resource/Georgia_Clay -0.117243900895119 0.273401796817780 0.049456622451544 0.306625604629517 0.150636672973633 0.176462501287460 0.261301785707474 0.011022659018636 -0.542302727699280 0.126089364290237 -0.048317480832338
http://dbpedia.org/resource/American_Express -0.175563231110573 0.372500002384186 -0.415831983089447 0.980124354362488 0.308155119419098 0.821913063526154 -0.113962009549141 0.420173525810242 0.477756053209305 -0.195179030299187 -0.461894303560257
http://dbpedia.org/resource/Assa_Abloy 0.027963500469923 0.138049289584160 -0.464802980422974 0.602768659591675 0.958743512630463 0.482812315225601 0.286663502454758 0.298988312482834 -0.326715826988220 -0.210894867777824 -0.432014822959900
http://dbpedia.org/resource/Pittsburg_State_University 0.041250918060541 0.248302489519119 0.271979928016663 0.550431668758392 -0.331304192543030 0.073915570974350 0.035711620002985 -0.066444881260395 -0.274697035551071 -0.022143175825477 0.305003941059112
http://dbpedia.org/resource/A_Somewhat_Gentle_Man -0.043486300855875 0.389556705951691 0.491344690322876 -0.122653141617775 0.432116031646729 -0.177531927824020 0.183858349919319 0.254715561866760 -0.053326200693846 0.069479152560234 0.346521347761154
http://dbpedia.org/resource/Think_Tank_(Blur_album) 0.201969474554062 0.124601624906063 0.333685278892517 -0.365106523036957 0.460949242115021 -0.035042159259319 0.368660539388657 -0.143882989883423 -0.214985728263855 -0.018370963633060 -0.240448474884033
http://dbpedia.org/resource/Eternal_Sunshine_of_the_Spotless_Mind 0.182496845722198 0.282824426889420 0.075356028974056 0.727966606616974 0.914327383041382 0.050347968935966 -0.197452008724213 -0.196080431342125 -0.146392479538918 0.183806970715523 0.297726184129715
http://dbpedia.org/resource/Bride_Wars 0.399082779884338 0.015374157577753 0.334363192319870 0.582264065742493 0.380768120288849 0.140794873237610 -0.057747446000576 -0.126646175980568 -0.235019192099571 0.275014340877533 0.320497483015060
http://dbpedia.org/resource/ConocoPhillips -0.100636817514896 -0.205171361565590 -0.154429361224174 0.500728905200958 0.646193087100983 0.196427926421165 0.643194139003754 0.486074715852737 0.432171940803528 0.373894751071930 0.045594912022352
http://dbpedia.org/resource/Prologis -0.013817980885506 -0.161394998431206 0.006405452266335 0.056083641946316 0.725681006908417 0.666589796543121 0.085724353790283 0.385941565036774 -0.068738721311092 0.107603684067726 -0.067791931331158
http://dbpedia.org/resource/Nanjing 0.077463500201702 0.423599898815155 0.043558526784182 0.376661241054535 -0.320446908473969 -0.066024847328663 1.343873977661133 -0.249589756131172 0.482238262891769 -0.889965534210205 0.552691042423248
http://dbpedia.org/resource/Diamond_Men -0.111466333270073 0.307547271251679 -0.041711110621691 0.452301740646362 0.503877818584442 -0.189192578196526 -0.181326299905777 -0.124216802418232 -0.142400592565536 -0.092222459614277 0.415448665618896
http://dbpedia.org/resource/The_Empire_Strikes_Back 0.316748261451721 -0.463557064533234 0.066607028245926 0.695046007633209 0.496493726968765 0.025797210633755 0.233310729265213 -0.011014870367944 0.220947444438934 0.039389029145241 0.138933628797531
http://dbpedia.org/resource/GPT_Group 0.243569463491440 -0.142295479774475 0.080442741513252 0.034104824066162 0.661460220813751 0.451296627521515 0.096462987363338 0.773158788681030 0.139272511005402 0.197643995285034 -0.540654182434082
http://dbpedia.org/resource/Dead_Silence 0.139814019203186 -0.270778805017471 0.194056779146194 0.443558871746063 0.286423504352570 -0.024540835991502 -0.251312583684921 0.100496597588062 0.278002232313156 0.139463916420937 0.043866299092770
http://dbpedia.org/resource/Queen_of_the_Damned 0.073478206992149 -0.495528489351273 0.288525611162186 0.143260285258293 0.420013338327408 -0.282953947782516 0.173114016652107 0.081112787127495 0.431781202554703 0.155837714672089 0.239924415946007
http://dbpedia.org/resource/University_of_Oklahoma 0.385115027427673 0.142660155892372 0.077664025127888 0.110212102532387 0.259351074695587 -0.293596088886261 0.218304991722107 0.287195265293121 0.541410982608795 -0.022891292348504 0.329903453588486
http://dbpedia.org/resource/Yokkaichi,_Mie -0.713304281234741 0.125138774514198 -0.149962067604065 -0.256280571222305 0.419159919023514 0.030816880986094 0.186200976371765 0.206653714179993 0.243938282132149 0.445833176374435 0.363904803991318
http://dbpedia.org/resource/Port_Elizabeth 0.151186764240265 -0.069035746157169 -0.447683036327362 -0.626571655273438 0.044465832412243 0.098125860095024 0.669892609119415 0.785049557685852 0.754944503307343 -1.213104486465454 0.456465691328049
http://dbpedia.org/resource/Hey_Hey_My_My_Yo_Yo -0.053788825869560 -0.023675352334976 0.184053510427475 0.065199889242649 0.436325520277023 -0.330185294151306 0.601409196853638 0.247872695326805 -0.599541842937469 -0.259804487228394 -0.016241580247879
http://dbpedia.org/resource/Deuce_Bigalow:_European_Gigolo 0.146560966968536 0.156186342239380 -0.010297584347427 0.607532620429993 0.637794613838196 0.136251375079155 0.195553034543991 0.109995990991592 -0.566462934017181 -0.148665711283684 0.077584199607372
http://dbpedia.org/resource/Yamaha_Motor_Company -0.499155282974243 0.604982852935791 -0.090156078338623 0.153426378965378 0.245498016476631 0.452662765979767 0.367065876722336 -0.559691309928894 -1.073366403579712 0.612414658069611 -0.099808387458324
http://dbpedia.org/resource/University_of_Nebraska_Omaha 1.175882816314697 0.430931329727173 0.265099495649338 0.840820074081421 0.414979249238968 0.780475497245789 -0.052784636616707 0.343994081020355 0.295236289501190 -0.546641230583191 0.032404243946075
http://dbpedia.org/resource/The_Magic_Place 0.128968149423599 -0.034696862101555 -0.006042753811926 0.283466130495071 0.270909428596497 0.448263436555862 0.369917094707489 -0.136995181441307 -0.826155900955200 0.212005376815796 0.299807697534561
http://dbpedia.org/resource/Banca_Monte_dei_Paschi_di_Siena 0.083859175443649 0.298359185457230 -0.160768181085587 0.206469744443893 0.472873657941818 0.846081435680389 -0.039874888956547 0.126032412052155 -0.207012444734573 -0.084279872477055 -0.322975724935532
http://dbpedia.org/resource/Species_II 0.095074847340584 0.011043492704630 -0.130128681659698 0.368206441402435 0.384716510772705 0.129298314452171 0.240357562899590 0.068903185427189 -0.324614286422729 0.116891391575336 0.164080917835236
http://dbpedia.org/resource/Jackass_Number_Two 0.327972948551178 0.265023946762085 -0.012903339229524 0.897000372409821 0.359058529138565 0.000452396343462 0.181983590126038 0.069324582815170 0.045591197907925 0.290676712989807 -0.135564267635345
http://dbpedia.org/resource/Kotak_Mahindra_Bank 0.247200772166252 0.622641682624817 -0.130018576979637 -0.034131158143282 0.545887827873230 0.520393133163452 -0.156722903251648 0.274883985519409 0.612137317657471 -0.003838199889287 -0.231378152966499
http://dbpedia.org/resource/The_Back-up_Plan 0.339356601238251 0.000396836374421 0.322113931179047 0.594906449317932 0.124383524060249 0.063577353954315 -0.087200745940208 0.618710637092590 0.120140053331852 0.236599102616310 0.124806851148605
http://dbpedia.org/resource/Position_Among_the_Stars -0.312666773796082 0.074313037097454 0.236016124486923 0.512057542800903 0.600464344024658 0.038603089749813 -0.121365815401077 -0.096312828361988 0.000981823890470 0.319462954998016 0.052535880357027
http://dbpedia.org/resource/Desperate_Youth,_Blood_Thirsty_Babes -0.004089432768524 0.226832479238510 -0.147676661610603 0.115136757493019 0.799635112285614 -0.164415985345840 0.100187338888645 0.390746235847473 -0.362833678722382 0.026867412030697 -0.469763398170471
http://dbpedia.org/resource/George_Weston -0.191592335700989 0.213681876659393 0.019791159778833 0.190405443310738 0.023204736411572 0.278361916542053 0.033619791269302 -0.120697014033794 -0.011571638286114 -0.115689605474472 -0.362029522657394
http://dbpedia.org/resource/Warmer_Corners -0.229411303997040 0.040314897894859 0.018973471596837 0.523670494556427 0.347331285476685 0.133320510387421 0.434569895267487 0.231111839413643 -0.460258573293686 0.311273366212845 -0.010844139382243
http://dbpedia.org/resource/Bitchin' -0.576615095138550 0.265187680721283 0.474003672599792 0.737293362617493 0.469481319189072 0.665374636650085 0.510760247707367 -0.258832544088364 -0.830165624618530 0.203988894820213 -0.105569936335087
http://dbpedia.org/resource/Galp_Energia -0.223101019859314 0.376084238290787 -0.080716833472252 0.734537839889526 0.313918143510818 0.283495754003525 0.148579493165016 0.003708035917953 0.159381836652756 0.283908128738403 -0.034486401826143
http://dbpedia.org/resource/Marriott_International 0.497878581285477 -0.611422300338745 0.092202253639698 0.574903488159180 -0.371860206127167 0.491307079792023 -0.023083511739969 0.216768264770508 0.421608954668045 0.125793606042862 -0.523066282272339
http://dbpedia.org/resource/Lucky_Old_Sun -0.225521415472031 -0.185708522796631 -0.104729257524014 0.228607833385468 0.543536901473999 0.192805871367455 -0.040306471288204 -0.012301751412451 -0.026279693469405 0.478821635246277 -0.006252938415855
http://dbpedia.org/resource/You_in_Reverse -0.134431108832359 0.515257894992828 0.056029964238405 0.813212692737579 0.568422257900238 -0.007052331697196 0.400814324617386 0.198286324739456 -0.661450505256653 0.140948683023453 -0.220505118370056
http://dbpedia.org/resource/Norbit 0.564235925674438 -0.015304191969335 0.195161327719688 0.998558223247528 0.478258162736893 0.135846406221390 0.062029045075178 -0.052230574190617 0.003488391404971 0.224766626954079 0.057321440428495
http://dbpedia.org/resource/Northern_Illinois_University 0.374081254005432 0.007153625134379 -0.037709347903728 0.165365129709244 -0.335767984390259 0.228650927543640 0.463701277971268 0.171661913394928 0.425810337066650 -0.182800397276878 -0.035664528608322
http://dbpedia.org/resource/Nostalgia_for_the_Light 0.304584830999374 -0.213923245668411 0.028210094198585 0.839232921600342 0.144174665212631 0.318525552749634 0.021053498610854 -0.308684885501862 -0.342593938112259 0.510796546936035 0.180078625679016
http://dbpedia.org/resource/Poses_(album) -0.407509207725525 0.393271297216415 0.130108758807182 0.495863914489746 0.751661002635956 0.049132440239191 -0.067809544503689 0.136627733707428 -0.602493584156036 0.460241436958313 -0.200394302606583
http://dbpedia.org/resource/Enemies_Like_This 0.187894433736801 0.213185146450996 0.220043748617172 0.482003033161163 0.431553870439529 -0.022341988980770 0.424095362424851 0.292654454708099 -0.761392951011658 -0.084134534001350 0.148602530360222
http://dbpedia.org/resource/Quanta_Computer -0.105110302567482 0.327724039554596 0.108858354389668 0.528408586978912 0.414309442043304 0.094152837991714 1.210600614547729 0.193426832556725 0.231496676802635 0.027899961918592 -0.011262333020568
http://dbpedia.org/resource/University_of_Dallas 0.125686988234520 -0.504808425903320 0.295934289693832 0.376967579126358 0.276505798101425 0.306876331567764 0.604960560798645 0.251991987228394 0.365077048540115 0.204209864139557 -0.114008039236069
http://dbpedia.org/resource/Ten_Thousand_Fists -0.305244237184524 0.220696657896042 0.326876670122147 0.045841373503208 0.663368403911591 0.092300809919834 0.181784182786942 -0.090586699545383 -0.250298976898193 -0.250543773174286 -0.571993589401245
http://dbpedia.org/resource/An_American_Affair -0.074430450797081 -0.219715118408203 0.232983216643333 0.531565368175507 0.422388821840286 0.010649766772985 0.112163640558720 0.018186891451478 -0.135201424360275 -0.007550297304988 0.031265616416931
http://dbpedia.org/resource/Tech_Data -0.298154860734940 0.129080057144165 0.008534220047295 0.578257024288177 0.545260310173035 0.194985672831535 0.199488624930382 -0.326859891414642 -0.099032558500767 0.063891194760799 0.276973396539688
http://dbpedia.org/resource/The_Heart_of_the_Game 0.745599508285522 0.069218307733536 -0.003909557592124 0.701408743858337 -0.072454787790775 -0.280143052339554 -0.001313469256274 0.053440086543560 0.007677690126002 0.253982245922089 -0.265778720378876
http://dbpedia.org/resource/The_Musketeer 0.052396766841412 -0.163553595542908 0.082850538194180 0.134231418371201 0.374300003051758 0.121711269021034 -0.006513668224216 0.049558829516172 -0.047649703919888 0.355754852294922 0.464925050735474
http://dbpedia.org/resource/Pray_IV_Reign 0.333547055721283 0.257814228534698 -0.076403118669987 0.353173434734344 0.638735413551331 0.247457116842270 -0.127855062484741 -0.134611591696739 -0.505608141422272 0.221943899989128 -0.359309554100037
http://dbpedia.org/resource/Le_Pont_du_Nord -0.003698653541505 -0.026199953630567 0.538970053195953 0.409801125526428 0.470067292451859 0.412306964397430 -0.060173355042934 0.118795752525330 0.039560791105032 0.466480880975723 0.602828800678253
http://dbpedia.org/resource/Blackburn_College_(Illinois) 0.045765887945890 -0.132875680923462 -0.484406203031540 0.312814652919769 0.322312623262405 0.348563224077225 0.379595905542374 0.127262338995934 -0.191908761858940 0.281705141067505 -0.090057842433453
http://dbpedia.org/resource/The_Skulls_(film) 0.043861325830221 -0.295489072799683 0.352537006139755 0.720596730709076 0.441847413778305 0.393303990364075 0.055112373083830 0.238253697752953 -0.087204046547413 -0.089207045733929 0.068660870194435
http://dbpedia.org/resource/Live_from_Rome 0.110183618962765 -0.116728052496910 -0.025273792445660 0.048584751784801 0.652447581291199 0.030466239899397 0.259122997522354 -0.098012514412403 -0.502794981002808 0.233325898647308 -0.153750419616699
http://dbpedia.org/resource/Results_May_Vary -0.032181296497583 0.146591499447823 0.420669376850128 -0.008735639043152 0.246358171105385 0.043959606438875 -0.085439220070839 -0.025062937289476 -0.184023290872574 -0.165639922022820 -0.410155326128006
http://dbpedia.org/resource/The_Yellow_Sea_(film) 0.029757607728243 0.374914616346359 0.748057723045349 0.661844789981842 0.208102330565453 0.058405376970768 0.135284289717674 -0.271070599555969 -0.003143313108012 0.128634721040726 0.164316549897194
http://dbpedia.org/resource/Anniemal -0.311747372150421 -0.237090423703194 0.300681442022324 -0.511333763599396 0.321965634822845 -0.356675773859024 0.148248285055161 -0.089128993451595 -0.866092205047607 0.367428600788117 -0.176710784435272
http://dbpedia.org/resource/The_Crying_Game -0.042485710233450 -0.396813273429871 0.393310934305191 0.615289866924286 0.505132317543030 0.068947255611420 0.194827914237976 -0.010457284748554 -0.141439393162727 0.190627887845039 0.294779360294342
http://dbpedia.org/resource/Almaty 0.377951055765152 0.540833890438080 -0.075063362717628 -0.906063914299011 -0.018365317955613 -0.117286667227745 0.297475785017014 0.781812548637390 0.053788039833307 0.032137438654900 1.378250598907471
http://dbpedia.org/resource/Blue_Car 0.504364907741547 -0.065062537789345 0.359464973211288 0.250342011451721 0.677887499332428 -0.005928009748459 -0.087507687509060 0.227762073278427 0.043379928916693 0.184117272496223 0.130194678902626
http://dbpedia.org/resource/Cameron_International -0.502281188964844 0.320761501789093 0.051630262285471 0.558424651622772 0.718647420406342 0.094950333237648 0.258174687623978 0.067843973636627 0.034550398588181 0.382907271385193 0.189702913165092
http://dbpedia.org/resource/Iron_Man_3 0.201916739344597 -0.272067159414291 0.477392554283142 0.913593709468842 0.633076667785645 0.093000225722790 0.377463102340698 -0.030357493087649 -0.244600236415863 -0.008780295029283 0.053076758980751
http://dbpedia.org/resource/Sime_Darby 0.614939451217651 0.278223007917404 -0.351252764463425 -0.076113276183605 0.629774928092957 0.359836816787720 0.364350646734238 0.390469163656235 0.340406894683838 0.035841289907694 0.043484877794981
http://dbpedia.org/resource/Super_Size_Me 0.339845240116119 0.224333092570305 0.133162572979927 1.270380377769470 0.648225188255310 0.035715349018574 0.068455301225185 -0.090582132339478 0.300870776176453 0.451314449310303 0.082756824791431
http://dbpedia.org/resource/University_of_Central_Oklahoma 0.313288092613220 -0.120448030531406 0.316325902938843 0.587204158306122 -0.177010908722878 -0.095749542117119 -0.101653888821602 0.266850262880325 -0.019771022722125 0.215407088398933 -0.294814586639404
http://dbpedia.org/resource/National_Oilwell_Varco 0.074501119554043 0.119559347629547 -0.090938217937946 0.640559673309326 0.702566623687744 -0.277853548526764 0.258412003517151 0.100793063640594 0.465831488370895 0.104985937476158 -0.201983049511909
http://dbpedia.org/resource/Xanadu_(film) 0.204418599605560 -0.186562657356262 -0.054483134299517 0.518481552600861 0.353044658899307 -0.075744703412056 0.158010542392731 0.247704386711121 0.326155275106430 0.038634434342384 0.344620764255524
http://dbpedia.org/resource/WPEX -0.128671124577522 0.395803838968277 -0.149051710963249 0.438173502683640 -0.179418936371803 0.222908452153206 -0.144916385412216 -0.157070636749268 0.128717303276062 0.429092139005661 0.226072520017624
http://dbpedia.org/resource/Northland_College_(Kaikohe) 0.390688210725784 -0.283528089523315 0.337152838706970 0.135714128613472 0.232402801513672 0.239715740084648 0.108279995620251 -0.380458891391754 0.061791207641363 0.224290728569031 -0.345386862754822
http://dbpedia.org/resource/Sun,_Sun,_Sun -0.403061449527740 0.287679940462112 0.189975246787071 0.584425449371338 0.766901254653931 0.033485788851976 0.567176759243011 0.364157348871231 -0.910901129245758 0.149767205119133 0.089112028479576
http://dbpedia.org/resource/Hospital_Corporation_of_America -0.158359527587891 -0.296465426683426 0.206678807735443 0.164421066641808 0.723516583442688 0.164910420775414 0.137528598308563 0.525258958339691 0.461658924818039 0.134147316217422 -0.147442132234573
http://dbpedia.org/resource/X_Marks_Destination 0.367181211709976 0.275365144014359 0.073865674436092 0.058349046856165 0.334669917821884 0.101017735898495 0.232074663043022 0.126341566443443 -0.622996449470520 0.068477436900139 0.111804977059364
http://dbpedia.org/resource/JFE_Holdings -0.319691568613052 0.468993842601776 -0.112502664327621 0.082031480967999 0.856104552745819 0.771302998065948 0.310112625360489 -0.300246089696884 -0.093465201556683 0.240208223462105 -0.557087957859039
http://dbpedia.org/resource/Buffalo_State_College 0.728635430335999 -0.441108196973801 0.298121869564056 -0.124035976827145 -0.308883488178253 0.325122416019440 0.059466715902090 0.714363574981689 0.378083497285843 -0.019951744005084 0.470127552747726
http://dbpedia.org/resource/Empire_State_College 0.415637463331222 -0.078094691038132 -0.019265523180366 0.102395802736282 0.101509615778923 0.254812508821487 -0.057970471680164 -0.040521379560232 -0.016388464719057 0.436253011226654 -0.138368278741837
http://dbpedia.org/resource/E.ON 0.336640030145645 0.072307400405407 -0.186703175306320 0.243154108524323 0.594759225845337 0.602148890495300 0.286102682352066 0.468140125274658 -0.012506667524576 0.423834502696991 -0.145877063274384
http://dbpedia.org/resource/Marsh_&_McLennan_Companies -0.216066241264343 0.011857100762427 -0.413600951433182 0.345906287431717 0.427573561668396 0.393007069826126 0.061828758567572 0.346268981695175 -0.199025169014931 0.154398351907730 -0.250176578760147
http://dbpedia.org/resource/Dear_Frankie 0.012026733718812 0.101325280964375 0.314642965793610 0.157472431659698 0.519140303134918 0.089559763669968 -0.001545833190903 -0.540887355804443 -0.036272875964642 -0.356827944517136 0.252599895000458
http://dbpedia.org/resource/The_Sweet_Escape 0.239842399954796 0.199960693717003 0.128063321113586 -0.043429493904114 0.397089213132858 -0.520901143550873 0.230129823088646 -0.000317527417792 -0.076286017894745 -0.347217917442322 -0.465288579463959
http://dbpedia.org/resource/Encana -0.346331357955933 0.404470682144165 0.022368879988790 0.940507233142853 0.534140884876251 0.568056404590607 0.200443074107170 0.080754086375237 0.175575032830238 0.094140611588955 -0.284831404685974
http://dbpedia.org/resource/Eisai -0.794148683547974 0.393868535757065 0.008991465903819 -0.304570913314819 0.555556595325470 0.719687461853027 0.022746037691832 -0.354710072278976 -0.534428417682648 -0.009206698276103 -0.099472574889660
http://dbpedia.org/resource/Arizona_State_University 1.194520354270935 -0.236169725656509 -0.458724737167358 -0.199018284678459 -0.018212148919702 0.034829907119274 -0.169701680541039 0.058648902922869 0.347468018531799 0.168647095561028 0.013091679662466
http://dbpedia.org/resource/Love,_Shelby -0.186992257833481 0.225874692201614 0.179292306303978 0.022045828402042 0.439371764659882 -0.100290767848492 0.318880915641785 -0.056774981319904 -0.566674709320068 0.279364973306656 -0.101367764174938
http://dbpedia.org/resource/Grupo_Bimbo -0.235154613852501 0.364677101373672 0.182596862316132 1.306250095367432 0.544002056121826 0.832272648811340 0.178524062037468 0.068101584911346 -0.204986259341240 0.391424566507339 -0.640519440174103
http://dbpedia.org/resource/Spirited_Away 0.099992148578167 0.261659055948257 0.291808575391769 0.449507266283035 0.731587946414948 0.541547119617462 0.049991961568594 0.222814276814461 -0.101739533245564 0.274680882692337 0.200442060828209
http://dbpedia.org/resource/WGEX -0.251779586076736 -0.003605030709878 -0.093715354800224 0.424786627292633 0.137943267822266 0.583108425140381 0.261856079101562 -0.019521284848452 0.309845000505447 0.400127768516541 0.030736032873392
http://dbpedia.org/resource/University_of_Pittsburgh 0.764072299003601 0.654234826564789 1.402272224426270 -0.828902661800385 0.055033568292856 -0.034220494329929 0.013956510461867 0.150844588875771 0.400663226842880 0.075292289257050 -0.485011577606201
http://dbpedia.org/resource/WHEO -0.101234540343285 0.297315984964371 -0.256549566984177 0.556257903575897 -0.132323697209358 0.394066512584686 0.240871399641037 0.065935321152210 0.380894988775253 0.268719285726547 0.268259495496750
http://dbpedia.org/resource/Wells_College 0.684325039386749 -0.213863760232925 -0.150182291865349 -0.165134549140930 0.023691402748227 0.721734881401062 0.307653725147247 -0.151887401938438 0.093503415584564 0.467378765344620 -0.073813147842884
http://dbpedia.org/resource/Sodexo 0.042712870985270 -0.068274267017841 0.115039624273777 0.530503451824188 0.354117333889008 0.484796404838562 0.167320057749748 -0.099133819341660 0.084283761680126 0.192259207367897 -0.129840880632401
http://dbpedia.org/resource/Since_I_Left_You 0.082722753286362 -0.231475457549095 0.076085723936558 0.282538622617722 0.419404804706573 0.081255890429020 0.118405051529408 0.114196419715881 -0.258150666952133 0.129151344299316 -0.279936403036118
http://dbpedia.org/resource/Daybreak_(Saves_the_Day_album) -0.326516985893250 0.322364002466202 0.167438805103302 0.184465363621712 0.568586170673370 0.289175748825073 0.311939239501953 -0.377235323190689 -0.675941944122314 0.239459872245789 0.126165419816971
http://dbpedia.org/resource/Phat_Girlz 0.503420829772949 0.248191922903061 0.378684222698212 0.453541666269302 0.300322711467743 -0.163845822215080 0.074004940688610 -0.041090592741966 -0.024879768490791 0.048604216426611 0.156280726194382
http://dbpedia.org/resource/Hokuhoku_Financial_Group 0.014104339294136 0.267593175172806 -0.053888425230980 0.195912852883339 0.365063935518265 0.272424250841141 0.194976493716240 0.058746997267008 -0.182343482971191 -0.087594725191593 -0.193393379449844
http://dbpedia.org/resource/Welcome_to_Mooseport 0.156332254409790 -0.109320990741253 0.408385545015335 0.716993331909180 0.222942546010017 0.093041293323040 0.181592658162117 -0.205232635140419 -0.299398034811020 0.034560743719339 0.106062442064285
http://dbpedia.org/resource/Asahi_Kasei -0.247720614075661 0.528927862644196 0.156139433383942 0.262741178274155 0.709404468536377 0.521000981330872 0.269008636474609 0.211983457207680 -0.510401129722595 -0.090981326997280 -0.295961886644363
http://dbpedia.org/resource/Denies_the_Day's_Demise 0.045688297599554 -0.122994899749756 -0.121159732341766 0.131795346736908 0.530784606933594 0.091055862605572 0.072533041238785 -0.201789647340775 -0.407618314027786 0.088899649679661 -0.037378076463938
http://dbpedia.org/resource/Lipscomb_University 0.321766287088394 -0.560108423233032 0.050745915621519 0.392646014690399 0.115321546792984 -0.282789260149002 0.360920935869217 0.111590720713139 0.032667022198439 -0.498242408037186 -0.356833010911942
http://dbpedia.org/resource/Power_Assets_Holdings -0.363600790500641 0.134132966399193 0.195710822939873 0.513270139694214 0.547599256038666 0.351766526699066 0.360280692577362 0.136179491877556 0.272524833679199 -0.001176648074761 -0.442356914281845
http://dbpedia.org/resource/Christendom_College 0.176404029130936 0.166549965739250 -0.424612611532211 0.798291325569153 0.060170352458954 0.439115285873413 0.217766657471657 0.226026043295860 -0.112248986959457 0.259595155715942 -0.214710876345634
http://dbpedia.org/resource/Breaking_Kayfabe -0.197608217597008 0.285933196544647 0.464159667491913 0.506859540939331 0.401725560426712 0.332151919603348 0.048785153776407 -0.281426042318344 -0.151122540235519 -0.034350220113993 -0.446743965148926
http://dbpedia.org/resource/ChinaCoal 0.020774729549885 0.131644695997238 -0.084053017199039 0.955710411071777 0.415634632110596 0.444019228219986 0.546816945075989 0.153986915946007 -0.099666297435760 -0.015742916613817 -0.399170666933060
http://dbpedia.org/resource/9_Dead_Gay_Guys 0.047016806900501 0.249107405543327 0.069712556898594 0.509593129158020 0.351685404777527 0.241998389363289 0.082371257245541 -0.224511891603470 -0.093772791326046 0.165741592645645 0.251436144113541
http://dbpedia.org/resource/Paper_Tigers -0.461173206567764 0.102023907005787 0.054196156561375 -0.107063725590706 0.817159056663513 -0.308586061000824 0.427852153778076 -0.175192728638649 -0.854814112186432 0.171924456954002 -0.145416930317879
http://dbpedia.org/resource/Capita -0.036626663058996 0.076676934957504 0.168793097138405 0.536167979240417 0.742821156978607 0.294541358947754 0.180256873369217 -0.087809868156910 0.080454714596272 -0.218942493200302 -0.379296928644180
http://dbpedia.org/resource/Ga_Ga_Ga_Ga_Ga -0.188302367925644 0.438632935285568 0.266578376293182 0.484212577342987 0.456956207752228 -0.643318355083466 0.054485775530338 0.030153594911098 -0.512622594833374 0.383546143770218 0.037444747984409
http://dbpedia.org/resource/GKN -0.230843424797058 0.547365307807922 -0.705005049705505 0.407602846622467 0.643148124217987 0.558855056762695 0.434160888195038 -0.301599770784378 0.076778292655945 0.066833585500717 0.449211418628693
http://dbpedia.org/resource/Willis_Group -0.106257170438766 0.057848621159792 -0.352516353130341 0.544112443923950 0.592500030994415 0.086461067199707 -0.204515844583511 -0.020155856385827 0.207521662116051 0.132405236363411 0.093851648271084
http://dbpedia.org/resource/Gree_Electric -0.135403618216515 0.246758714318275 0.129649117588997 0.657244682312012 0.408865839242935 0.443370074033737 0.673612654209137 0.293391317129135 -0.165513172745705 0.131226375699043 0.059996154159307
http://dbpedia.org/resource/Endlessly_(album) -0.100406855344772 0.069692812860012 0.418659955263138 0.097688637673855 0.251851946115494 -0.303663849830627 0.456523209810257 -0.055754669010639 -0.566284239292145 -0.103196501731873 -0.325644016265869
http://dbpedia.org/resource/Mr._Impossible_(album) 0.205999612808228 0.285439938306809 0.118040077388287 0.216063544154167 0.371837884187698 0.409049004316330 0.374418437480927 0.111965395510197 -0.484883308410644 0.019432483240962 -0.024689488112926
http://dbpedia.org/resource/Franklin_Pierce_University 0.408339917659760 -0.045095056295395 0.002170702209696 0.342501670122147 -0.392751514911652 0.487833142280579 -0.145589381456375 0.031500626355410 -0.514605760574341 0.887510240077972 -0.270200729370117
http://dbpedia.org/resource/WAER 0.553578138351440 0.298987418413162 0.336623400449753 0.134380251169205 -0.206066876649857 0.149079799652100 -0.183067306876183 0.204662650823593 0.149688452482224 0.389309495687485 0.088306143879890
http://dbpedia.org/resource/Match_Point 0.385380089282990 0.018620990216732 0.120106332004070 0.237117931246758 0.290748029947281 0.011567590758204 0.173208415508270 0.309773802757263 -0.323915868997574 0.446809589862823 0.025470461696386
http://dbpedia.org/resource/Brazzaville 0.653929293155670 0.217707827687263 -0.525332212448120 0.054973915219307 -0.285940200090408 0.342448532581329 -0.154461562633514 0.512233018875122 -0.012074328027666 -0.055357947945595 -0.042423143982887
http://dbpedia.org/resource/Boise_State_University 0.685925066471100 -0.254510283470154 -0.142350152134895 0.298748284578323 -0.740453958511353 0.657521724700928 0.042339049279690 -0.301100611686706 0.207603096961975 -0.265071749687195 -0.373891800642014
http://dbpedia.org/resource/Nebraska_Wesleyan_University 0.491801232099533 0.472214013338089 -0.221764296293259 0.417187094688416 0.320486515760422 0.469971120357513 0.421096295118332 -0.012834771536291 0.037520062178373 -0.120888821780682 0.180625453591347
http://dbpedia.org/resource/Godzilla_(1998_film) -0.063590243458748 -0.265990197658539 0.434531927108765 0.502554655075073 0.367380827665329 0.201682880520821 -0.053462103009224 -0.125292047858238 -0.063398383557796 0.109216518700123 0.483660042285919
http://dbpedia.org/resource/Primeval_(film) 0.076713792979717 -0.088092774152756 0.136608213186264 0.546798646450043 0.555645763874054 0.092777617275715 0.170081481337547 0.262310445308685 -0.066917106509209 -0.111629344522953 -0.144251570105553
http://dbpedia.org/resource/8_Million_Stories 0.000591402524151 -0.039393376559019 0.034872330725193 0.346289873123169 0.352131634950638 0.128581032156944 0.089083664119244 -0.135389924049377 -0.405371516942978 0.102651581168175 -0.150631994009018
http://dbpedia.org/resource/America's_Sweetheart_(album) -0.363525331020355 0.158157408237457 0.050900835543871 -0.069473877549171 0.506495893001556 0.043854426592588 0.573076426982880 -0.279041409492493 -0.628820598125458 0.280174672603607 -0.134792968630791
http://dbpedia.org/resource/Ping_An_Bank -0.236678436398506 0.561251401901245 0.176852852106094 0.622739374637604 0.240584969520569 0.370526283979416 0.299454420804977 0.102684944868088 -0.279962152242661 0.086294494569302 -0.360776185989380
http://dbpedia.org/resource/Xerox 0.411742031574249 0.200834035873413 -0.142981424927711 0.373158752918243 0.662538468837738 0.498970150947571 0.728562295436859 -0.090102992951870 0.230102837085724 0.411482334136963 -0.053141079843044
http://dbpedia.org/resource/Origin_Energy -0.082976885139942 -0.055059123784304 0.108112007379532 -0.094635225832462 0.747464120388031 0.084576524794102 0.219602823257446 0.785952508449554 0.346567273139954 0.167038068175316 -0.031983736902475
http://dbpedia.org/resource/Monkey_Business_(album) 0.226805597543716 0.145972907543182 0.495139777660370 0.472946554422379 0.803458392620087 -0.129737064242363 0.491495251655579 0.056492626667023 -0.294253736734390 -0.159823819994926 -0.439792424440384
http://dbpedia.org/resource/Meralco 0.541554629802704 0.033346980810165 -0.007061553187668 0.355639308691025 1.004383325576782 0.488202095031738 -0.249509692192078 0.219820588827133 0.424542993307114 -0.361424267292023 -0.431670278310776
http://dbpedia.org/resource/Out_of_Sight 0.307862490415573 -0.516828596591949 0.573489189147949 0.632736742496490 0.253104627132416 -0.081624396145344 0.100002177059650 0.160952791571617 0.058050360530615 0.270179986953735 0.321768820285797
http://dbpedia.org/resource/Size_Matters -0.416935205459595 -0.009874767623842 0.161739483475685 -0.499548345804214 0.408688396215439 0.181600987911224 0.313316047191620 -0.104115493595600 -0.443712830543518 -0.131263718008995 -0.426063925027847
http://dbpedia.org/resource/Vivendi -1.091916084289551 0.199771389365196 -0.174043789505959 0.453307628631592 -0.284792959690094 0.677525818347931 -0.009833805263042 0.184695258736610 -0.838935017585754 0.262133240699768 -0.633819997310638
http://dbpedia.org/resource/Shanghai_Electric 0.043939385563135 0.350815057754517 0.041226107627153 0.848378479480743 0.434005469083786 0.261535167694092 0.718566477298737 -0.207736507058144 -0.133285358548164 0.224662244319916 -0.043284539133310
http://dbpedia.org/resource/Two_Family_House 0.230776742100716 0.284199506044388 0.356773436069489 0.276079148054123 0.503820478916168 0.204166814684868 -0.455198258161545 -0.121821805834770 0.137055099010468 -0.109452486038208 -0.238060757517815
http://dbpedia.org/resource/The_Wonder_Years_(9th_Wonder_album) 0.401445239782333 0.227700144052505 0.152218505740166 0.462718814611435 0.236324220895767 0.090837717056274 0.378888636827469 -0.141661196947098 -0.527964651584625 0.431613147258759 -0.387342661619186
http://dbpedia.org/resource/Celgene -0.334702432155609 0.258100032806396 -0.004033512901515 0.463583111763000 0.622499406337738 -0.150659903883934 0.242681100964546 0.124708548188210 0.012241498567164 0.134886592626572 0.048581779003143
http://dbpedia.org/resource/Coco_Before_Chanel 0.106293521821499 0.006808910518885 -0.014545930549502 0.725711047649384 0.426535546779633 0.386678189039230 0.065406657755375 0.147301584482193 -0.285773366689682 0.264326840639114 0.170342445373535
http://dbpedia.org/resource/Deadgirl -0.025641404092312 -0.011338243260980 0.011406881734729 0.402514249086380 0.619763493537903 -0.044704508036375 0.129689946770668 0.161635115742683 0.215598076581955 0.081581696867943 0.400305598974228
http://dbpedia.org/resource/The_Medallion 0.124099947512150 0.256251335144043 0.277305603027344 0.328910946846008 0.165999218821526 -0.224769219756126 0.059516772627830 0.029406523332000 -0.128911316394806 -0.018097085878253 0.177444979548454
http://dbpedia.org/resource/The_Covenant_(film) -0.052461329847574 0.443528354167938 0.282821983098984 0.685028612613678 0.294419586658478 0.182094186544418 -0.042701620608568 0.046000417321920 -0.261202275753021 0.078465536236763 0.100840561091900
http://dbpedia.org/resource/The_Opportunists -0.056694686412811 0.233834251761436 -0.079412102699280 0.189671024680138 0.208923786878586 0.166494145989418 -0.105106726288795 0.018023347482085 -0.377151042222977 0.475106686353683 0.428135514259338
http://dbpedia.org/resource/The_Path_of_Totality -0.324756771326065 -0.385243117809296 0.178487852215767 0.081675805151463 0.585503756999969 0.459504663944244 0.367018312215805 0.008584277704358 -0.093911781907082 0.277949512004852 -0.632847130298615
http://dbpedia.org/resource/Moodring 0.452210009098053 -0.024652715772390 0.253405094146729 0.005993632599711 0.454793334007263 -0.348115950822830 0.301263809204102 0.243423998355866 -0.424711048603058 0.052414342761040 -0.376804322004318
http://dbpedia.org/resource/Arrow_Electronics -0.144352987408638 0.089864447712898 -0.356932580471039 0.764121949672699 0.715694844722748 0.360924065113068 0.099368155002594 0.088764682412148 0.067713685333729 0.092602528631687 0.176774471998215
http://dbpedia.org/resource/Sound_of_Noise -0.124397769570351 0.123362489044666 0.285402595996857 0.604093611240387 0.366639167070389 0.156999588012695 -0.120053522288799 -0.260681807994842 -0.468729645013809 -0.064779035747051 0.189464852213860
http://dbpedia.org/resource/1991_(EP) 0.066311813890934 -0.102039247751236 0.329069882631302 0.143384248018265 0.535278320312500 -0.100152246654034 0.143277481198311 0.140569254755974 -0.484489351511002 0.016996627673507 -0.305767357349396
http://dbpedia.org/resource/Time_Changes_Everything -0.258833765983582 0.500405311584473 0.306345552206039 -0.073124051094055 0.398594498634338 0.126077204942703 0.319332361221313 -0.449116885662079 -0.376879662275314 0.240646332502365 -0.043523248285055
http://dbpedia.org/resource/Greensboro_College 0.352159202098846 -0.063116878271103 -0.040930878371000 0.268732637166977 0.168564155697823 0.136861279606819 -0.232967451214790 0.251069486141205 -0.458129405975342 0.358357161283493 -0.308645963668823
http://dbpedia.org/resource/Room_237 0.102839767932892 -0.047148916870356 -0.173897534608841 0.816027879714966 0.357314705848694 -0.140705391764641 0.196871355175972 -0.112990416586399 0.111693195998669 0.187400773167610 -0.114312008023262
http://dbpedia.org/resource/I_Created_Disco -0.009894091635942 -0.031805958598852 0.291534304618835 -0.002679301425815 0.523422420024872 -0.336139976978302 0.202595248818398 0.460392922163010 -0.222048401832581 0.369325608015060 -0.425622671842575
http://dbpedia.org/resource/A_Ghost_Is_Born -0.401124626398087 0.096560925245285 0.277292758226395 -0.001448433031328 0.580449640750885 -0.170738130807877 -0.200507000088692 0.113857857882977 -0.278041511774063 0.292369633913040 0.054792791604996
http://dbpedia.org/resource/Crazy_Heart 0.446139156818390 -0.427409380674362 0.395775228738785 0.837376832962036 0.464367568492889 0.009050064720213 0.111967734992504 -0.094895087182522 -0.177426695823669 -0.043083749711514 0.252442061901092
http://dbpedia.org/resource/Royal_Dutch_Shell 0.213217750191689 0.018053857609630 0.075484372675419 0.273705929517746 1.222406506538391 -0.065896198153496 0.385729312896729 0.246495425701141 0.383088499307633 0.193544074892998 -0.065330170094967
http://dbpedia.org/resource/Offend_Maggie -0.043543871492147 0.324272930622101 -0.205135747790337 0.418790847063065 0.483370840549469 0.023521048948169 0.564715564250946 0.133069798350334 -0.810961663722992 0.039635587483644 0.001226153224707
http://dbpedia.org/resource/To_Save_a_Life 0.331928074359894 -0.162228107452393 0.033758088946342 0.720667719841003 0.415013492107391 0.047885011881590 -0.120375573635101 -0.250553637742996 -0.580593407154083 -0.022881561890244 0.208767205476761
http://dbpedia.org/resource/University_of_North_Carolina_at_Pembroke -0.041985437273979 -0.115676403045654 -0.254792630672455 0.339660674333572 0.010472007095814 0.410987257957458 -0.083641380071640 0.206724226474762 -0.161629915237427 0.060238618403673 0.233985856175423
http://dbpedia.org/resource/Give_Up_the_Ghost_(album) 0.236009702086449 -0.230196624994278 0.450339883565903 -0.017893150448799 0.946646988391876 0.284349769353867 0.577820599079132 0.244422212243080 -0.309902966022491 0.178300037980080 -0.110225625336170
http://dbpedia.org/resource/WREY -0.331998348236084 0.197625681757927 -0.075528539717197 0.639290690422058 -0.306712001562118 0.336227595806122 0.548169493675232 -0.100473746657372 0.303164839744568 0.146132037043571 0.562560498714447
http://dbpedia.org/resource/Midnite_Vultures 0.031502116471529 -0.000862719840370 0.291008263826370 0.054811604321003 0.688800573348999 -0.437600851058960 0.150326088070869 -0.139783054590225 -0.519836544990540 -0.241566345095634 -0.239153176546097
http://dbpedia.org/resource/Film_Socialisme -0.067986808717251 0.315734326839447 0.166774481534958 0.491422355175018 0.304723143577576 0.222729235887527 -0.027341376990080 0.071790270507336 -0.287977546453476 0.331186562776566 0.409725934267044
http://dbpedia.org/resource/Smash_His_Camera 0.461432725191116 0.336048454046249 0.121283970773220 0.581606090068817 0.163598492741585 -0.451829075813294 -0.001203472958878 0.216365918517113 0.053740624338388 0.255765795707703 0.140024617314339
http://dbpedia.org/resource/Abilene_Christian_University -0.129173099994659 -0.404278099536896 0.032789133489132 0.632809042930603 -0.062665738165379 0.013175289146602 0.157530978322029 0.246892392635345 -0.228891059756279 0.231371685862541 -0.527747273445129
http://dbpedia.org/resource/Weapons_(album) -0.135009065270424 0.221356391906738 0.510757088661194 -0.158475592732430 0.588360071182251 0.029630623757839 0.287181496620178 0.047975935041904 -0.311960279941559 -0.142974212765694 -0.162927299737930
http://dbpedia.org/resource/At_Your_Inconvenience 0.344721525907516 0.050255816429853 0.172887116670609 0.160663887858391 0.346562653779984 -0.418016791343689 0.478715479373932 -0.117172300815582 -0.033596280962229 0.263052135705948 -0.759327054023743
http://dbpedia.org/resource/College_of_Wooster 0.609706282615662 -0.537393867969513 -0.241346210241318 -0.279475808143616 0.771808326244354 0.558275461196899 0.126111060380936 -0.208519250154495 -0.348752111196518 -0.103281319141388 0.015500064007938
http://dbpedia.org/resource/College_of_Mount_Saint_Vincent 0.175148069858551 -0.287315845489502 0.054568942636251 -0.036494616419077 0.324729174375534 0.881944537162781 0.354893863201141 0.173918798565865 -0.236982330679893 0.295187771320343 -0.044560905545950
http://dbpedia.org/resource/University_of_West_Alabama 0.065458558499813 0.025658264756203 0.032573170959949 0.386159747838974 0.171042904257774 0.586952507495880 -0.126290932297707 0.126988366246223 -0.163063406944275 0.133791431784630 0.033064953982830
http://dbpedia.org/resource/No_Baggage -0.235962420701981 0.414962351322174 0.173734426498413 0.091024413704872 0.604469656944275 -0.146025583148003 -0.183377549052238 -0.272283881902695 -0.368342548608780 -0.078053712844849 -0.109440967440605
http://dbpedia.org/resource/Texas_Instruments -0.288769274950028 0.221417650580406 -0.035959683358669 0.807039141654968 0.565061330795288 0.065606988966465 0.929537773132324 0.094865918159485 0.139544159173965 0.154644817113876 -0.098001092672348
http://dbpedia.org/resource/Morgan_State_University 0.862045943737030 0.037302087992430 0.141247183084488 0.102274693548679 -0.288730740547180 0.133129030466080 0.093515880405903 0.110353589057922 0.189639598131180 0.152116358280182 -0.372492939233780
http://dbpedia.org/resource/NextEra_Energy -0.128679960966110 -0.059633675962687 -0.183766841888428 0.738303601741791 0.283073276281357 0.638640642166138 0.143966868519783 -0.080185465514660 0.339169859886169 0.103466786444187 -0.103062942624092
http://dbpedia.org/resource/Sysco 0.022102782502770 -0.011135717853904 0.345782011747360 0.852633833885193 1.037054061889648 0.247496202588081 0.448936969041824 0.414036363363266 0.008100468665361 0.093068696558475 0.082900188863277
http://dbpedia.org/resource/The_Powerless_Rise -0.132625192403793 -0.142158925533295 0.062142677605152 0.155421450734138 0.598560392856598 0.331237047910690 0.101924844086170 -0.201880618929863 -0.779277145862579 0.021305644884706 -0.638247966766357
http://dbpedia.org/resource/You_Forgot_It_in_People -0.573013663291931 0.541868507862091 0.044777985662222 0.336791992187500 0.610177993774414 0.199985057115555 0.259217083454132 0.009281491860747 -0.762549817562103 0.258595466613770 -0.130082920193672
http://dbpedia.org/resource/Lahore 0.800925731658936 0.525034725666046 0.096809357404709 -0.211167842149734 0.737538635730743 -0.430867522954941 1.476173400878906 0.549879252910614 0.011379024013877 -0.905243813991547 0.455366015434265
http://dbpedia.org/resource/Blue_Crush 0.079797826707363 -0.225528210401535 -0.035879578441381 0.603691995143890 0.295230716466904 0.032325848937035 -0.008369749411941 0.229537129402161 -0.277079552412033 0.066875822842121 0.340036362409592
http://dbpedia.org/resource/Cop_Out_(2010_film) 0.106076881289482 0.142376855015755 0.245887205004692 0.402855426073074 0.175362452864647 0.042428642511368 0.048886358737946 0.249759644269943 -0.146806314587593 0.208684250712395 -0.177608117461205
http://dbpedia.org/resource/Little_Fockers 0.446080714464188 0.146621823310852 0.299589604139328 0.753618359565735 0.485081791877747 0.367914915084839 0.270479023456573 -0.021336479112506 -0.129605844616890 0.213133901357651 -0.056561060249805
http://dbpedia.org/resource/One_Hundred_Mornings -0.213242888450623 0.127909287810326 0.255917340517044 0.119381219148636 0.648082256317139 -0.143323853611946 -0.074787229299545 -0.381223291158676 0.099731318652630 0.131689250469208 0.488074541091919
http://dbpedia.org/resource/Hendrix_College 0.364108473062515 -0.788969755172729 -0.113209940493107 0.249730333685875 0.549571096897125 0.615636229515076 0.436377227306366 -0.141354769468307 -0.214380607008934 0.046533685177565 -0.223596766591072
http://dbpedia.org/resource/Kuwait_City 0.222828641533852 -0.698992073535919 0.446672469377518 -0.394027024507523 -0.363759994506836 0.502194643020630 -0.726098358631134 1.015187978744507 0.840788364410400 0.075608268380165 -0.079228915274143
http://dbpedia.org/resource/Rio_de_Janeiro -0.316540420055389 -0.631739377975464 0.620107173919678 -0.782496571540833 -0.908470153808594 0.226260721683502 0.077532418072224 -0.288264453411102 0.484791696071625 -0.753854990005493 0.576589047908783
http://dbpedia.org/resource/Moolaad -0.134347811341286 0.460034906864166 0.093711338937283 0.742141544818878 0.608420431613922 -0.250354021787643 -0.284134626388550 -0.314538091421127 -0.237785398960114 0.649549901485443 0.499381273984909
http://dbpedia.org/resource/Mount_Saint_Mary_College 0.344708472490311 -0.173173233866692 -0.142528906464577 0.224008217453957 0.062084145843983 0.547921001911163 -0.041466772556305 0.228345751762390 0.036298662424088 0.452635169029236 0.287362605333328
http://dbpedia.org/resource/Howards_End_(film) 0.183582946658134 -0.124503590166569 0.287147015333176 0.462777614593506 0.738145709037781 0.327018260955810 0.300064146518707 -0.097462989389896 0.304428339004517 0.274006754159927 0.182410329580307
http://dbpedia.org/resource/Sweet_7 0.177048742771149 0.246902674436569 0.227355986833572 0.087232470512390 0.731566667556763 -0.269589006900787 0.287319034337997 0.414079755544662 -0.641844749450684 0.051517866551876 -0.594569683074951
http://dbpedia.org/resource/Abertis -0.044888291507959 0.565454244613647 -0.238642483949661 0.709043860435486 0.498695552349091 0.413613557815552 1.074662208557129 0.270428061485291 0.175572216510773 -0.009131173603237 -0.085913240909576
http://dbpedia.org/resource/The_Jungle_Book_2 0.292535066604614 -0.051750052720308 0.441543787717819 0.334079712629318 0.696789979934692 0.046687401831150 0.181310221552849 0.519654631614685 0.106885299086571 0.067204803228378 0.462235301733017
http://dbpedia.org/resource/Not_Another_Teen_Movie -0.018018441274762 -0.144201964139938 0.379097044467926 0.540590226650238 0.353161811828613 0.029714332893491 -0.040269672870636 0.213386237621307 -0.295452773571014 -0.179247274994850 0.170195534825325
http://dbpedia.org/resource/Riot! -0.370404779911041 0.227201193571091 0.388480931520462 0.372750014066696 0.839201807975769 -0.331621855497360 0.140746220946312 0.054963506758213 -0.337263733148575 -0.152959331870079 -0.146218761801720
http://dbpedia.org/resource/The_Social_Network 0.555868208408356 -0.615304350852966 0.448261409997940 0.441839009523392 0.746757984161377 0.033297561109066 0.369558066129685 0.146486550569534 -0.472306996583939 0.237946152687073 0.034540358930826
http://dbpedia.org/resource/The_Sweetest_Thing 0.334005802869797 -0.167675629258156 0.239166319370270 0.702958643436432 0.447721183300018 0.313635587692261 -0.041356272995472 0.003738366067410 0.014940541237593 -0.121940247714520 0.212946161627769
http://dbpedia.org/resource/BloodRayne_(film) 0.005907437764108 0.286441236734390 0.125555455684662 0.101209707558155 0.474329799413681 -0.101818494498730 -0.054351687431335 0.136512249708176 -0.341139882802963 -0.222761094570160 0.135636433959007
http://dbpedia.org/resource/Postal_(film) 0.169378533959389 0.232526391744614 0.094257682561874 0.441279172897339 0.285736918449402 -0.070980399847031 -0.149563655257225 0.524558722972870 -0.323182016611099 0.096315763890743 -0.164324000477791
http://dbpedia.org/resource/Superhero_Movie 0.058654990047216 0.013593848794699 0.073580041527748 0.861800014972687 0.035830680280924 0.058759003877640 -0.066905818879604 0.129183262586594 -0.048762168735266 0.047399036586285 0.113355472683907
http://dbpedia.org/resource/Ghosts_of_Girlfriends_Past 0.177283346652985 0.218137085437775 0.252888262271881 0.406369417905807 0.493766129016876 -0.075395666062832 0.297512799501419 0.028519896790385 -0.009060559794307 0.307583481073380 0.288045614957809
http://dbpedia.org/resource/Tropical_Malady 0.485380887985229 0.340125173330307 0.569136977195740 0.132296130061150 0.474072486162186 0.340895891189575 0.016303826123476 -0.110164999961853 0.156423822045326 0.307035923004150 0.153348386287689
http://dbpedia.org/resource/Blackjazz -0.106460534036160 0.062252607196569 -0.114403806626797 -0.279762685298920 0.371739894151688 0.432529956102371 0.100580111145973 -0.189664632081985 -0.377374291419983 0.212957814335823 -0.236719712615013
http://dbpedia.org/resource/4_Months,_3_Weeks_and_2_Days 0.031935829669237 -0.404546350240707 0.076342366635799 0.185703054070473 0.532943010330200 0.037590079009533 0.029929682612419 0.021197121590376 -0.097789779305458 0.597342252731323 0.497738748788834
http://dbpedia.org/resource/Nouma 0.316612452268601 -0.645409643650055 -0.339556246995926 -0.317427605390549 -0.605087637901306 -0.455624401569367 -0.651200890541077 -0.075957916676998 0.586001515388489 -0.353348881006241 -0.063908062875271
http://dbpedia.org/resource/Goodbye_Lullaby -0.216380834579468 0.602923929691315 0.497823059558868 0.343889117240906 0.699727654457092 -0.008347021415830 0.158684521913528 0.234906956553459 -0.149976581335068 0.016604589298368 -0.436130046844482
http://dbpedia.org/resource/Clash_Battle_Guilt_Pride -0.025680741295218 -0.190333515405655 0.426138311624527 0.117900289595127 0.265595495700836 0.104645073413849 0.289425909519196 0.054805792868137 -0.369408994913101 -0.100838050246239 -0.011196270585060
http://dbpedia.org/resource/Bitte_Orca 0.050572320818901 0.122628614306450 -0.078942611813545 0.350236862897873 0.506550788879395 0.022730719298124 0.158103302121162 0.216617897152901 -0.446477502584457 0.130231738090515 0.128059521317482
http://dbpedia.org/resource/Hanwha_Life_Insurance -0.460767060518265 0.753312587738037 0.008091252297163 0.441915184259415 0.538846552371979 0.398542493581772 0.032175693660975 0.101545535027981 0.026791976764798 0.022996254265308 -0.265404403209686
http://dbpedia.org/resource/MeadWestvaco -0.121897190809250 0.138002127408981 -0.552851736545563 0.913529574871063 -0.011254637502134 0.614136517047882 0.180434077978134 0.036273818463087 -0.276976823806763 0.086048595607281 -0.849792242050171
http://dbpedia.org/resource/Pacific_Gas_and_Electric_Company -0.502261459827423 0.477148026227951 -0.036002732813358 0.575122237205505 0.774071693420410 0.818649411201477 1.139328002929688 0.205392181873322 0.369388908147812 -0.512989759445190 -0.173710569739342
http://dbpedia.org/resource/Saint_Xavier_University 0.365340977907181 -0.063233792781830 0.200263425707817 0.306388109922409 0.328372925519943 0.766420185565948 0.686844825744629 0.149668708443642 -0.100918367505074 0.023031363263726 -0.301137149333954
http://dbpedia.org/resource/Destroy_Rock_&_Roll -0.003360059577972 -0.107064493000507 0.192281678318977 -0.251415610313416 0.528984010219574 -0.041096162050962 0.314192384481430 -0.033611722290516 -0.699641644954681 0.341355711221695 -0.012511920183897
http://dbpedia.org/resource/High_Violet -0.201133444905281 0.110720142722130 0.193433448672295 0.128360599279404 0.465484976768494 -0.303485900163651 0.254898905754089 0.400141626596451 -0.706515789031982 0.236475497484207 0.085547111928463
http://dbpedia.org/resource/Stigmata_(film) 0.044067848473787 -0.381849050521851 0.376763075590134 0.254896789789200 0.593897700309753 0.345057576894760 0.053898263722658 -0.193454250693321 -0.008500361815095 0.090630322694778 0.326172977685928
http://dbpedia.org/resource/The_Purple_Rose_of_Cairo 0.316957086324692 -0.052407532930374 0.226195752620697 0.860810697078705 0.520182788372040 0.338325202465057 0.049940634518862 0.079903408885002 -0.045762877911329 0.231988772749901 0.306152552366257
http://dbpedia.org/resource/CapitaMall_Trust 0.198548749089241 0.059916891157627 0.154303103685379 0.218150913715363 0.181387081742287 0.371204227209091 0.201871111989021 0.107923358678818 0.088313646614552 -0.081830173730850 -0.290128439664841
http://dbpedia.org/resource/Southern_Rock_Opera -0.542788505554199 -0.026405721902847 0.359724700450897 0.351204931735992 0.506500780582428 0.166717335581779 -0.204127952456474 -0.168680608272552 -0.444530218839645 0.243347108364105 0.180243432521820
http://dbpedia.org/resource/Raytheon -0.320208758115768 -0.189698383212090 -0.659498691558838 0.878235459327698 0.450031667947769 0.070443540811539 0.547947824001312 -0.581899166107178 0.141834646463394 -0.167540624737740 0.214908838272095
http://dbpedia.org/resource/California_State_University,_Bakersfield 0.374909043312073 -0.368131369352341 0.112249612808228 0.326532006263733 -0.156595081090927 0.372914552688599 0.635291337966919 -0.248652756214142 0.045686338096857 0.000727015372831 0.407433122396469
http://dbpedia.org/resource/University_of_Virginia 0.889497160911560 0.079255029559135 0.013508566655219 0.666170299053192 0.059687212109566 0.071011073887348 -0.521403193473816 0.087306670844555 -0.244958788156509 0.071645565330982 -0.360952764749527
http://dbpedia.org/resource/Marshall_University 0.523273348808289 -0.449619054794312 0.136499926447868 0.398407191038132 -0.977488994598389 0.062738418579102 -0.304610878229141 0.483281403779984 0.178867384791374 0.334669321775436 -0.328828752040863
http://dbpedia.org/resource/SL_Green_Realty 0.142132371664047 0.051610793918371 0.102525457739830 0.477633893489838 0.306125909090042 0.242090195417404 0.243626013398170 0.651108264923096 0.561695575714111 0.013763568364084 -0.346721380949020
http://dbpedia.org/resource/Until_the_End_(album) -0.348239690065384 -0.191865801811218 -0.026659490540624 -0.081920571625233 0.595322191715240 0.361459940671921 0.316021472215653 -0.167790696024895 -0.596286594867706 0.264049589633942 -0.650945007801056
http://dbpedia.org/resource/Three_to_Tango -0.218153506517410 -0.062445245683193 0.166710749268532 0.541113138198853 0.454550921916962 0.131063222885132 0.168611660599709 0.212767899036407 0.237729966640472 0.040102489292622 0.083929851651192
http://dbpedia.org/resource/Edinboro_University_of_Pennsylvania 0.229577824473381 0.163876354694366 0.233758151531220 -0.298020333051682 -0.316302001476288 0.360567599534988 -0.031366445124149 -0.022814979776740 0.207709893584251 0.284834027290344 -0.319270908832550
http://dbpedia.org/resource/Damita_Jo_(album) -0.217288583517075 -0.186249747872353 0.132259428501129 -0.195344120264053 0.660936772823334 -0.220406755805016 0.504653573036194 -0.030234552919865 -0.263103544712067 0.346129536628723 -0.154753491282463
http://dbpedia.org/resource/University_of_Northern_Iowa 0.451498836278915 -0.208613187074661 0.428230047225952 0.057255089282990 -0.450298875570297 0.676877558231354 0.847895026206970 0.285116076469421 -0.499080747365951 0.246768742799759 -0.013278890401125
http://dbpedia.org/resource/University_of_Wisconsin-Madison_School_of_Music 0.005446250550449 0.108385801315308 -0.035114627331495 0.085883274674416 0.235315144062042 0.431921631097794 0.071145378053188 -0.062446296215057 -0.151187211275101 0.033017799258232 0.196314767003059
http://dbpedia.org/resource/Monster_Beverage -0.118789032101631 0.447083026170731 -0.691466748714447 1.206141948699951 0.237605810165405 0.536530792713165 0.686282336711884 0.078638419508934 -0.412729799747467 0.331747412681580 0.350827723741531
http://dbpedia.org/resource/New_Leaves -0.052437301725149 0.186770468950272 0.065395168960094 0.291605472564697 0.604892551898956 -0.052732080221176 0.440138339996338 0.110506556928158 -0.660690903663635 0.044463437050581 -0.217037260532379
http://dbpedia.org/resource/Freddie_Mac 0.006244699936360 0.139221131801605 -0.093245021998882 1.057712316513062 0.257263302803040 0.552503883838654 0.000980455311947 0.408660352230072 0.207111060619354 0.078762508928776 -0.236121416091919
http://dbpedia.org/resource/The_First_Beautiful_Thing -0.239385634660721 0.416531920433044 0.314161598682404 0.203230857849121 0.390830844640732 0.329876184463501 0.058208003640175 -0.205019101500511 0.194626376032829 0.111361846327782 -0.270596295595169
http://dbpedia.org/resource/Ho_Chi_Minh_City -0.520509660243988 0.402967691421509 0.080547176301479 0.369462907314300 -0.434726625680923 0.110952742397785 0.594524979591370 1.351548194885254 -0.088604100048542 -0.990900695323944 0.072043351829052
http://dbpedia.org/resource/The_Lady_and_the_Duke -0.105281375348568 0.070275105535984 -0.002858260646462 0.457251101732254 0.326973140239716 0.346779197454453 0.226643949747086 0.078909620642662 -0.140664398670197 0.283067822456360 0.234018474817276
http://dbpedia.org/resource/Girl_Play 0.128517135977745 0.158040910959244 0.485818475484848 1.039112210273743 0.386026680469513 0.211314365267754 0.087330482900143 -0.222568422555923 -0.068224042654037 -0.087276078760624 -0.075568117201328
http://dbpedia.org/resource/The_Edukators -0.139258906245232 0.121628746390343 0.179532542824745 -0.081728637218475 0.396560490131378 0.187567174434662 0.019873935729265 -0.153743892908096 -0.294810622930527 0.154377236962318 0.206408441066742
http://dbpedia.org/resource/Safety_Not_Guaranteed 0.171931996941566 0.163546800613403 0.248842403292656 0.680947661399841 0.554178476333618 -0.121789239346981 0.127671137452126 -0.044226139783859 -0.136417821049690 -0.313792347908020 -0.063603915274143
http://dbpedia.org/resource/Common_Era 0.023913759738207 0.427049368619919 -0.118829458951950 0.881328821182251 0.596246421337128 0.675996899604797 0.634188115596771 -0.256084531545639 -0.005027940962464 -0.007455692626536 -0.152228310704231
http://dbpedia.org/resource/You_Are_Free -0.136441290378571 -0.081816695630550 0.092248119413853 -0.085941165685654 0.324277818202972 -0.578901767730713 -0.162369087338448 0.231915593147278 -0.347486466169357 0.544039785861969 -0.100472189486027
http://dbpedia.org/resource/Lennar_Corporation 0.029484519734979 -0.080785378813744 -0.022480867803097 0.190008804202080 0.153963372111320 0.366514086723328 0.130059853196144 0.195292562246323 0.041281510144472 0.091113947331905 0.123930178582668
http://dbpedia.org/resource/National_Bank_of_Greece -0.230402439832687 0.318285465240479 -0.326844364404678 0.057999808341265 0.334159493446350 0.811963438987732 0.157922282814980 0.119418472051620 -0.088983342051506 0.270104974508286 -0.368737488985062
http://dbpedia.org/resource/Fifth_Third_Bank -0.466465145349503 0.474849820137024 -0.011968596838415 0.694045066833496 0.230378136038780 0.468454897403717 -0.048752151429653 0.236381322145462 0.188611999154091 0.113787911832333 0.008568061515689
http://dbpedia.org/resource/The_Tigers_Have_Spoken -0.549374699592590 0.203324407339096 0.388367384672165 0.718705713748932 0.742055594921112 0.420247018337250 -0.109245158731937 -0.396218836307526 -0.475929319858551 0.493869751691818 -0.231504768133163
http://dbpedia.org/resource/Borrowed_Heaven -0.309050709009170 0.170877993106842 0.477085620164871 0.270673096179962 0.900404095649719 0.165097102522850 0.136818870902061 -0.216243758797646 -0.612723350524902 0.290249645709991 -0.125797510147095
http://dbpedia.org/resource/The_Dutchess -0.012014230713248 -0.050961088389158 0.296407490968704 0.259453266859055 0.756588399410248 0.104346938431263 0.629378736019135 0.094855844974518 -0.481231480836868 -0.137462213635445 -0.280282258987427
http://dbpedia.org/resource/The_Guillotines 0.046090129762888 -0.002577477600425 0.779210567474365 0.167400777339935 0.108183465898037 -0.035011541098356 0.452946543693542 -0.182665407657623 -0.485208451747894 -0.032930295914412 -0.036909822374582
http://dbpedia.org/resource/Color_of_the_Cross 0.348037451505661 -0.158693552017212 -0.078219190239906 0.378784894943237 0.121181100606918 0.676950395107269 0.249209061264992 -0.086946792900562 -0.161349102854729 -0.163511171936989 0.293915838003159
http://dbpedia.org/resource/If_Songs_Could_Be_Held -0.303411275148392 0.265432119369507 0.119971826672554 -0.015906374901533 0.821352183818817 -0.134461402893066 0.122355572879314 0.009721152484417 -0.881144225597382 0.061567280441523 0.203336223959923
http://dbpedia.org/resource/Hellenic_Petroleum 0.078317709267139 -0.053984146565199 -0.037944786250591 0.109176628291607 0.327145814895630 0.878244638442993 0.691561162471771 -0.106683179736137 -0.084879927337170 0.380968153476715 0.017888007685542
http://dbpedia.org/resource/Come_to_Life -0.350487291812897 -0.463271051645279 0.007810763083398 -0.309864491224289 0.808969318866730 -0.209157124161720 0.154615193605423 0.490306884050369 -0.402235448360443 -0.041119199246168 -0.130642712116241
http://dbpedia.org/resource/The_Disappearance_of_Alice_Creed 0.153335839509964 0.202761501073837 0.348412007093430 0.017566639930010 0.542042851448059 0.152305215597153 0.140748798847198 -0.222919493913651 -0.095722474157810 -0.013011922128499 0.474389284849167
http://dbpedia.org/resource/How_to_Lose_Friends_&_Alienate_People_(film) -0.083552703261375 0.014952548779547 0.390091776847839 0.473848670721054 0.628746330738068 0.205366477370262 0.314625799655914 0.200429499149323 -0.085845731198788 0.576285123825073 -0.218360587954521
http://dbpedia.org/resource/Killer_Sounds -0.144071534276009 -0.019947173073888 0.007579006254673 -0.130845248699188 0.551091074943542 -0.066132880747318 0.269251823425293 0.105908997356892 -0.199592664837837 0.103918127715588 -0.468864470720291
http://dbpedia.org/resource/A_Grin_Without_a_Cat 0.126644179224968 0.137547761201859 0.113293431699276 0.613228619098663 0.278283208608627 0.038579694926739 0.033092569559813 -0.228111624717712 -0.148501336574554 0.460157006978989 0.705433189868927
http://dbpedia.org/resource/The_Beastmaster 0.325571060180664 0.023784181103110 0.093817174434662 0.402915030717850 0.358553797006607 0.083873361349106 -0.013666044920683 -0.031278636306524 0.028002683073282 -0.121568933129311 0.078051432967186
http://dbpedia.org/resource/Asahi_Glass_Co. -0.617032945156097 0.324270308017731 -0.276342123746872 0.471713840961456 0.634896218776703 0.603175699710846 0.397225558757782 0.297753900289536 -0.175338104367256 -0.072793245315552 0.036733396351337
http://dbpedia.org/resource/University_of_California,_Davis 0.508006989955902 0.339484274387360 0.389524012804031 0.128420919179916 -0.420270651578903 -0.010595549829304 0.238606452941895 0.215851366519928 0.199211433529854 0.435532838106155 -0.263897597789764
http://dbpedia.org/resource/A_Funk_Odyssey 0.250770360231400 0.166000500321388 0.283371925354004 -0.147260814905167 0.302646875381470 0.165296480059624 0.591913461685181 0.004930084105581 -0.206735461950302 0.196858525276184 -0.048785846680403
http://dbpedia.org/resource/The_Graduate 0.381997555494309 0.192663013935089 0.309757202863693 0.798693776130676 0.690010368824005 0.222078815102577 0.419621974229813 -0.028278606012464 0.321691334247589 0.292970120906830 0.392472565174103
http://dbpedia.org/resource/Empire_Records -0.364334344863892 0.074062794446945 0.238260358572006 0.502319216728210 0.356133013963699 0.163260906934738 0.256840705871582 0.177647352218628 -0.426656663417816 0.269848495721817 0.079873315989971
http://dbpedia.org/resource/EasyJet 0.048575684428215 0.533444225788116 -0.033876117318869 0.529764652252197 0.405491054058075 0.129036009311676 0.691607117652893 -0.284060269594193 0.582728326320648 -0.054289899766445 -0.251083999872208
http://dbpedia.org/resource/WBEJ -0.240252286195755 0.200239777565002 -0.270149976015091 0.310311108827591 0.031746540218592 0.556913495063782 0.225581541657448 -0.051056340336800 0.146322637796402 0.225742131471634 0.223307654261589
http://dbpedia.org/resource/Beverly_Hills_Ninja 0.070126883685589 -0.232215121388435 0.213282778859138 0.573278844356537 0.106713347136974 -0.202021479606628 0.200655728578568 -0.269386589527130 0.088437564671040 -0.071358017623425 0.034017745405436
http://dbpedia.org/resource/Singapore_Airlines 0.166639715433121 0.438991576433182 0.119154088199139 0.437138468027115 0.542659223079681 0.142557457089424 0.020271424204111 0.288114935159683 0.504573404788971 -0.030535174533725 -0.744983971118927
http://dbpedia.org/resource/Western_Union -0.242265790700913 0.297177702188492 -0.789927124977112 0.508054375648499 0.561235010623932 0.260576128959656 0.181204050779343 0.378511965274811 0.174526184797287 0.187477380037308 -0.109525740146637
http://dbpedia.org/resource/Shanghai 0.423895359039307 0.468384712934494 -0.067603699862957 0.209576383233070 -0.402114033699036 -0.044652596116066 0.483325839042664 0.622662365436554 -0.571099579334259 -0.674135208129883 0.261023700237274
http://dbpedia.org/resource/Newcrest_Mining -0.373386800289154 -0.025002392008901 -0.352176368236542 0.631327748298645 0.365876913070679 0.037076205015182 -0.019069595262408 0.475398361682892 0.268302977085114 0.119418792426586 -0.249809578061104
http://dbpedia.org/resource/Flubber_(film) 0.528706669807434 -0.305802464485169 0.085101068019867 0.531666398048401 0.687019586563110 0.259283304214478 0.285494536161423 0.304758578538895 -0.099598683416843 -0.072129487991333 0.259819507598877
http://dbpedia.org/resource/Collateral_Damage_(film) 0.401052385568619 -0.112336844205856 0.325081914663315 0.583250284194946 0.193050697445869 0.230971083045006 -0.316891819238663 -0.089725077152252 -0.311285287141800 0.118000082671642 0.020238175988197
http://dbpedia.org/resource/CBS 0.527725219726562 0.112645410001278 0.567163228988647 0.693545937538147 0.151391789317131 0.589905679225922 -0.816253244876862 0.700153172016144 0.024670943617821 0.981732964515686 -0.685527861118317
http://dbpedia.org/resource/Molloy_College 0.210475385189056 -0.041020851582289 -0.077889911830425 0.526477456092834 -0.049351654946804 0.511187732219696 -0.180173292756081 0.098865330219269 -0.209953039884567 0.407674074172974 0.034960836172104
http://dbpedia.org/resource/Halliburton 0.160113751888275 -0.127991303801537 -0.077559746801853 1.219426989555359 0.479554653167725 0.004581873305142 0.420871704816818 -0.137614250183105 0.372216403484344 0.123841509222984 -0.015794459730387
http://dbpedia.org/resource/The_Truman_Show 0.276974976062775 -0.179370060563087 0.342329800128937 0.828284502029419 0.534621655941010 -0.132762148976326 0.179420873522758 0.036502242088318 0.223824515938759 0.093786925077438 0.331801116466522
http://dbpedia.org/resource/Chang_Hwa_Bank 0.066084831953049 0.280630201101303 -0.132397666573524 0.118748128414154 0.545687139034271 0.534327328205109 -0.238840252161026 0.125734567642212 0.070107303559780 0.077157229185104 -0.130991116166115
http://dbpedia.org/resource/Stockholm 0.548247098922729 -0.413978725671768 -0.284567683935165 0.467742472887039 0.762358486652374 -0.005801378283650 0.557162761688232 -0.099912613630295 -0.010155447758734 -0.993375420570374 0.116890706121922
http://dbpedia.org/resource/Peugeot -0.692559957504272 0.224814787507057 -0.847711145877838 1.364280104637146 0.368014812469482 0.736198008060455 0.160754486918449 -0.799514472484589 0.325200527906418 0.670291960239410 0.169558227062225
http://dbpedia.org/resource/Suit_(album) 0.300701767206192 0.190365538001060 0.207365140318871 0.566742539405823 0.178451940417290 -0.068998843431473 0.028488647192717 -0.057522933930159 -0.311937093734741 0.123226769268513 -0.565009713172913
http://dbpedia.org/resource/Sarajevo 0.300561934709549 -0.085785895586014 -0.220508277416229 -0.905595004558563 0.494564384222031 0.196014225482941 1.589094042778015 0.575639188289642 -0.143296599388123 0.187058016657829 0.126975193619728
http://dbpedia.org/resource/Cryptomnesia_(album) -0.113378904759884 -0.170545935630798 0.085376799106598 0.118793614208698 0.213302969932556 0.161756277084351 0.230747804045677 -0.168984115123749 -0.302964359521866 -0.094399884343147 -0.255983740091324
http://dbpedia.org/resource/The_Deer_Hunter -0.334129273891449 0.126555398106575 0.160557806491852 0.780929386615753 0.281445354223251 0.213523536920547 0.154398232698441 0.036962304264307 -0.001193526317365 0.384487956762314 0.578829407691956
http://dbpedia.org/resource/Wayne_State_University 0.861923098564148 -0.053043026477098 0.408186078071594 0.492776185274124 0.704779386520386 -0.250747740268707 -0.263638377189636 0.380531579256058 0.016652423888445 0.182237595319748 0.196864798665047
http://dbpedia.org/resource/Post-Nothing -0.106182344257832 0.324712216854095 0.101429931819439 0.551466107368469 0.332029849290848 0.045723941177130 0.438074111938477 0.103384315967560 -0.521872758865356 -0.120719738304615 -0.375756651163101
http://dbpedia.org/resource/Blues_Dream 0.264389365911484 0.294387459754944 0.156059041619301 0.203081980347633 0.156495392322540 0.296161442995071 0.190859153866768 0.053553309291601 -0.201482713222504 0.378817081451416 0.160707071423531
http://dbpedia.org/resource/WTEN -0.133432343602180 -0.075129844248295 -0.421871304512024 0.229521140456200 0.097558602690697 0.682381331920624 0.628260135650635 0.076792433857918 0.298532932996750 0.463323384523392 0.062067117542028
http://dbpedia.org/resource/Love_and_Honor -0.360305160284042 0.222110748291016 0.522765398025513 0.128872290253639 0.399364799261093 0.528838276863098 -0.277799844741821 -0.213899657130241 -0.114719830453396 0.296050101518631 -0.053428512066603
http://dbpedia.org/resource/Source_Tags_&_Codes -0.173271089792252 0.356527477502823 0.223927006125450 -0.116466172039509 0.403025388717651 0.010644032619894 0.197280660271645 0.046595707535744 -0.618693172931671 0.036311887204647 -0.127546504139900
http://dbpedia.org/resource/Pause_(album) 0.257264316082001 -0.073628544807434 0.139998659491539 0.326514989137650 0.465362310409546 0.058453153818846 0.645527064800262 -0.244074374437332 -0.621040523052216 0.103010185062885 -0.400950878858566
http://dbpedia.org/resource/Madvillainy 0.309913605451584 0.015730263665318 0.150385797023773 0.335993826389313 0.644095242023468 0.146146088838577 0.197481855750084 -0.418096572160721 -0.589707374572754 0.136772602796555 -0.622899651527405
http://dbpedia.org/resource/The_Twilight_Samurai -0.449873417615891 0.291419327259064 0.656406939029694 0.000382174330298 0.648473083972931 0.287164628505707 -0.150077834725380 -0.170007929205894 -0.282513767480850 0.142646834254265 0.181199580430984
http://dbpedia.org/resource/Jumanji 0.262702167034149 -0.043934900313616 0.091219492256641 0.723568558692932 0.585390746593475 0.362289220094681 0.258799940347672 0.112104319036007 0.047829527407885 0.129583150148392 0.274907976388931
http://dbpedia.org/resource/The_Animal_Years -0.425247818231583 0.213395833969116 -0.004327810369432 0.038834009319544 0.589961349964142 -0.001429700525478 -0.159464582800865 -0.056987419724464 -0.750696003437042 0.286862790584564 0.033145494759083
http://dbpedia.org/resource/Lebanon_Valley_College 0.273121446371078 0.042836956679821 0.001174222794361 0.006195210851729 -0.039822120219469 -0.069143719971180 0.072448544204235 0.110869407653809 -0.271503061056137 0.383063554763794 -0.155371755361557
http://dbpedia.org/resource/Universal_Pulse -0.036989133805037 0.182303532958031 0.220294028520584 0.396799534559250 0.569321990013123 0.122447766363621 0.133217811584473 0.175220102071762 -0.177313819527626 -0.322712361812592 -0.167850703001022
http://dbpedia.org/resource/Bad_as_Me -0.013384654186666 0.306609094142914 0.010600385256112 0.299246579408646 0.186300441622734 -0.027009855955839 0.009890934452415 -0.334658145904541 -0.514419436454773 0.276077032089233 -0.136491000652313
http://dbpedia.org/resource/Intuitive_Surgical -0.224754050374031 0.227511674165726 -0.513684272766113 0.620265960693359 0.730832219123840 0.486671745777130 0.574356913566589 -0.152236253023148 -0.465966820716858 -0.058396782726049 0.149410158395767
http://dbpedia.org/resource/Urbana_University 0.111327566206455 -0.184199139475822 -0.208734795451164 -0.102460913360119 -0.143655851483345 0.357409745454788 0.486935138702393 0.180228024721146 0.013469412922859 0.040380824357271 0.133307516574860
http://dbpedia.org/resource/WHEI -0.083979025483131 0.011574821546674 0.002794971922413 0.156257897615433 -0.034145392477512 0.509877204895020 0.094684429466724 -0.154077440500259 -0.131902039051056 0.207423433661461 0.170921072363853
http://dbpedia.org/resource/The_Idler_Wheel... 0.043110795319080 0.350048899650574 0.034315038472414 -0.081732675433159 1.015819430351257 0.018546923995018 0.199195757508278 0.172747671604156 -0.062371373176575 0.252447813749313 -0.063158512115479
http://dbpedia.org/resource/The_Simpsons_Movie 0.469971805810928 -0.206193894147873 0.044052407145500 0.928265035152435 0.155938059091568 0.644612312316895 0.198117867112160 0.328137487173080 -0.162488803267479 0.164142861962318 0.368831932544708
http://dbpedia.org/resource/Humana -0.239421769976616 0.083665147423744 0.386139541864395 0.519336462020874 0.479144424200058 0.156433999538422 0.323353022336960 0.222976267337799 0.274390667676926 0.095376960933208 -0.356967955827713
http://dbpedia.org/resource/The_Texas_Chainsaw_Massacre:_The_Beginning -0.069646604359150 -0.140796095132828 0.323330163955688 0.497703552246094 0.562753736972809 -0.005399042274803 0.227519541978836 0.062098644673824 -0.245742231607437 0.121726036071777 0.338967233896255
http://dbpedia.org/resource/Bring_on_the_Comets 0.010899594984949 0.253635704517365 0.101894937455654 0.385281682014465 0.249595597386360 -0.107275828719139 0.717355787754059 0.162537351250648 -0.620071351528168 0.264217674732208 -0.037491943687201
http://dbpedia.org/resource/Repo_Chick -0.284336358308792 -0.144973486661911 0.452632188796997 0.637571692466736 -0.056591439992189 -0.342086017131805 0.357098609209061 -0.306282192468643 0.010639416985214 -0.105100959539413 0.357823580503464
http://dbpedia.org/resource/The_Zodiac_(film) 0.332177221775055 0.044536102563143 0.032497376203537 0.777104020118713 0.138803437352180 0.310729503631592 -0.011393429711461 0.173834547400475 -0.277176558971405 -0.239369198679924 0.433266550302505
http://dbpedia.org/resource/Bank_of_Queensland 0.354327738285065 0.096488513052464 -0.337725907564163 0.418612122535706 0.698469877243042 0.328518718481064 0.125386983156204 0.509426295757294 0.357889562845230 0.060750231146812 -0.314009636640549
http://dbpedia.org/resource/Corky_Romano 0.505749225616455 0.123420126736164 0.094850406050682 0.312164366245270 0.129550740122795 0.176849842071533 -0.113138273358345 0.390093713998795 -0.254198074340820 -0.023962303996086 0.055135425180197
http://dbpedia.org/resource/Fitchburg_State_University 0.466846406459808 -0.122707150876522 0.046934835612774 0.703287661075592 0.141353324055672 0.421097457408905 0.367314815521240 -0.008521520532668 0.314437359571457 0.650884926319122 -0.014873888343573
http://dbpedia.org/resource/Bharti_Airtel -0.243366882205009 0.133161500096321 0.277129590511322 0.385420739650726 1.134797930717468 0.207325547933578 0.172252595424652 0.059772670269012 0.313554525375366 0.160298317670822 0.320569872856140
http://dbpedia.org/resource/The_40-Year-Old_Virgin 0.417909204959869 0.059566605836153 0.185969650745392 0.904658913612366 0.922401666641235 0.365531235933304 -0.042244892567396 -0.023058872669935 -0.112424850463867 -0.113347031176090 0.238894090056419
http://dbpedia.org/resource/West_Japan_Railway_Company -0.389589697122574 -0.019337827339768 -0.346967011690140 0.951882600784302 -0.540245056152344 0.403614431619644 0.154943645000458 0.657508492469788 0.224312096834183 0.421092450618744 -0.001515492680483
http://dbpedia.org/resource/The_Flower_of_My_Secret -0.161130860447884 0.284042745828628 0.164658635854721 0.532996714115143 0.385366678237915 0.252895116806030 0.161639377474785 -0.311240732669830 -0.284256547689438 0.307829618453979 0.035723771899939
http://dbpedia.org/resource/Union_University -0.080919854342937 -0.473609268665314 -0.306080967187882 0.314259111881256 0.191547214984894 0.482241868972778 -0.110909283161163 0.020422091707587 -0.258878678083420 0.530758798122406 0.054399833083153
http://dbpedia.org/resource/Ternium -0.045145522803068 0.243418276309967 -0.233035847544670 0.177414223551750 0.400737106800079 0.753760099411011 0.142860814929008 0.014606351964176 0.022022880613804 0.121143057942390 -0.207608744502068
http://dbpedia.org/resource/Alma_College 0.305349826812744 -0.241312712430954 -0.155154719948769 0.885877311229706 0.768841028213501 0.507586359977722 0.098771370947361 0.197468683123589 -0.201238349080086 0.214058443903923 0.232886001467705
http://dbpedia.org/resource/Up_on_the_Ridge -0.110654674470425 0.017585974186659 -0.022944191470742 0.153392702341080 0.621359229087830 -0.254750818014145 0.299147486686706 0.147855892777443 -0.325416982173920 0.142435654997826 -0.154554054141045
http://dbpedia.org/resource/Daiwa_House 0.073152452707291 0.166139066219330 -0.029121588915586 0.215667873620987 0.247952505946159 0.395889252424240 0.004911636468023 0.223569452762604 -0.189789146184921 0.145926356315613 -0.309238284826279
http://dbpedia.org/resource/Fort_Hays_State_University 0.084331542253494 0.057940289378166 -0.027320383116603 0.836296260356903 0.161177501082420 0.576516091823578 0.221638858318329 -0.049401767551899 -0.291510820388794 -0.036827404052019 0.240671873092651
http://dbpedia.org/resource/Credit_Suisse -0.071897037327290 -0.006196036003530 -0.439969420433044 0.099881879985332 0.379762142896652 0.590879380702972 0.367368161678314 0.172686323523521 0.132179483771324 -0.012635612860322 -0.646230220794678
http://dbpedia.org/resource/Spring_Arbor_University 0.013572534546256 0.088560685515404 -0.443897396326065 0.831462264060974 0.368283480405807 0.690398395061493 -0.199935838580132 -0.202084541320801 -0.136193901300430 0.215649276971817 0.079552769660950
http://dbpedia.org/resource/The_Specialist 0.054453223943710 -0.126801460981369 0.149501934647560 0.548726677894592 -0.053511191159487 0.060696907341480 -0.095700718462467 -0.135347843170166 -0.242089450359345 0.090420119464397 0.366252422332764
http://dbpedia.org/resource/Brass_Knuckles_(album) 0.106743142008781 -0.273432254791260 0.116334199905396 0.340152144432068 0.423110872507095 -0.289395213127136 0.195193663239479 -0.062256105244160 -0.210043027997017 0.008801313117146 -0.531395554542542
http://dbpedia.org/resource/Amphenol -0.022499963641167 0.292630344629288 -0.543946266174316 0.954897522926331 0.431574732065201 0.476778358221054 0.523913085460663 -0.369629055261612 -0.093913055956364 0.609629392623901 0.264070689678192
http://dbpedia.org/resource/The_Lost_Tapes 0.149956822395325 0.040583770722151 0.154712304472923 -0.362461119890213 0.446914017200470 0.110108345746994 -0.019756289198995 -0.111739374697208 -0.255638360977173 0.855483591556549 -0.259506464004517
http://dbpedia.org/resource/Grupo_Modelo 0.129895955324173 0.147108674049377 -0.373288035392761 0.467254757881165 0.189377322793007 0.844855606555939 0.365416675806045 -0.174085646867752 -0.402693957090378 -0.027065576985478 0.162236198782921
http://dbpedia.org/resource/Compass_Group 0.125186964869499 0.043125614523888 0.072917558252811 0.636216521263123 0.475764989852905 0.425807595252991 0.445425629615784 0.117194086313248 0.166988492012024 0.344177097082138 0.082565762102604
http://dbpedia.org/resource/Lojas_Americanas 0.056340407580137 0.423371642827988 0.026160346344113 0.300899922847748 0.156634107232094 0.280374467372894 -0.211707636713982 -0.289741992950439 0.040365226566792 0.177475601434708 -0.325172156095505
http://dbpedia.org/resource/Miss_E..._So_Addictive 0.270478934049606 -0.030453145503998 0.186406120657921 0.455338627099991 0.630735576152802 0.052784141153097 0.375163972377777 0.113586015999317 -0.326566994190216 0.104339964687824 -0.636702954769135
http://dbpedia.org/resource/China_Construction_Bank -0.046502485871315 0.441979646682739 0.088970661163330 0.747358381748199 0.326198011636734 0.253507941961288 0.484672069549561 0.254690885543823 0.040618509054184 -0.186369135975838 -0.486466109752655
http://dbpedia.org/resource/Bow_Down_to_the_Exit_Sign 0.196645379066467 -0.201822638511658 0.030198602005839 -0.194598630070686 0.235694408416748 0.015335232019424 0.357551604509354 -0.228082999587059 -0.588074207305908 0.140075311064720 0.147766023874283
http://dbpedia.org/resource/The_Evening_of_My_Best_Day 0.002445475198328 0.209031596779823 0.043552137911320 0.178214654326439 0.517164468765259 0.193902924656868 0.458286374807358 0.217600062489510 -0.649425148963928 0.048555836081505 -0.100478321313858
http://dbpedia.org/resource/Jim_Noir_(album) -0.090809732675552 0.221831530332565 0.076695248484612 0.085259176790714 0.646005272865295 0.065445549786091 0.355413436889648 0.061686038970947 -0.480829685926437 0.031076749786735 0.190092042088509
http://dbpedia.org/resource/Huntington_University_(Canada) -0.297891914844513 0.375520616769791 0.140178188681602 0.463534474372864 0.140992820262909 0.609940230846405 0.173149332404137 -0.063810996711254 -0.177062749862671 0.153722316026688 -0.467752248048782
http://dbpedia.org/resource/Abandon_(film) 0.683391034603119 -0.120908111333847 0.120350949466228 0.447890192270279 0.562442183494568 0.320530831813812 0.010266864672303 0.247891128063202 -0.190874069929123 -0.015823246911168 0.040892861783504
http://dbpedia.org/resource/Sound_of_Water -0.188548058271408 0.297006934881210 0.146636664867401 0.065120458602905 0.494819760322571 -0.276073336601257 0.074756689369678 0.022866457700729 -0.514210522174835 0.269590318202972 -0.352742999792099
http://dbpedia.org/resource/Time_of_the_Wolf -0.054163254797459 0.280402332544327 0.453504264354706 -0.074483931064606 0.470971435308456 0.294571518898010 0.208030596375465 -0.236290588974953 -0.253347218036652 0.265953660011292 0.443723797798157
http://dbpedia.org/resource/Longwood_University 0.562757492065430 0.209717944264412 -0.142046764492989 0.625715076923370 0.121468625962734 0.411432415246964 -0.145485609769821 0.166788667440414 0.551865756511688 0.155162170529366 -0.071772843599319
http://dbpedia.org/resource/Hoodwinked_Too!_Hood_vs._Evil 0.132205173373222 0.320274531841278 0.305596172809601 0.581341922283173 0.129535853862762 0.127137154340744 -0.041080232709646 -0.016512878239155 -0.045634336769581 -0.170380190014839 0.198290899395943
http://dbpedia.org/resource/Welcome_to_the_Dollhouse_(album) 0.161549955606461 -0.088928066194057 0.111845888197422 0.096947602927685 0.529846131801605 -0.187693610787392 0.078792147338390 0.080587014555931 -0.314450621604919 0.054013479501009 -0.385530531406403
http://dbpedia.org/resource/University_of_Colorado_Denver 0.412013471126556 -0.318704634904861 -0.461017996072769 0.086606472730637 0.062955752015114 -0.126076772809029 0.654369175434113 -0.154691442847252 0.123430684208870 -0.301216602325439 -0.309358626604080
http://dbpedia.org/resource/Party_Music 0.247904375195503 0.342118322849274 0.022830812260509 0.420708239078522 0.346549153327942 0.002904569730163 0.013334325514734 -0.124998800456524 -0.278777480125427 0.125978112220764 -0.442246943712234
http://dbpedia.org/resource/Nuclear_Daydream -0.068708151578903 -0.124321997165680 0.228257060050964 -0.017660180106759 0.591698884963989 0.096128344535828 0.464608937501907 -0.015995303168893 -0.428547769784927 -0.215501993894577 0.139385327696800
