http://dbpedia.org/resource/I_Am_Sam 0.181601598858833 -0.066869460046291 0.583873152732849 0.820229530334473 0.693108618259430 0.134485855698586 -0.118505686521530 0.264333426952362 -0.031542170792818 0.536214768886566 0.191552624106407 0.255819410085678 0.216710463166237 0.337667137384415 -0.148788228631020 -0.194482699036598 -0.451043456792831 -0.290648162364960 -0.200971022248268 0.075772866606712 -0.271735191345215
http://dbpedia.org/resource/One_Soul_Now -0.492508143186569 0.471510738134384 0.231177061796188 0.453196644783020 0.895351171493530 0.329716563224792 -0.008646414615214 -0.141859814524651 -0.571138978004456 0.179464086890221 -0.135618180036545 0.136672973632812 -0.116650879383087 0.175399199128151 -0.005253689363599 -0.780640006065369 0.036317735910416 -0.122322328388691 -0.766881942749023 0.536753237247467 -0.620974123477936
http://dbpedia.org/resource/Copenhagen 0.087613359093666 0.185325354337692 -0.357720047235489 -0.024509526789188 0.557885468006134 -0.247657164931297 1.212123155593872 0.489779293537140 0.281215965747833 -0.842240631580353 -0.022456163540483 -0.693798959255219 1.060035586357117 -0.362729161977768 0.182009667158127 -0.577969610691071 0.371019214391708 0.296968191862106 -0.196773007512093 -0.717235505580902 -0.418826967477799
http://dbpedia.org/resource/University_of_La_Verne 0.379742115736008 -0.504321694374084 -0.583319365978241 0.355271935462952 0.098867759108543 0.590078532695770 0.383701860904694 -0.144989103078842 -0.005221772007644 0.060650579631329 -0.488040089607239 -0.395375907421112 -0.760134518146515 -0.377677291631699 0.016252722591162 -0.414581507444382 0.039985679090023 -0.433338105678558 0.062323912978172 -0.081462658941746 -0.889842629432678
http://dbpedia.org/resource/University_of_Delaware 0.510253310203552 -0.028878323733807 -0.471720486879349 -0.087653599679470 0.102513082325459 -0.359136313199997 0.119313195347786 -0.001931700506248 0.067016698420048 0.159057155251503 -0.378332495689392 -0.702981710433960 -0.320007473230362 0.048816196620464 0.478899687528610 -0.660415947437286 -0.287304192781448 -0.432920366525650 -0.181113496422768 0.653305232524872 -2.174031019210815
http://dbpedia.org/resource/First_Daughter_(2004_film) 0.546606600284576 -0.390051305294037 0.223788917064667 0.349049419164658 0.452934145927429 -0.358227252960205 -0.064107142388821 0.211205661296844 -0.122326202690601 0.002430583350360 -0.067661605775356 -0.178003370761871 0.118190661072731 0.452414304018021 0.052214473485947 -0.204946994781494 -0.410547584295273 -0.436123371124268 -0.400590360164642 0.234796494245529 -0.352064639329910
http://dbpedia.org/resource/Role_Models 0.126378029584885 0.038472436368465 0.167332530021667 0.666489660739899 0.370635539293289 0.204388320446014 0.100215651094913 0.114106856286526 -0.211505576968193 0.378884762525559 0.091761857271194 -0.021073484793305 0.218202173709869 0.350018620491028 0.011407921090722 -0.410595148801804 -0.193370595574379 -0.258487433195114 -0.371751070022583 0.221007004380226 -0.237675279378891
http://dbpedia.org/resource/Humming_by_the_Flowered_Vine -0.205984100699425 0.365187495946884 0.241601645946503 0.133564502000809 0.614896953105927 -0.070278003811836 0.233242362737656 0.039400134235620 -0.338219761848450 0.775570690631866 -0.063422158360481 0.157405823469162 -0.094663687050343 0.137573495507240 0.002396907657385 -0.783016741275787 -0.102852322161198 -0.008800247684121 -0.669200599193573 0.911625146865845 -0.735982835292816
http://dbpedia.org/resource/Gjensidige -0.162517338991165 0.592813134193420 -0.274431228637695 0.190987616777420 0.714720249176025 0.548120737075806 0.182528600096703 -0.162565439939499 -0.074791185557842 0.232723593711853 -0.105940639972687 0.116728872060776 0.561305701732635 -0.128138840198517 -0.046082966029644 -0.473469257354736 -0.012509282678366 -0.594509184360504 -0.569801986217499 0.089516431093216 -0.419880479574203
http://dbpedia.org/resource/Premonition_(2007_film) 0.777842104434967 -0.247407585382462 0.177271887660027 0.410931587219238 0.279393881559372 0.273706585168839 -0.179142266511917 -0.016047431156039 0.100480556488037 0.162221387028694 0.424304813146591 -0.038944676518440 0.207095175981522 0.320182681083679 -0.065228961408138 -0.010909398086369 -0.443203061819076 -0.671625912189484 -0.281712383031845 0.502982914447784 -0.355595707893372
http://dbpedia.org/resource/The_Last_Broadcast_(album) -0.093904025852680 0.312919944524765 0.054524179548025 -0.084431342780590 0.914774715900421 -0.689086973667145 0.336149334907532 -0.216332271695137 -0.317800432443619 0.304555416107178 -0.349102646112442 0.334825813770294 -0.057756111025810 -0.359175175428391 -0.128056168556213 -0.370532870292664 0.370420575141907 0.343699723482132 -0.496092677116394 0.688090562820435 -0.761457562446594
http://dbpedia.org/resource/Mitsubishi_Chemical_Corporation -0.366678237915039 0.416544586420059 -0.039662566035986 0.397317469120026 0.431015729904175 0.515822827816010 0.218423247337341 0.102412804961205 -0.247500300407410 0.171914845705032 -0.156068280339241 0.180365860462189 -0.038876187056303 -0.130907922983170 -0.053348578512669 -0.583634197711945 -0.033357299864292 -0.769687235355377 -0.390975326299667 -0.081939242780209 -0.461647659540176
http://dbpedia.org/resource/SpareBank_1_SR-Bank -0.135736361145973 0.042295332998037 0.036815665662289 -0.008512941189110 0.541718006134033 0.668139874935150 0.165215075016022 -0.050368513911963 -0.435835510492325 -0.024331390857697 -0.367685496807098 -0.207144930958748 0.142594560980797 -0.062466062605381 -0.131331488490105 -0.528583526611328 0.171176895499229 -0.380833476781845 -0.916100859642029 -0.181627020239830 -0.323727577924728
http://dbpedia.org/resource/Thunder,_Lightning,_Strike 0.020309558138251 0.156235769391060 -0.164872258901596 0.170401692390442 0.719440162181854 -0.214100405573845 0.280545920133591 -0.044281378388405 -0.585658669471741 0.106743909418583 -0.061485745012760 0.265942066907883 0.031029758974910 0.147443592548370 0.155366018414497 -0.506253719329834 -0.269145309925079 0.453644365072250 -0.970969259738922 0.486112922430039 -0.952311575412750
http://dbpedia.org/resource/Principal_Financial_Group -0.061581920832396 0.144071772694588 0.078929357230663 0.442042708396912 0.248408630490303 0.650471270084381 0.189255714416504 0.294870406389236 0.028679857030511 -0.013264373876154 -0.178749740123749 -0.189460635185242 0.286340445280075 -0.063188500702381 0.255513489246368 -0.522678315639496 -0.053933884948492 -0.548341393470764 0.002940393052995 0.015551437623799 -0.516056597232819
http://dbpedia.org/resource/Country_Garden 0.139173135161400 0.260562717914581 0.410353064537048 0.465807408094406 0.263063997030258 0.225141555070877 -0.184949770569801 0.292115986347198 -0.346243888139725 0.292797833681107 -0.140477016568184 -0.284411847591400 0.218039020895958 0.248214006423950 -0.427550256252289 -0.012354993261397 0.013655525632203 -0.832037210464478 -0.841163158416748 0.011938413605094 -0.628918945789337
http://dbpedia.org/resource/Secret_South -0.061576314270496 0.360362619161606 0.091623440384865 0.416846305131912 0.816873788833618 0.016747590154409 0.169284597039223 -0.389577597379685 -0.301870524883270 -0.195181012153625 -0.235314488410950 0.139947026968002 -0.119859360158443 -0.520718872547150 0.074879929423332 -0.487270742654800 0.503962934017181 0.008347735740244 -0.682098448276520 0.354137897491455 -0.310973644256592
http://dbpedia.org/resource/Greenville_College 0.218645051121712 0.308057874441147 -0.189115718007088 0.119422994554043 0.168588578701019 -0.051357213407755 0.359253734350205 -0.084100000560284 -0.074095115065575 0.053409267216921 -0.353000879287720 -0.308725506067276 -0.422894060611725 0.310579061508179 -0.009018486365676 -0.542552053928375 0.083936072885990 -0.230691760778427 -0.348633766174316 0.095208264887333 -1.148888826370239
http://dbpedia.org/resource/Best_Night_of_My_Life 0.390454828739166 0.079294979572296 0.409580558538437 0.226886019110680 0.799161791801453 -0.317143321037292 0.192153990268707 0.260749459266663 -0.346526712179184 0.166819989681244 -0.593423128128052 0.180687427520752 0.192993864417076 0.360883295536041 -0.072931513190269 -0.881761312484741 -0.137625575065613 0.171246767044067 -0.523527324199677 0.428942024707794 -0.427202105522156
http://dbpedia.org/resource/Saint_Louis_University 0.490345239639282 -0.262161970138550 0.216934636235237 0.815465927124023 0.104354955255985 0.702325165271759 -0.255796939134598 0.261992216110229 -0.542449474334717 0.114374853670597 -0.378808557987213 -0.392960369586945 -1.110845327377319 -0.025869471952319 1.495622158050537 0.858601629734039 0.167628243565559 0.248833820223808 -0.786703109741211 -0.531534790992737 -0.251014888286591
http://dbpedia.org/resource/NHPC_Limited 0.080311514437199 -0.021022090688348 -0.022149946540594 0.396090865135193 0.685017764568329 0.437691271305084 0.260557621717453 -0.010911406949162 0.253847807645798 -0.162751719355583 0.030023058876395 -0.083222940564156 0.394265145063400 0.094538792967796 0.088462375104427 0.069797851145267 -0.433259069919586 -1.067548751831055 -1.247665286064148 0.657152712345123 -0.735630333423615
http://dbpedia.org/resource/Goon_Affiliated 0.324623107910156 -0.087472096085548 0.124914534389973 0.349764019250870 0.421607613563538 -0.129453539848328 0.295462131500244 0.241169065237045 -0.262463629245758 0.330563753843307 -0.516329050064087 -0.216411679983139 -0.073873624205589 0.309030085802078 0.136871978640556 -0.534212648868561 -0.081286884844303 0.093409188091755 -0.811781048774719 0.343541115522385 -0.236708566546440
http://dbpedia.org/resource/Xenophanes_(album) 0.113080248236656 -0.234298333525658 0.041705060750246 0.034361429512501 0.216134816408157 0.156277269124985 0.423986911773682 -0.212207660079002 -0.071715004742146 -0.011800728738308 -0.264815062284470 0.116311579942703 -0.126442924141884 -0.245780184864998 0.344643861055374 -0.360297262668610 -0.244421198964119 0.328067988157272 -0.636211097240448 0.692460000514984 -0.448861032724380
http://dbpedia.org/resource/A_Separation 0.454548865556717 -0.351279556751251 0.749042272567749 0.684947252273560 0.572621822357178 0.404150992631912 -0.163896322250366 0.208643689751625 -0.387834608554840 0.223453179001808 0.274578779935837 0.029938906431198 0.276717811822891 -0.052715405821800 -0.031563613563776 -0.625464379787445 -0.278611868619919 -0.459297090768814 -0.896419227123260 0.229326948523521 -0.299197316169739
http://dbpedia.org/resource/Emotion_&_Commotion 0.197479560971260 0.049343943595886 0.602832436561584 -0.086114123463631 0.581340670585632 -0.008628867566586 0.189589828252792 -0.092747546732426 -0.329794377088547 0.110993333160877 -0.296664565801620 -0.339022636413574 0.021320087835193 -0.011242699809372 -0.052475493401289 -0.452714413404465 0.179555580019951 -0.077809274196625 -0.395439147949219 0.354128241539001 -0.730442047119141
http://dbpedia.org/resource/Antitrust_(film) 0.166168674826622 -0.143291965126991 0.298062801361084 1.024433374404907 0.476766675710678 0.130830973386765 0.274977922439575 -0.016633016988635 0.112069673836231 0.091201767325401 0.153700530529022 0.026728998869658 0.175849109888077 0.341232597827911 -0.136999785900116 0.020662177354097 -0.571400761604309 -0.361241400241852 -0.215662419795990 0.326339453458786 -0.400663793087006
http://dbpedia.org/resource/Virginia_State_University 0.516952931880951 -0.147315606474876 -0.049289908260107 0.323265016078949 -0.335681527853012 0.465262472629547 -0.121661506593227 0.070556379854679 0.166417554020882 0.218969792127609 -0.508793950080872 -0.475333869457245 -0.371967256069183 0.224019899964333 -0.334017246961594 -0.341997653245926 0.083738401532173 0.451181709766388 -0.266191452741623 0.047845650464296 -0.321075111627579
http://dbpedia.org/resource/Lethal_Weapon_3 0.211221605539322 -0.030238587409258 0.343482643365860 0.756167173385620 0.291427314281464 0.110321268439293 0.002133546164259 0.061346039175987 -0.088277764618397 0.154324695467949 0.159326732158661 0.253613531589508 -0.033738918602467 0.078412793576717 -0.580947458744049 -0.014375206083059 -0.250211119651794 -0.459243088960648 -0.545650124549866 0.012911082245409 -0.710176467895508
http://dbpedia.org/resource/The_Keys_to_the_House -0.305377662181854 0.058090761303902 0.330815285444260 -0.136023774743080 0.427716493606567 0.288098752498627 -0.306662112474442 -0.575440883636475 -0.204942718148232 0.164669886231422 -0.018300808966160 -0.361169606447220 0.117577351629734 0.279091060161591 0.003624894423410 0.160264447331429 -0.076989293098450 -0.323908179998398 -0.482452362775803 0.240981251001358 -0.214586406946182
http://dbpedia.org/resource/Have_One_on_Me -0.066037356853485 0.291845023632050 0.265538841485977 0.108433306217194 0.723916769027710 0.027380429208279 -0.029700620099902 0.052449245005846 -0.337174147367477 0.034284487366676 0.309420049190521 0.295060843229294 0.188782379031181 0.028048943728209 0.074040375649929 -0.491843163967133 -0.286408036947250 -0.033328287303448 -0.461548388004303 0.622956275939941 -0.683237969875336
http://dbpedia.org/resource/Yamada_Denki -0.808909773826599 0.520910501480103 0.057055618613958 0.150721982121468 0.837295472621918 0.710969507694244 0.227465063333511 -0.092554062604904 -0.171963006258011 0.270504176616669 -0.183205664157867 -0.036433096975088 -0.040980990976095 -0.168257981538773 -0.081872306764126 -0.779808640480042 -0.064029350876808 -0.476829737424851 -0.206497564911842 -0.488455563783646 -0.328641563653946
http://dbpedia.org/resource/One_for_the_Money_(film) 0.112762115895748 -0.124837249517441 0.454348176717758 0.412992596626282 0.216259166598320 -0.274202704429627 -0.193679913878441 0.265040069818497 -0.278390765190125 0.298597544431686 0.233250066637993 0.167391359806061 0.044775679707527 0.514371037483215 -0.291223764419556 -0.225179016590118 -0.719386577606201 -0.273972839117050 -0.232882767915726 0.179491803050041 -0.439757883548737
http://dbpedia.org/resource/Merci_Docteur_Rey 0.082706905901432 -0.256502866744995 0.290645182132721 0.379973560571670 0.621733605861664 0.107861451804638 -0.014297659508884 -0.195061013102531 0.063388928771019 0.069956898689270 0.355826854705810 -0.038523875176907 0.030817816033959 0.613068699836731 -0.122943505644798 -0.526885032653809 -0.266428172588348 -0.171292856335640 -0.462267011404037 0.157612890005112 -0.761303603649139
http://dbpedia.org/resource/Jump_Tomorrow 0.003668803721666 0.385167777538300 0.190234631299973 0.367484390735626 0.243606969714165 0.042735610157251 -0.160147398710251 0.122660264372826 0.139920890331268 0.262625604867935 -0.089626140892506 0.339064627885818 0.096413195133209 0.237254381179810 -0.006935147102922 -0.206582933664322 -0.355981826782227 -0.045402195304632 -0.938824117183685 0.449569642543793 -0.623918294906616
http://dbpedia.org/resource/Verizon_Communications -0.358500272035599 0.658452153205872 -0.030622193589807 0.450470983982086 0.587611496448517 0.419448494911194 0.195287719368935 0.322376728057861 0.015985030680895 -0.461116731166840 0.596553623676300 -0.237756535410881 0.436660677194595 -0.221245422959328 0.371391713619232 -0.318109065294266 -0.205561831593513 0.570533812046051 0.742710649967194 0.409488469362259 -0.180959239602089
http://dbpedia.org/resource/Baku -0.272265166044235 -0.388718456029892 0.418927103281021 -0.524871766567230 -0.402506947517395 0.900736927986145 0.366451203823090 0.051408812403679 0.017587995156646 -1.259446740150452 0.039804507046938 -0.678477883338928 0.329007089138031 -0.255939900875092 0.439001142978668 -0.218457341194153 0.208489641547203 -0.090338461101055 0.707486391067505 0.138214528560638 -1.097356677055359
http://dbpedia.org/resource/Akbank 0.119869582355022 0.432507812976837 -0.037859305739403 0.272094488143921 0.122439935803413 0.658170759677887 0.068807028234005 0.244509994983673 -0.006804610136896 0.068884648382664 -0.179395958781242 -0.110067330300808 0.427868396043778 0.093815177679062 -0.184175252914429 -0.610869050025940 -0.424022912979126 -0.753295540809631 -0.687830626964569 -0.159464910626411 -0.014863757416606
http://dbpedia.org/resource/Samsung_C&T_Corporation -0.188690915703773 0.468949705362320 0.101174496114254 0.346743851900101 0.391924351453781 0.372523963451385 0.142443299293518 -0.171564951539040 -0.193167969584465 0.103391952812672 -0.004964168649167 0.202527821063995 0.187488973140717 -0.328610628843307 0.454437762498856 -0.762518942356110 -0.133275598287582 -0.485674887895584 -0.369117200374603 0.360309898853302 -0.295873165130615
http://dbpedia.org/resource/Helplessness_Blues -0.154775381088257 0.115903288125992 -0.022016141563654 -0.013848230242729 0.563472151756287 -0.374066084623337 0.364696860313416 0.050960097461939 -0.649142324924469 0.012325673364103 -0.371522814035416 0.212109342217445 -0.047488048672676 0.025777805596590 0.442733019590378 -0.682289421558380 0.217773824930191 -0.259495705366135 -0.583758890628815 0.432165980339050 -0.628225207328796
http://dbpedia.org/resource/Abu_Dhabi_Commercial_Bank 0.215934708714485 0.261970490217209 -0.073449045419693 0.193870872259140 0.559513449668884 0.366729140281677 -0.336401343345642 0.149901822209358 0.281068474054336 0.359408885240555 -0.453615874052048 -0.018749840557575 0.229234546422958 -0.085586279630661 -0.076295882463455 -0.441437602043152 -0.553060054779053 -0.702397644519806 -0.659171760082245 -0.450601845979691 -0.368042230606079
http://dbpedia.org/resource/Covidien -0.258392214775085 0.209421142935753 0.082980774343014 0.739425718784332 0.766661107540131 0.048603739589453 0.307327389717102 0.210542634129524 -0.130533128976822 0.183101773262024 0.047510918229818 0.125424742698669 -0.059956286102533 -0.056928291916847 0.270447582006455 -0.538966596126556 -0.269684672355652 -0.251147717237472 -0.073097601532936 0.175094261765480 -0.681377112865448
http://dbpedia.org/resource/Life_in_a_Beautiful_Light -0.261785566806793 0.418053030967712 0.453633546829224 0.035204041749239 0.639550387859344 0.197636321187019 0.312511533498764 0.179938182234764 -0.399713695049286 0.320070594549179 -0.243851140141487 -0.020185407251120 -0.021788705140352 -0.153452873229980 -0.224270984530449 -0.382681846618652 -0.051610969007015 0.292629867792130 -0.239298611879349 0.251025229692459 -1.019088983535767
http://dbpedia.org/resource/Unforgiven -0.003981553018093 0.287702798843384 0.103969611227512 1.083590745925903 0.608700811862946 0.325314521789551 0.225381001830101 -0.254296600818634 -0.139715313911438 0.207763463258743 0.384147107601166 0.069906249642372 -0.012036933563650 0.254492431879044 -0.320234596729279 -0.106769233942032 -0.307787537574768 -0.918489158153534 -0.439116150140762 0.329485327005386 -0.494703412055969
http://dbpedia.org/resource/Rochester_Institute_of_Technology 0.327113837003708 0.520492613315582 -0.175574034452438 -0.091765649616718 -0.410413771867752 0.381736963987351 -0.034756924957037 0.090647757053375 0.159479454159737 0.092958271503448 -0.068074554204941 -0.502767503261566 0.320077061653137 -0.228387817740440 0.398176610469818 -0.775036573410034 0.187760919332504 0.029579646885395 0.149319633841515 -0.802979469299316 -0.877081215381622
http://dbpedia.org/resource/Shimao_Property -0.223518326878548 0.059831436723471 -0.149301275610924 0.442566275596619 0.224259480834007 0.015931271016598 0.140579760074615 0.100159265100956 -0.046671655029058 -0.035664238035679 -0.061351854354143 -0.280185580253601 0.305707007646561 0.027926942333579 -0.082241944968700 -0.056213840842247 -0.431550860404968 -0.761664748191833 -0.469472229480743 0.285711079835892 -0.284169703722000
http://dbpedia.org/resource/Where_God_Left_His_Shoes -0.141216993331909 -0.058075740933418 0.215230137109756 0.121508404612541 -0.173090010881424 -0.140616878867149 -0.122778601944447 -0.260203778743744 0.229608133435249 0.188027009367943 0.092711113393307 -0.347832024097443 0.160062968730927 0.019279675558209 -0.103563219308853 -0.367160260677338 -0.097661800682545 -0.006344997324049 -0.440337777137756 0.244317620992660 -0.326401025056839
http://dbpedia.org/resource/BG_Group 0.351918250322342 0.044981908053160 0.024868838489056 -0.037093389779329 0.773448884487152 0.498770833015442 0.357993215322495 0.172680884599686 0.320496767759323 0.182967782020569 -0.123034983873367 -0.007240002974868 -0.229864791035652 0.097514912486076 -0.072888053953648 -0.239335447549820 -0.231257900595665 -0.718583226203918 -0.271753102540970 0.119258396327496 -0.801059365272522
http://dbpedia.org/resource/West_of_Memphis 0.168144822120667 -0.395667135715485 -0.162819281220436 0.800565600395203 0.645484507083893 -0.348490715026856 -0.020456239581108 0.042466048151255 0.010093640536070 0.149480536580086 0.116306968033314 0.262938201427460 -0.045596223324537 0.606566369533539 0.317805111408234 -0.162542015314102 -0.382033079862595 0.018065739423037 -0.511565506458282 0.159748464822769 -0.640246629714966
http://dbpedia.org/resource/Moscow 0.646291315555573 -0.745583772659302 -0.281747967004776 -0.072355233132839 -0.395026236772537 0.240662604570389 0.059089984744787 0.625177383422852 0.174374997615814 -0.586804926395416 2.173146963119507 -0.471635878086090 0.703852832317352 0.314554482698440 0.159304484724998 -0.728410363197327 0.217306569218636 0.010074939578772 -0.802558839321136 -0.875409603118896 -1.285191059112549
http://dbpedia.org/resource/JPMorgan_Chase 0.451625645160675 0.481373608112335 -0.651657342910767 0.827659785747528 0.147636950016022 0.206050619482994 0.034931022673845 0.523305535316467 0.206377625465393 0.420785486698151 -0.219663277268410 -0.566033184528351 0.722050309181213 -0.469368129968643 0.879956543445587 -0.628129959106445 -0.094021990895271 0.117600701749325 0.030603624880314 -0.347045093774796 -0.311310827732086
http://dbpedia.org/resource/Ferrum_College 0.180986300110817 0.073999956250191 -0.287906229496002 0.601283729076385 0.053351964801550 0.248038783669472 -0.064171656966209 0.312156677246094 -0.128182634711266 0.338978946208954 -0.222181618213654 -0.071468554437160 -0.069498695433140 0.328392863273621 -0.129935324192047 -0.269750058650971 -0.194937422871590 0.060576282441616 -0.121855735778809 0.047096963971853 -0.321386873722076
http://dbpedia.org/resource/The_Meadowlands_(album) -0.286360472440720 0.183626815676689 -0.054072659462690 0.248137101531029 0.569059193134308 0.267263531684875 0.345705538988113 -0.285367608070374 -0.786767542362213 0.269925147294998 -0.018645804375410 0.270144253969193 0.013693708926439 -0.126329407095909 0.179505452513695 -0.265920937061310 -0.401305019855499 0.080655269324780 -0.648594737052917 0.797157645225525 -0.718202710151672
http://dbpedia.org/resource/Mississippi_Burning 0.106793001294136 -0.373984605073929 0.233702838420868 0.738379061222076 0.297800272703171 -0.202957674860954 -0.020862448960543 -0.216521188616753 -0.153562709689140 0.185282647609711 0.406831979751587 0.179184958338737 -0.051956404000521 0.403871476650238 -0.306961566209793 0.402755916118622 -0.394768893718719 -0.561281442642212 -0.358820050954819 0.092291370034218 -0.778678476810455
http://dbpedia.org/resource/The_Wanted_(EP) -0.146120414137840 -0.127306625247002 -0.105052717030048 0.313704967498779 0.768651723861694 -0.529487550258636 0.511929392814636 0.293803095817566 -0.243316411972046 0.159642487764359 -0.396412938833237 -0.029626557603478 -0.152089878916740 0.213671937584877 0.015235135331750 -0.833401560783386 0.184302628040314 -0.224837273359299 -0.734400808811188 0.538141369819641 -0.219610616564751
http://dbpedia.org/resource/Basic_Instinct_2 -0.242176666855812 0.040057439357042 0.309689015150070 0.210073202848434 0.526998221874237 0.362067550420761 -0.105679444968700 0.027857733890414 -0.087868139147758 0.137397795915604 0.206572160124779 0.587962090969086 -0.021683357656002 0.328668236732483 -0.086004182696342 0.215078800916672 -0.432305335998535 -0.327808558940887 -0.692409157752991 0.221093997359276 -0.284102231264114
http://dbpedia.org/resource/Army_of_Shadows -0.135914713144302 0.158400058746338 -0.112460657954216 0.546347379684448 0.423354059457779 0.534062325954437 -0.081370726227760 -0.596727371215820 -0.100483633577824 0.059335727244616 0.390121787786484 0.046275191009045 0.076438501477242 -0.000978943426162 -0.098601162433624 -0.225873038172722 -0.280353099107742 -0.628223061561584 -0.584290266036987 0.013024239800870 -0.141898691654205
http://dbpedia.org/resource/Barry_Munday 0.205155417323112 0.088816463947296 0.281898111104965 0.354229718446732 0.140159964561462 0.106505058705807 0.159216254949570 0.274905592203140 -0.262746840715408 -0.117442160844803 0.251215606927872 0.123789690434933 0.551141560077667 0.134240701794624 0.000094276532764 -0.320896834135056 -0.294496476650238 -0.175677433609962 -0.352921515703201 0.107105538249016 -0.543426156044006
http://dbpedia.org/resource/WREJ 0.209757626056671 0.136637210845947 0.039880499243736 0.462829679250717 -0.497462332248688 0.337662786245346 0.295805960893631 -0.090240158140659 0.170381650328636 0.373697161674500 -0.432877480983734 -0.303472280502319 0.219270154833794 0.023844335228205 0.016404958441854 0.049574997276068 -0.050218414515257 0.211585521697998 -0.476460576057434 0.393264323472977 -0.162970200181007
http://dbpedia.org/resource/Tropic_Thunder 0.225142210721970 -0.150737732648849 0.465407401323318 0.691470265388489 0.226139545440674 0.134693369269371 0.278920054435730 -0.150443494319916 -0.260658621788025 -0.104198709130287 -0.216349974274635 -0.298515826463699 0.181019544601440 0.331934243440628 -0.148799240589142 -0.442765712738037 -0.372217744588852 -0.474129855632782 -0.617170095443726 -0.082896888256073 -0.174869313836098
http://dbpedia.org/resource/Tsotsi -0.318134933710098 0.123340159654617 0.500274300575256 0.085020646452904 0.613401770591736 -0.085193127393723 -0.128676965832710 0.124631762504578 0.144250839948654 -0.327105224132538 0.315914511680603 0.179302960634232 0.073150351643562 -0.225698739290237 -0.325739055871964 0.167120918631554 0.078700356185436 -0.133255541324615 0.028224127367139 0.873132288455963 -0.133436098694801
http://dbpedia.org/resource/House_on_Haunted_Hill 0.114623054862022 0.299630612134934 -0.136725172400475 0.317812532186508 0.143803626298904 0.140656888484955 0.049374844878912 0.179769486188889 0.214160829782486 -0.384554147720337 0.482263356447220 -0.120566368103027 0.304186016321182 0.231572762131691 0.051252353936434 0.122905679047108 -0.306723117828369 -0.338491648435593 -0.589982569217682 -0.290645956993103 -0.123959288001060
http://dbpedia.org/resource/Road_to_Perdition -0.271320790052414 -0.178727224469185 0.339906901121140 0.605033099651337 0.405041188001633 -0.099936679005623 -0.099465183913708 0.307104855775833 0.319332987070084 -0.336102724075317 0.256261169910431 -0.512840986251831 -0.218552380800247 0.390646606683731 -0.317839831113815 -0.056090675294399 -0.444614559412003 -0.612268269062042 -0.582636654376984 0.512009501457214 -0.506582200527191
http://dbpedia.org/resource/Arise_(film) 0.196251630783081 0.340723782777786 0.172066807746887 0.489513427019119 0.437298029661179 0.253194212913513 0.261449307203293 0.204091265797615 -0.005842707585543 0.546459257602692 0.250055611133575 0.113029479980469 0.153017476201057 0.086378991603851 -0.292923033237457 -0.089460268616676 -0.255729913711548 -0.124012604355812 -0.550775825977325 0.287635415792465 -0.258562922477722
http://dbpedia.org/resource/Detroit_Rock_City_(film) -0.293024599552154 -0.029739324003458 0.014349796809256 0.907309055328369 0.309638798236847 0.249468028545380 -0.190987721085548 0.093108296394348 -0.237315461039543 0.150112763047218 -0.081476591527462 0.211456492543220 -0.019678551703691 0.042929891496897 -0.154291704297066 -0.313538998365402 -0.102685913443565 -0.360176146030426 -0.900465726852417 0.042978495359421 -0.529323339462280
http://dbpedia.org/resource/Copia_(album) -0.152718976140022 -0.286322891712189 -0.127927526831627 0.090689547359943 0.309454709291458 0.273625820875168 0.426605761051178 -0.078855022788048 -0.579510569572449 0.149298772215843 -0.181198447942734 0.052204258739948 -0.201849132776260 -0.161822006106377 -0.065299943089485 -0.205824926495552 -0.030782351270318 0.373538196086883 -0.771180093288422 0.465097725391388 -0.576279878616333
http://dbpedia.org/resource/Flavors_of_Entanglement -0.162245586514473 0.430667251348495 0.435731291770935 0.329615682363510 0.735026061534882 0.296465069055557 0.320067137479782 0.233244255185127 -0.339064687490463 0.292015433311462 0.072114527225494 0.246738255023956 0.018071051687002 0.286067873239517 0.327512741088867 -0.724464595317841 -0.278465688228607 -0.285029411315918 -0.771378278732300 0.286483138799667 -0.664614319801331
http://dbpedia.org/resource/Wright_State_University 0.299396336078644 -0.536666274070740 -0.123448461294174 -0.413161069154739 -0.075240120291710 -0.400734871625900 -0.024231005460024 0.315919131040573 0.366669327020645 0.169205114245415 0.059284672141075 -0.696328639984131 -0.587831854820251 0.977700412273407 -0.137619197368622 -0.525843679904938 0.527817964553833 -0.304097115993500 -1.181303501129150 -0.054014835506678 -0.668652772903442
http://dbpedia.org/resource/Intercontinental_Exchange -0.128069207072258 -0.018872361630201 0.161744624376297 0.694780468940735 0.433181583881378 0.193085417151451 -0.066401951014996 0.245272412896156 0.059908263385296 0.135814055800438 0.013187398202717 -0.031769372522831 -0.025265088304877 0.025359595194459 0.184102773666382 -0.827959418296814 -0.372221738100052 -0.511591613292694 -0.671385705471039 0.027944030240178 -0.465758621692658
http://dbpedia.org/resource/Florida_Southern_College 0.204733982682228 -0.648779034614563 -0.207394436001778 -0.701876938343048 -0.407087415456772 -0.048192568123341 -0.076934970915318 0.566414773464203 0.046839434653521 -0.087246619164944 0.221378609538078 -0.266649931669235 -0.558670997619629 -0.402546733617783 0.575853586196899 -0.776220381259918 -0.217153936624527 0.015978585928679 -0.053277034312487 -0.241442024707794 -0.297903537750244
http://dbpedia.org/resource/Georgia_Clay -0.117243900895119 0.273401796817780 0.049456622451544 0.306625604629517 0.150636672973633 0.176462501287460 0.261301785707474 0.011022659018636 -0.542302727699280 0.126089364290237 -0.048317480832338 -0.271478056907654 0.139509767293930 -0.052263416349888 -0.218879714608192 -0.629361987113953 -0.101800389587879 0.042954947799444 -0.440136671066284 0.722012996673584 -0.586100697517395
http://dbpedia.org/resource/American_Express -0.175563231110573 0.372500002384186 -0.415831983089447 0.980124354362488 0.308155119419098 0.821913063526154 -0.113962009549141 0.420173525810242 0.477756053209305 -0.195179030299187 -0.461894303560257 0.013166192919016 1.065157651901245 -0.241639330983162 0.313925564289093 -0.756206393241882 0.329891651868820 0.034634690731764 0.094416834414005 -0.413615852594376 -0.270930707454681
http://dbpedia.org/resource/Assa_Abloy 0.027963500469923 0.138049289584160 -0.464802980422974 0.602768659591675 0.958743512630463 0.482812315225601 0.286663502454758 0.298988312482834 -0.326715826988220 -0.210894867777824 -0.432014822959900 0.264337033033371 0.271116167306900 0.077541038393974 0.594484865665436 -0.265410572290420 -0.068083524703979 0.043832253664732 -0.593187451362610 0.052794776856899 -0.511987030506134
http://dbpedia.org/resource/Pittsburg_State_University 0.041250918060541 0.248302489519119 0.271979928016663 0.550431668758392 -0.331304192543030 0.073915570974350 0.035711620002985 -0.066444881260395 -0.274697035551071 -0.022143175825477 0.305003941059112 -0.355984598398209 -0.770885050296783 -0.161771357059479 0.362572818994522 -0.026467563584447 0.191389545798302 0.255674034357071 -0.909722447395325 -0.690803766250610 -1.128625869750977
http://dbpedia.org/resource/A_Somewhat_Gentle_Man -0.043486300855875 0.389556705951691 0.491344690322876 -0.122653141617775 0.432116031646729 -0.177531927824020 0.183858349919319 0.254715561866760 -0.053326200693846 0.069479152560234 0.346521347761154 0.463835507631302 0.216386437416077 0.345114290714264 -0.166091129183769 -0.124106876552105 -0.155401647090912 -0.109352178871632 -0.797827422618866 0.298196345567703 -0.411338269710541
http://dbpedia.org/resource/Think_Tank_(Blur_album) 0.201969474554062 0.124601624906063 0.333685278892517 -0.365106523036957 0.460949242115021 -0.035042159259319 0.368660539388657 -0.143882989883423 -0.214985728263855 -0.018370963633060 -0.240448474884033 -0.079250626266003 0.231027036905289 -0.137820601463318 0.251717537641525 -0.725359320640564 0.101265907287598 -0.298699676990509 -0.954936802387238 0.518742740154266 -0.412284761667252
http://dbpedia.org/resource/Eternal_Sunshine_of_the_Spotless_Mind 0.182496845722198 0.282824426889420 0.075356028974056 0.727966606616974 0.914327383041382 0.050347968935966 -0.197452008724213 -0.196080431342125 -0.146392479538918 0.183806970715523 0.297726184129715 0.492363572120667 0.408612966537476 0.108095750212669 -0.129225939512253 0.073468849062920 -0.743140935897827 -0.200310871005058 -0.569900691509247 0.430627942085266 -0.312977820634842
http://dbpedia.org/resource/Bride_Wars 0.399082779884338 0.015374157577753 0.334363192319870 0.582264065742493 0.380768120288849 0.140794873237610 -0.057747446000576 -0.126646175980568 -0.235019192099571 0.275014340877533 0.320497483015060 0.119960367679596 0.410106092691422 0.057497330009937 -0.031657755374908 -0.234028220176697 -0.530420303344727 -0.238655030727387 -0.212125495076180 0.370665282011032 -0.553452014923096
http://dbpedia.org/resource/ConocoPhillips -0.100636817514896 -0.205171361565590 -0.154429361224174 0.500728905200958 0.646193087100983 0.196427926421165 0.643194139003754 0.486074715852737 0.432171940803528 0.373894751071930 0.045594912022352 -0.245685681700707 0.127953901886940 -0.162618488073349 0.375465184450150 -0.470439016819000 -0.119031511247158 -0.389976143836975 -0.747952461242676 -0.048792060464621 -0.774403154850006
http://dbpedia.org/resource/Prologis -0.013817980885506 -0.161394998431206 0.006405452266335 0.056083641946316 0.725681006908417 0.666589796543121 0.085724353790283 0.385941565036774 -0.068738721311092 0.107603684067726 -0.067791931331158 -0.537497580051422 0.025690114125609 0.050121590495110 0.172627300024033 -0.246325165033340 -0.447291672229767 -0.539292037487030 0.068080469965935 0.126941785216331 -0.121884331107140
http://dbpedia.org/resource/Nanjing 0.077463500201702 0.423599898815155 0.043558526784182 0.376661241054535 -0.320446908473969 -0.066024847328663 1.343873977661133 -0.249589756131172 0.482238262891769 -0.889965534210205 0.552691042423248 -1.456693291664124 -0.418643236160278 -1.003229022026062 0.394551128149033 -0.021492561325431 -0.296693980693817 0.049018453806639 -0.046676289290190 0.842064678668976 -1.060418367385864
http://dbpedia.org/resource/Diamond_Men -0.111466333270073 0.307547271251679 -0.041711110621691 0.452301740646362 0.503877818584442 -0.189192578196526 -0.181326299905777 -0.124216802418232 -0.142400592565536 -0.092222459614277 0.415448665618896 -0.463323265314102 0.480097800493240 -0.152512505650520 0.165043950080872 -0.135887727141380 -0.433901220560074 -0.060205683112144 -0.540486037731171 0.033246003091335 -0.432139575481415
http://dbpedia.org/resource/The_Empire_Strikes_Back 0.316748261451721 -0.463557064533234 0.066607028245926 0.695046007633209 0.496493726968765 0.025797210633755 0.233310729265213 -0.011014870367944 0.220947444438934 0.039389029145241 0.138933628797531 0.187654480338097 0.463550627231598 0.242345169186592 -0.188791990280151 0.181941285729408 -0.410390108823776 -0.704489588737488 -0.068542160093784 0.144876495003700 -0.648955762386322
http://dbpedia.org/resource/GPT_Group 0.243569463491440 -0.142295479774475 0.080442741513252 0.034104824066162 0.661460220813751 0.451296627521515 0.096462987363338 0.773158788681030 0.139272511005402 0.197643995285034 -0.540654182434082 -0.362845242023468 0.227545857429504 0.098530463874340 0.373461633920670 -0.045133233070374 -0.066379547119141 -1.037744641304016 -0.392288357019424 -0.051725614815950 -0.558321475982666
http://dbpedia.org/resource/Dead_Silence 0.139814019203186 -0.270778805017471 0.194056779146194 0.443558871746063 0.286423504352570 -0.024540835991502 -0.251312583684921 0.100496597588062 0.278002232313156 0.139463916420937 0.043866299092770 0.259368479251862 0.432371258735657 0.425466418266296 0.121427029371262 -0.191784039139748 -0.353747606277466 -0.326956331729889 -0.229620069265366 0.070401810109615 -0.126439660787582
http://dbpedia.org/resource/Queen_of_the_Damned 0.073478206992149 -0.495528489351273 0.288525611162186 0.143260285258293 0.420013338327408 -0.282953947782516 0.173114016652107 0.081112787127495 0.431781202554703 0.155837714672089 0.239924415946007 0.244875669479370 0.398309618234634 0.774706959724426 -0.070842415094376 -0.188379958271980 -0.248133093118668 -0.298018157482147 -0.363204181194305 0.134004354476929 -0.018996132537723
http://dbpedia.org/resource/University_of_Oklahoma 0.385115027427673 0.142660155892372 0.077664025127888 0.110212102532387 0.259351074695587 -0.293596088886261 0.218304991722107 0.287195265293121 0.541410982608795 -0.022891292348504 0.329903453588486 -0.678118050098419 -0.901437938213348 0.239400967955589 -0.107825011014938 -0.619938254356384 0.947522222995758 0.426627695560455 -0.150601595640182 0.082100130617619 -0.562358617782593
http://dbpedia.org/resource/Yokkaichi,_Mie -0.713304281234741 0.125138774514198 -0.149962067604065 -0.256280571222305 0.419159919023514 0.030816880986094 0.186200976371765 0.206653714179993 0.243938282132149 0.445833176374435 0.363904803991318 -0.559209525585175 0.243580013513565 -0.039526563137770 -0.132400780916214 -0.357003360986710 0.417110383510590 0.002768720034510 0.102843105792999 -0.076052457094193 -0.398436486721039
http://dbpedia.org/resource/Port_Elizabeth 0.151186764240265 -0.069035746157169 -0.447683036327362 -0.626571655273438 0.044465832412243 0.098125860095024 0.669892609119415 0.785049557685852 0.754944503307343 -1.213104486465454 0.456465691328049 -0.607379972934723 0.433989673852920 -0.303390592336655 -0.157071039080620 -0.111539319157600 -0.260821253061295 0.263491868972778 -0.445079565048218 0.071395039558411 -0.255167186260223
http://dbpedia.org/resource/Hey_Hey_My_My_Yo_Yo -0.053788825869560 -0.023675352334976 0.184053510427475 0.065199889242649 0.436325520277023 -0.330185294151306 0.601409196853638 0.247872695326805 -0.599541842937469 -0.259804487228394 -0.016241580247879 -0.071037732064724 -0.225758939981461 0.004827677272260 0.161751985549927 -0.382779210805893 -0.099849820137024 -0.261741340160370 -1.017417788505554 0.277832269668579 -0.055089648813009
http://dbpedia.org/resource/Deuce_Bigalow:_European_Gigolo 0.146560966968536 0.156186342239380 -0.010297584347427 0.607532620429993 0.637794613838196 0.136251375079155 0.195553034543991 0.109995990991592 -0.566462934017181 -0.148665711283684 0.077584199607372 0.008232079446316 0.206427708268166 0.302562087774277 -0.181745976209641 -0.169873118400574 -0.404332011938095 -0.501300096511841 -0.655792951583862 0.329040437936783 0.091518796980381
http://dbpedia.org/resource/Yamaha_Motor_Company -0.499155282974243 0.604982852935791 -0.090156078338623 0.153426378965378 0.245498016476631 0.452662765979767 0.367065876722336 -0.559691309928894 -1.073366403579712 0.612414658069611 -0.099808387458324 -0.636034190654755 -0.047212623059750 -0.011743787676096 0.117611914873123 -0.239592045545578 0.074746176600456 -0.596505582332611 0.112574361264706 -0.142619922757149 -1.353847980499268
http://dbpedia.org/resource/University_of_Nebraska_Omaha 1.175882816314697 0.430931329727173 0.265099495649338 0.840820074081421 0.414979249238968 0.780475497245789 -0.052784636616707 0.343994081020355 0.295236289501190 -0.546641230583191 0.032404243946075 -0.193996340036392 -0.386216312646866 -0.020716333761811 0.843951106071472 -0.604293048381805 0.409362912178040 -0.111701853573322 -0.323368191719055 0.050250634551048 -0.724964499473572
http://dbpedia.org/resource/The_Magic_Place 0.128968149423599 -0.034696862101555 -0.006042753811926 0.283466130495071 0.270909428596497 0.448263436555862 0.369917094707489 -0.136995181441307 -0.826155900955200 0.212005376815796 0.299807697534561 0.099348627030849 0.031079383566976 0.231223478913307 -0.120821803808212 -0.014097519218922 -0.113322675228119 -0.083129204809666 -0.837071955204010 0.765736758708954 -0.506473422050476
http://dbpedia.org/resource/Banca_Monte_dei_Paschi_di_Siena 0.083859175443649 0.298359185457230 -0.160768181085587 0.206469744443893 0.472873657941818 0.846081435680389 -0.039874888956547 0.126032412052155 -0.207012444734573 -0.084279872477055 -0.322975724935532 -0.029050182551146 -0.023602327331901 -0.461748361587524 0.482628673315048 -0.076068505644798 -0.242903515696526 -0.836309671401978 -0.729690968990326 0.104821614921093 -0.339230805635452
http://dbpedia.org/resource/Species_II 0.095074847340584 0.011043492704630 -0.130128681659698 0.368206441402435 0.384716510772705 0.129298314452171 0.240357562899590 0.068903185427189 -0.324614286422729 0.116891391575336 0.164080917835236 0.168355748057365 0.302865713834763 0.473888188600540 0.108685210347176 0.366753578186035 -0.218276202678680 -0.535387516021729 -0.071601159870625 -0.096336342394352 0.066320955753326
http://dbpedia.org/resource/Jackass_Number_Two 0.327972948551178 0.265023946762085 -0.012903339229524 0.897000372409821 0.359058529138565 0.000452396343462 0.181983590126038 0.069324582815170 0.045591197907925 0.290676712989807 -0.135564267635345 0.287472993135452 0.227499529719353 0.332780957221985 0.000761724542826 -0.528364360332489 -0.743540048599243 -0.512182533740997 -0.436056703329086 -0.132800087332726 -0.275664538145065
http://dbpedia.org/resource/Kotak_Mahindra_Bank 0.247200772166252 0.622641682624817 -0.130018576979637 -0.034131158143282 0.545887827873230 0.520393133163452 -0.156722903251648 0.274883985519409 0.612137317657471 -0.003838199889287 -0.231378152966499 -0.203781321644783 0.440907955169678 0.041385237127542 0.249084338545799 -0.548657357692719 -0.557290017604828 -0.421984106302261 -0.759323239326477 0.020364407449961 -0.597606003284454
http://dbpedia.org/resource/The_Back-up_Plan 0.339356601238251 0.000396836374421 0.322113931179047 0.594906449317932 0.124383524060249 0.063577353954315 -0.087200745940208 0.618710637092590 0.120140053331852 0.236599102616310 0.124806851148605 0.066165812313557 0.526401460170746 0.616344451904297 -0.181122288107872 -0.510336399078369 -0.601755738258362 -0.345699191093445 -0.382247179746628 0.338596016168594 -0.464698910713196
http://dbpedia.org/resource/Position_Among_the_Stars -0.312666773796082 0.074313037097454 0.236016124486923 0.512057542800903 0.600464344024658 0.038603089749813 -0.121365815401077 -0.096312828361988 0.000981823890470 0.319462954998016 0.052535880357027 -0.202168762683868 0.340124696493149 0.126926422119141 -0.313312709331512 -0.098768576979637 -0.411372452974319 -0.360798209905624 -0.377261549234390 0.417569011449814 -0.201390296220779
http://dbpedia.org/resource/Desperate_Youth,_Blood_Thirsty_Babes -0.004089432768524 0.226832479238510 -0.147676661610603 0.115136757493019 0.799635112285614 -0.164415985345840 0.100187338888645 0.390746235847473 -0.362833678722382 0.026867412030697 -0.469763398170471 0.382840692996979 -0.299561232328415 -0.438805162906647 0.266711473464966 -0.307344079017639 0.155938610434532 0.301959544420242 -0.701961338520050 -0.056923564523458 -0.616649329662323
http://dbpedia.org/resource/George_Weston -0.191592335700989 0.213681876659393 0.019791159778833 0.190405443310738 0.023204736411572 0.278361916542053 0.033619791269302 -0.120697014033794 -0.011571638286114 -0.115689605474472 -0.362029522657394 -0.021633401513100 -0.106304578483105 -0.049056325107813 0.371724963188171 -0.381480038166046 0.170579969882965 -0.481888920068741 -0.364763706922531 -0.098780646920204 -0.418001115322113
http://dbpedia.org/resource/Warmer_Corners -0.229411303997040 0.040314897894859 0.018973471596837 0.523670494556427 0.347331285476685 0.133320510387421 0.434569895267487 0.231111839413643 -0.460258573293686 0.311273366212845 -0.010844139382243 0.323079496622086 -0.209626719355583 -0.135339021682739 -0.000616756791715 -0.089626021683216 0.160035222768784 -0.024583036080003 -0.679680883884430 0.365422517061234 -0.824223935604095
http://dbpedia.org/resource/Bitchin' -0.576615095138550 0.265187680721283 0.474003672599792 0.737293362617493 0.469481319189072 0.665374636650085 0.510760247707367 -0.258832544088364 -0.830165624618530 0.203988894820213 -0.105569936335087 -0.027907257899642 -0.187578573822975 -0.182364925742149 -0.415714591741562 -0.495073199272156 -0.268969744443893 0.111825324594975 -0.339362710714340 0.316339850425720 -0.620303630828857
http://dbpedia.org/resource/Galp_Energia -0.223101019859314 0.376084238290787 -0.080716833472252 0.734537839889526 0.313918143510818 0.283495754003525 0.148579493165016 0.003708035917953 0.159381836652756 0.283908128738403 -0.034486401826143 0.151055872440338 0.236705079674721 0.402542620897293 0.640855133533478 -0.335614591836929 -0.176178947091103 -0.656434774398804 -0.736995756626129 0.156717523932457 -0.385780334472656
http://dbpedia.org/resource/Marriott_International 0.497878581285477 -0.611422300338745 0.092202253639698 0.574903488159180 -0.371860206127167 0.491307079792023 -0.023083511739969 0.216768264770508 0.421608954668045 0.125793606042862 -0.523066282272339 0.240073874592781 0.396585613489151 0.795629441738129 0.397097527980804 -0.132319778203964 0.263370990753174 -0.421888530254364 0.082447782158852 -0.045238122344017 -0.492929875850677
http://dbpedia.org/resource/Lucky_Old_Sun -0.225521415472031 -0.185708522796631 -0.104729257524014 0.228607833385468 0.543536901473999 0.192805871367455 -0.040306471288204 -0.012301751412451 -0.026279693469405 0.478821635246277 -0.006252938415855 -0.357306391000748 -0.039170820266008 -0.003278585383669 -0.165188997983932 -0.704075634479523 0.262967854738235 -0.000458717084257 -0.337785065174103 0.672243595123291 -0.565295100212097
http://dbpedia.org/resource/You_in_Reverse -0.134431108832359 0.515257894992828 0.056029964238405 0.813212692737579 0.568422257900238 -0.007052331697196 0.400814324617386 0.198286324739456 -0.661450505256653 0.140948683023453 -0.220505118370056 0.396410614252091 -0.158102586865425 0.165265828371048 0.118621997535229 -0.191794946789742 -0.096855662763119 -0.193117827177048 -0.796664118766785 0.598693192005157 -0.783698499202728
http://dbpedia.org/resource/Norbit 0.564235925674438 -0.015304191969335 0.195161327719688 0.998558223247528 0.478258162736893 0.135846406221390 0.062029045075178 -0.052230574190617 0.003488391404971 0.224766626954079 0.057321440428495 0.146493569016457 0.260179251432419 0.104537606239319 -0.399237215518951 -0.315414994955063 -0.285483032464981 -0.331789612770081 -0.496632337570190 0.294068902730942 -0.505754590034485
http://dbpedia.org/resource/Northern_Illinois_University 0.374081254005432 0.007153625134379 -0.037709347903728 0.165365129709244 -0.335767984390259 0.228650927543640 0.463701277971268 0.171661913394928 0.425810337066650 -0.182800397276878 -0.035664528608322 -0.719257175922394 -0.463735133409500 0.343737661838531 0.339627921581268 -0.447972625494003 -0.421724349260330 -0.181198626756668 0.069495528936386 0.052069716155529 -1.270881056785583
http://dbpedia.org/resource/Nostalgia_for_the_Light 0.304584830999374 -0.213923245668411 0.028210094198585 0.839232921600342 0.144174665212631 0.318525552749634 0.021053498610854 -0.308684885501862 -0.342593938112259 0.510796546936035 0.180078625679016 0.201875194907188 -0.040886219590902 0.142583757638931 -0.068784922361374 0.362104564905167 -0.522360205650330 0.050653386861086 -0.818667471408844 0.191742315888405 -0.038084406405687
http://dbpedia.org/resource/Poses_(album) -0.407509207725525 0.393271297216415 0.130108758807182 0.495863914489746 0.751661002635956 0.049132440239191 -0.067809544503689 0.136627733707428 -0.602493584156036 0.460241436958313 -0.200394302606583 0.106073491275311 0.103865027427673 0.204996213316917 0.041203562170267 -0.667924702167511 0.154229030013084 -0.116981178522110 -0.699924468994141 0.550029277801514 -0.621015429496765
http://dbpedia.org/resource/Enemies_Like_This 0.187894433736801 0.213185146450996 0.220043748617172 0.482003033161163 0.431553870439529 -0.022341988980770 0.424095362424851 0.292654454708099 -0.761392951011658 -0.084134534001350 0.148602530360222 0.072885140776634 -0.101354368031025 -0.375345975160599 -0.062316447496414 -0.778462409973145 0.025263376533985 0.468991965055466 -0.462512195110321 0.343755275011063 -0.823502600193024
http://dbpedia.org/resource/Quanta_Computer -0.105110302567482 0.327724039554596 0.108858354389668 0.528408586978912 0.414309442043304 0.094152837991714 1.210600614547729 0.193426832556725 0.231496676802635 0.027899961918592 -0.011262333020568 -0.341234982013702 0.312978982925415 -0.571728646755219 -0.050656717270613 -0.668473064899445 -0.016038108617067 -0.044162899255753 -0.114979274570942 0.137113273143768 -0.565380334854126
http://dbpedia.org/resource/University_of_Dallas 0.125686988234520 -0.504808425903320 0.295934289693832 0.376967579126358 0.276505798101425 0.306876331567764 0.604960560798645 0.251991987228394 0.365077048540115 0.204209864139557 -0.114008039236069 0.077397994697094 -0.287450999021530 -0.056282073259354 0.137492358684540 -0.594596505165100 0.367422670125961 0.024161016568542 -0.307887554168701 -0.044819869101048 -0.421349912881851
http://dbpedia.org/resource/Ten_Thousand_Fists -0.305244237184524 0.220696657896042 0.326876670122147 0.045841373503208 0.663368403911591 0.092300809919834 0.181784182786942 -0.090586699545383 -0.250298976898193 -0.250543773174286 -0.571993589401245 -0.355980813503265 0.002667627995834 0.234774261713028 -0.001198607729748 -0.613979816436768 0.143552869558334 0.053630646318197 -0.614661514759064 0.163348436355591 -0.511988401412964
http://dbpedia.org/resource/An_American_Affair -0.074430450797081 -0.219715118408203 0.232983216643333 0.531565368175507 0.422388821840286 0.010649766772985 0.112163640558720 0.018186891451478 -0.135201424360275 -0.007550297304988 0.031265616416931 -0.055429678410292 0.116799451410770 0.242708191275597 -0.004197198897600 0.255805552005768 -0.565029740333557 -0.066272005438805 -0.627460300922394 0.356885790824890 -0.474698424339294
http://dbpedia.org/resource/Tech_Data -0.298154860734940 0.129080057144165 0.008534220047295 0.578257024288177 0.545260310173035 0.194985672831535 0.199488624930382 -0.326859891414642 -0.099032558500767 0.063891194760799 0.276973396539688 0.220559179782867 0.263135522603989 0.025724265724421 0.063355430960655 -0.434810370206833 -0.344688624143601 -0.300086975097656 -0.016071742400527 -0.303488194942474 -0.318921595811844
http://dbpedia.org/resource/The_Heart_of_the_Game 0.745599508285522 0.069218307733536 -0.003909557592124 0.701408743858337 -0.072454787790775 -0.280143052339554 -0.001313469256274 0.053440086543560 0.007677690126002 0.253982245922089 -0.265778720378876 0.235746890306473 -0.060963623225689 0.323402553796768 0.014897625893354 -0.651576340198517 -0.680680155754089 -0.757904469966888 -0.513615667819977 0.421638488769531 -0.568088054656982
http://dbpedia.org/resource/The_Musketeer 0.052396766841412 -0.163553595542908 0.082850538194180 0.134231418371201 0.374300003051758 0.121711269021034 -0.006513668224216 0.049558829516172 -0.047649703919888 0.355754852294922 0.464925050735474 0.154255032539368 -0.107639431953430 0.283755749464035 -0.065341316163540 -0.256726175546646 -0.442517757415771 -0.785492777824402 -0.749584257602692 0.234004333615303 -0.359746366739273
http://dbpedia.org/resource/Pray_IV_Reign 0.333547055721283 0.257814228534698 -0.076403118669987 0.353173434734344 0.638735413551331 0.247457116842270 -0.127855062484741 -0.134611591696739 -0.505608141422272 0.221943899989128 -0.359309554100037 -0.119225092232227 0.158654958009720 0.294940859079361 0.262386113405228 -0.373424768447876 0.260830342769623 0.262115716934204 -0.635797500610352 0.170738339424133 -0.026403144001961
http://dbpedia.org/resource/Le_Pont_du_Nord -0.003698653541505 -0.026199953630567 0.538970053195953 0.409801125526428 0.470067292451859 0.412306964397430 -0.060173355042934 0.118795752525330 0.039560791105032 0.466480880975723 0.602828800678253 0.411931008100510 0.292266458272934 0.140344873070717 0.001913469866849 -0.352114707231522 -0.243982896208763 -0.305713027715683 -0.500118792057037 0.424448639154434 -0.095935590565205
http://dbpedia.org/resource/Blackburn_College_(Illinois) 0.045765887945890 -0.132875680923462 -0.484406203031540 0.312814652919769 0.322312623262405 0.348563224077225 0.379595905542374 0.127262338995934 -0.191908761858940 0.281705141067505 -0.090057842433453 0.006694654934108 -0.492317974567413 -0.253679543733597 0.245246604084969 -0.571638762950897 -0.061117369681597 -0.182571038603783 0.028523582965136 -0.106631964445114 -0.833280265331268
http://dbpedia.org/resource/The_Skulls_(film) 0.043861325830221 -0.295489072799683 0.352537006139755 0.720596730709076 0.441847413778305 0.393303990364075 0.055112373083830 0.238253697752953 -0.087204046547413 -0.089207045733929 0.068660870194435 0.041941042989492 -0.069948494434357 0.412203997373581 -0.298153966665268 0.096310354769230 -0.316557973623276 -0.137195020914078 -0.294705927371979 0.128029853105545 -0.275677144527435
http://dbpedia.org/resource/Live_from_Rome 0.110183618962765 -0.116728052496910 -0.025273792445660 0.048584751784801 0.652447581291199 0.030466239899397 0.259122997522354 -0.098012514412403 -0.502794981002808 0.233325898647308 -0.153750419616699 0.170260637998581 -0.208018347620964 0.079078383743763 0.166041046380997 -0.485703736543655 -0.061220265924931 0.326099336147308 -0.669404983520508 0.562239348888397 -0.230879917740822
http://dbpedia.org/resource/Results_May_Vary -0.032181296497583 0.146591499447823 0.420669376850128 -0.008735639043152 0.246358171105385 0.043959606438875 -0.085439220070839 -0.025062937289476 -0.184023290872574 -0.165639922022820 -0.410155326128006 0.192757025361061 0.052856091409922 -0.003294575260952 -0.335286766290665 -1.122045159339905 0.387248247861862 0.379376649856567 -0.513986527919769 0.308058679103851 -0.240096107125282
http://dbpedia.org/resource/The_Yellow_Sea_(film) 0.029757607728243 0.374914616346359 0.748057723045349 0.661844789981842 0.208102330565453 0.058405376970768 0.135284289717674 -0.271070599555969 -0.003143313108012 0.128634721040726 0.164316549897194 0.188554018735886 0.111090220510960 0.217522934079170 -0.058397106826305 -0.827513635158539 -0.290748834609985 -0.377993971109390 -0.391864836215973 0.402291595935821 -0.112341776490211
http://dbpedia.org/resource/Anniemal -0.311747372150421 -0.237090423703194 0.300681442022324 -0.511333763599396 0.321965634822845 -0.356675773859024 0.148248285055161 -0.089128993451595 -0.866092205047607 0.367428600788117 -0.176710784435272 0.038962569087744 -0.080740943551064 0.400249123573303 0.099240586161613 -1.029535531997681 -0.036654558032751 -0.224927559494972 -1.053578734397888 0.672660052776337 -1.141046166419983
http://dbpedia.org/resource/The_Crying_Game -0.042485710233450 -0.396813273429871 0.393310934305191 0.615289866924286 0.505132317543030 0.068947255611420 0.194827914237976 -0.010457284748554 -0.141439393162727 0.190627887845039 0.294779360294342 0.293893098831177 -0.385869354009628 0.554905652999878 -0.413166254758835 0.159866794943810 -0.187741339206696 -0.638138890266418 -0.058190699666739 0.196152448654175 -0.727200210094452
http://dbpedia.org/resource/Almaty 0.377951055765152 0.540833890438080 -0.075063362717628 -0.906063914299011 -0.018365317955613 -0.117286667227745 0.297475785017014 0.781812548637390 0.053788039833307 0.032137438654900 1.378250598907471 -0.681423723697662 0.587142944335938 -0.466642260551453 0.673522174358368 -0.062471665441990 -0.527225255966187 0.062982380390167 -0.257294803857803 -0.662021160125732 -1.565047979354858
http://dbpedia.org/resource/Blue_Car 0.504364907741547 -0.065062537789345 0.359464973211288 0.250342011451721 0.677887499332428 -0.005928009748459 -0.087507687509060 0.227762073278427 0.043379928916693 0.184117272496223 0.130194678902626 -0.039674673229456 0.227173462510109 0.151187047362328 -0.003641035174951 -0.250107616186142 -0.082479014992714 0.086406163871288 -0.420140892267227 0.117718458175659 -0.120328970253468
http://dbpedia.org/resource/Cameron_International -0.502281188964844 0.320761501789093 0.051630262285471 0.558424651622772 0.718647420406342 0.094950333237648 0.258174687623978 0.067843973636627 0.034550398588181 0.382907271385193 0.189702913165092 -0.071808762848377 0.027625868096948 -0.017459519207478 0.363386362791061 -0.366007506847382 -0.224802136421204 -0.419148594141007 -0.595474183559418 -0.001065512886271 -0.377845793962479
http://dbpedia.org/resource/Iron_Man_3 0.201916739344597 -0.272067159414291 0.477392554283142 0.913593709468842 0.633076667785645 0.093000225722790 0.377463102340698 -0.030357493087649 -0.244600236415863 -0.008780295029283 0.053076758980751 -0.039604008197784 0.141463190317154 0.534266531467438 -0.247208878397942 0.039548750966787 -0.674668192863464 0.011491776444018 -0.664002478122711 0.250932067632675 -0.571672201156616
http://dbpedia.org/resource/Sime_Darby 0.614939451217651 0.278223007917404 -0.351252764463425 -0.076113276183605 0.629774928092957 0.359836816787720 0.364350646734238 0.390469163656235 0.340406894683838 0.035841289907694 0.043484877794981 0.387212008237839 0.447475343942642 -0.227898105978966 0.468104213476181 -0.068865396082401 -0.923862993717194 -0.390604197978973 -0.529977440834045 -0.604792356491089 -0.758070290088654
http://dbpedia.org/resource/Super_Size_Me 0.339845240116119 0.224333092570305 0.133162572979927 1.270380377769470 0.648225188255310 0.035715349018574 0.068455301225185 -0.090582132339478 0.300870776176453 0.451314449310303 0.082756824791431 -0.075312793254852 0.010076017118990 0.305637955665588 -0.172822132706642 -0.206154406070709 -0.492650717496872 -0.236331552267075 -0.545779168605804 0.377831339836121 0.147911667823792
http://dbpedia.org/resource/University_of_Central_Oklahoma 0.313288092613220 -0.120448030531406 0.316325902938843 0.587204158306122 -0.177010908722878 -0.095749542117119 -0.101653888821602 0.266850262880325 -0.019771022722125 0.215407088398933 -0.294814586639404 -0.582238733768463 -0.569043815135956 0.090532705187798 -0.303814738988876 -0.281115651130676 0.773249447345734 0.225473076105118 -0.634043037891388 -0.133225128054619 -0.665723681449890
http://dbpedia.org/resource/National_Oilwell_Varco 0.074501119554043 0.119559347629547 -0.090938217937946 0.640559673309326 0.702566623687744 -0.277853548526764 0.258412003517151 0.100793063640594 0.465831488370895 0.104985937476158 -0.201983049511909 -0.009730767458677 0.058488234877586 0.540858268737793 0.352134972810745 -0.507727146148682 -0.582494199275970 -0.364702671766281 -0.315539091825485 -0.026270346716046 -0.338854819536209
http://dbpedia.org/resource/Xanadu_(film) 0.204418599605560 -0.186562657356262 -0.054483134299517 0.518481552600861 0.353044658899307 -0.075744703412056 0.158010542392731 0.247704386711121 0.326155275106430 0.038634434342384 0.344620764255524 -0.046840522438288 0.180094420909882 0.130640789866447 -0.256461232900620 -0.289843827486038 -0.344173848628998 -0.184889942407608 -0.275202363729477 0.116623789072037 -0.449545145034790
http://dbpedia.org/resource/WPEX -0.128671124577522 0.395803838968277 -0.149051710963249 0.438173502683640 -0.179418936371803 0.222908452153206 -0.144916385412216 -0.157070636749268 0.128717303276062 0.429092139005661 0.226072520017624 -0.031164124608040 0.336168885231018 0.244920969009399 -0.270650804042816 -0.241030782461166 -0.050219424068928 0.291655033826828 -0.353905886411667 0.421816110610962 -0.250200748443604
http://dbpedia.org/resource/Northland_College_(Kaikohe) 0.390688210725784 -0.283528089523315 0.337152838706970 0.135714128613472 0.232402801513672 0.239715740084648 0.108279995620251 -0.380458891391754 0.061791207641363 0.224290728569031 -0.345386862754822 0.317351937294006 -0.186521068215370 -0.075454376637936 0.054395083338022 0.153654694557190 -0.258907377719879 -0.354410529136658 -1.035289287567139 0.185369655489922 -0.486240029335022
http://dbpedia.org/resource/Sun,_Sun,_Sun -0.403061449527740 0.287679940462112 0.189975246787071 0.584425449371338 0.766901254653931 0.033485788851976 0.567176759243011 0.364157348871231 -0.910901129245758 0.149767205119133 0.089112028479576 -0.041662700474262 0.166131421923637 -0.093467526137829 0.325306683778763 -0.323717564344406 -0.138488844037056 0.090994775295258 -0.507755100727081 0.478278219699860 -0.871789157390594
http://dbpedia.org/resource/Hospital_Corporation_of_America -0.158359527587891 -0.296465426683426 0.206678807735443 0.164421066641808 0.723516583442688 0.164910420775414 0.137528598308563 0.525258958339691 0.461658924818039 0.134147316217422 -0.147442132234573 -0.533864855766296 -0.105758965015411 0.117550969123840 0.579042792320251 -0.620124816894531 -0.225472658872604 -0.370627641677857 -0.624696254730225 -0.026886621490121 -0.521229267120361
http://dbpedia.org/resource/X_Marks_Destination 0.367181211709976 0.275365144014359 0.073865674436092 0.058349046856165 0.334669917821884 0.101017735898495 0.232074663043022 0.126341566443443 -0.622996449470520 0.068477436900139 0.111804977059364 0.266341716051102 -0.004291723947972 0.183812126517296 0.359390467405319 -0.287656366825104 -0.220695957541466 0.087200105190277 -0.549948632717133 0.422989636659622 -0.863309800624847
http://dbpedia.org/resource/JFE_Holdings -0.319691568613052 0.468993842601776 -0.112502664327621 0.082031480967999 0.856104552745819 0.771302998065948 0.310112625360489 -0.300246089696884 -0.093465201556683 0.240208223462105 -0.557087957859039 -0.011263896711171 0.015816180035472 -0.071774572134018 0.128966853022575 -0.566273689270020 -0.436621218919754 -0.706549406051636 -0.557987034320831 -0.409133940935135 -0.811660110950470
http://dbpedia.org/resource/Buffalo_State_College 0.728635430335999 -0.441108196973801 0.298121869564056 -0.124035976827145 -0.308883488178253 0.325122416019440 0.059466715902090 0.714363574981689 0.378083497285843 -0.019951744005084 0.470127552747726 -0.259567618370056 0.136991932988167 0.069265812635422 0.360545605421066 -0.191215515136719 0.553846001625061 0.178125724196434 -0.490008145570755 -0.371839016675949 -0.466027170419693
http://dbpedia.org/resource/Empire_State_College 0.415637463331222 -0.078094691038132 -0.019265523180366 0.102395802736282 0.101509615778923 0.254812508821487 -0.057970471680164 -0.040521379560232 -0.016388464719057 0.436253011226654 -0.138368278741837 0.020353849977255 0.076086468994617 -0.226358249783516 -0.334400177001953 -0.395294874906540 0.574372410774231 -0.178669512271881 -0.644821524620056 -0.034215901046991 -0.580134570598602
http://dbpedia.org/resource/E.ON 0.336640030145645 0.072307400405407 -0.186703175306320 0.243154108524323 0.594759225845337 0.602148890495300 0.286102682352066 0.468140125274658 -0.012506667524576 0.423834502696991 -0.145877063274384 -0.579664409160614 -0.043593604117632 -0.337784081697464 0.658410191535950 -0.884418308734894 0.292363107204437 -1.097715139389038 -0.689014971256256 0.272181481122971 -0.962730288505554
http://dbpedia.org/resource/Marsh_&_McLennan_Companies -0.216066241264343 0.011857100762427 -0.413600951433182 0.345906287431717 0.427573561668396 0.393007069826126 0.061828758567572 0.346268981695175 -0.199025169014931 0.154398351907730 -0.250176578760147 0.074813358485699 0.373189955949783 -0.054870236665010 0.343102455139160 -0.284662097692490 -0.127812057733536 -0.543798744678497 0.006804468110204 -0.069082349538803 -0.476724177598953
http://dbpedia.org/resource/Dear_Frankie 0.012026733718812 0.101325280964375 0.314642965793610 0.157472431659698 0.519140303134918 0.089559763669968 -0.001545833190903 -0.540887355804443 -0.036272875964642 -0.356827944517136 0.252599895000458 -0.150325730443001 -0.078098043799400 -0.046601332724094 -0.278761088848114 -0.223667100071907 -0.375761330127716 -0.253174006938934 -0.543281853199005 -0.223721548914909 -0.541183769702911
http://dbpedia.org/resource/The_Sweet_Escape 0.239842399954796 0.199960693717003 0.128063321113586 -0.043429493904114 0.397089213132858 -0.520901143550873 0.230129823088646 -0.000317527417792 -0.076286017894745 -0.347217917442322 -0.465288579463959 0.348764449357986 -0.069007910788059 0.238335013389587 -0.209409832954407 -0.783831655979156 -0.112511068582535 0.084266178309917 -1.065936207771301 0.557123959064484 -0.560302972793579
http://dbpedia.org/resource/Encana -0.346331357955933 0.404470682144165 0.022368879988790 0.940507233142853 0.534140884876251 0.568056404590607 0.200443074107170 0.080754086375237 0.175575032830238 0.094140611588955 -0.284831404685974 0.151275366544724 0.135914266109467 0.029432710260153 0.143838644027710 -0.371518939733505 -0.421412646770477 -0.822642028331757 -0.710566699504852 -0.060185130685568 -0.294508844614029
http://dbpedia.org/resource/Eisai -0.794148683547974 0.393868535757065 0.008991465903819 -0.304570913314819 0.555556595325470 0.719687461853027 0.022746037691832 -0.354710072278976 -0.534428417682648 -0.009206698276103 -0.099472574889660 0.031239565461874 -0.092304661870003 -0.513299584388733 -0.447153121232987 -0.018108252435923 0.392432928085327 -0.277789920568466 0.126438841223717 0.286446809768677 -0.156369686126709
http://dbpedia.org/resource/Arizona_State_University 1.194520354270935 -0.236169725656509 -0.458724737167358 -0.199018284678459 -0.018212148919702 0.034829907119274 -0.169701680541039 0.058648902922869 0.347468018531799 0.168647095561028 0.013091679662466 -0.706038534641266 0.018045142292976 -1.075582623481750 0.114194601774216 -0.369563043117523 0.434616595506668 -0.255993872880936 -0.168074712157249 0.278243035078049 -0.442792862653732
http://dbpedia.org/resource/Love,_Shelby -0.186992257833481 0.225874692201614 0.179292306303978 0.022045828402042 0.439371764659882 -0.100290767848492 0.318880915641785 -0.056774981319904 -0.566674709320068 0.279364973306656 -0.101367764174938 -0.379306107759476 0.076728515326977 -0.132481366395950 -0.118917889893055 -0.431163191795349 0.209357991814613 0.340774595737457 -0.233110204339027 0.842336595058441 -0.606099605560303
http://dbpedia.org/resource/Grupo_Bimbo -0.235154613852501 0.364677101373672 0.182596862316132 1.306250095367432 0.544002056121826 0.832272648811340 0.178524062037468 0.068101584911346 -0.204986259341240 0.391424566507339 -0.640519440174103 0.577578186988831 -0.285002946853638 -0.039750915020704 -0.152612388134003 0.131210237741470 -0.658237516880035 -0.532726645469666 -1.039623737335205 0.106778606772423 0.054538708180189
http://dbpedia.org/resource/Spirited_Away 0.099992148578167 0.261659055948257 0.291808575391769 0.449507266283035 0.731587946414948 0.541547119617462 0.049991961568594 0.222814276814461 -0.101739533245564 0.274680882692337 0.200442060828209 0.268484383821487 0.270789086818695 0.368395984172821 -0.806257605552673 -0.241387024521828 -0.424485743045807 -1.003401517868042 -0.526578187942505 0.300226688385010 -0.417238324880600
http://dbpedia.org/resource/WGEX -0.251779586076736 -0.003605030709878 -0.093715354800224 0.424786627292633 0.137943267822266 0.583108425140381 0.261856079101562 -0.019521284848452 0.309845000505447 0.400127768516541 0.030736032873392 -0.104953505098820 0.174684956669807 0.137679725885391 0.049702350050211 -0.144266843795776 -0.149860277771950 -0.348666280508041 -0.499530732631683 0.421791523694992 -0.141202986240387
http://dbpedia.org/resource/University_of_Pittsburgh 0.764072299003601 0.654234826564789 1.402272224426270 -0.828902661800385 0.055033568292856 -0.034220494329929 0.013956510461867 0.150844588875771 0.400663226842880 0.075292289257050 -0.485011577606201 -0.458730161190033 -1.329343199729919 0.459351122379303 1.407024264335632 -0.498585581779480 -0.334959030151367 0.369643181562424 0.047326359897852 -0.194152504205704 -0.869434058666229
http://dbpedia.org/resource/WHEO -0.101234540343285 0.297315984964371 -0.256549566984177 0.556257903575897 -0.132323697209358 0.394066512584686 0.240871399641037 0.065935321152210 0.380894988775253 0.268719285726547 0.268259495496750 -0.184480413794518 0.052741650491953 0.190699324011803 -0.048206396400928 -0.137956276535988 0.273971915245056 0.137797489762306 -0.294016510248184 0.367380142211914 -0.027865540236235
http://dbpedia.org/resource/Wells_College 0.684325039386749 -0.213863760232925 -0.150182291865349 -0.165134549140930 0.023691402748227 0.721734881401062 0.307653725147247 -0.151887401938438 0.093503415584564 0.467378765344620 -0.073813147842884 0.193234980106354 -0.036562845110893 0.099017627537251 0.144928023219109 0.052072495222092 0.216863200068474 -0.080645449459553 -0.175004124641418 -0.128057673573494 -0.419095844030380
http://dbpedia.org/resource/Sodexo 0.042712870985270 -0.068274267017841 0.115039624273777 0.530503451824188 0.354117333889008 0.484796404838562 0.167320057749748 -0.099133819341660 0.084283761680126 0.192259207367897 -0.129840880632401 0.207472607493401 -0.295326262712479 0.125466749072075 0.393305540084839 -0.198106825351715 -0.314026474952698 -0.582791745662689 -0.588341653347015 0.173081129789352 -0.698516130447388
http://dbpedia.org/resource/Since_I_Left_You 0.082722753286362 -0.231475457549095 0.076085723936558 0.282538622617722 0.419404804706573 0.081255890429020 0.118405051529408 0.114196419715881 -0.258150666952133 0.129151344299316 -0.279936403036118 0.366024881601334 0.282900303602219 0.035066887736320 0.243923202157021 -0.770088613033295 -0.098983973264694 -0.249341070652008 -0.980013787746429 0.304306030273438 -0.974599361419678
http://dbpedia.org/resource/Daybreak_(Saves_the_Day_album) -0.326516985893250 0.322364002466202 0.167438805103302 0.184465363621712 0.568586170673370 0.289175748825073 0.311939239501953 -0.377235323190689 -0.675941944122314 0.239459872245789 0.126165419816971 0.333616733551025 0.247597709298134 -0.220886662602425 0.197454184293747 -0.552595913410187 -0.140922352671623 0.127003014087677 -0.298448622226715 0.653156518936157 -1.004143238067627
http://dbpedia.org/resource/Phat_Girlz 0.503420829772949 0.248191922903061 0.378684222698212 0.453541666269302 0.300322711467743 -0.163845822215080 0.074004940688610 -0.041090592741966 -0.024879768490791 0.048604216426611 0.156280726194382 0.026937894523144 -0.015964239835739 0.404105275869370 -0.377245128154755 -0.149902582168579 -0.527936995029449 -0.270504564046860 -0.086610436439514 0.161718457937241 -0.259653091430664
http://dbpedia.org/resource/Hokuhoku_Financial_Group 0.014104339294136 0.267593175172806 -0.053888425230980 0.195912852883339 0.365063935518265 0.272424250841141 0.194976493716240 0.058746997267008 -0.182343482971191 -0.087594725191593 -0.193393379449844 -0.176234483718872 0.208935409784317 -0.187564685940742 -0.083724230527878 -0.436373203992844 0.038824040442705 -0.257371485233307 -0.327960789203644 0.061787758022547 -0.517128944396973
http://dbpedia.org/resource/Welcome_to_Mooseport 0.156332254409790 -0.109320990741253 0.408385545015335 0.716993331909180 0.222942546010017 0.093041293323040 0.181592658162117 -0.205232635140419 -0.299398034811020 0.034560743719339 0.106062442064285 0.206327468156815 0.117268882691860 0.387097269296646 -0.120753705501556 -0.007199844345450 -0.413311302661896 -0.487725645303726 -0.185378924012184 0.214855343103409 -0.351877719163895
http://dbpedia.org/resource/Asahi_Kasei -0.247720614075661 0.528927862644196 0.156139433383942 0.262741178274155 0.709404468536377 0.521000981330872 0.269008636474609 0.211983457207680 -0.510401129722595 -0.090981326997280 -0.295961886644363 -0.009084117598832 0.357430160045624 0.086862690746784 0.216424211859703 -0.580345928668976 -0.241456836462021 -0.426294535398483 -0.544476449489594 -0.240632757544517 -0.136127874255180
http://dbpedia.org/resource/Denies_the_Day's_Demise 0.045688297599554 -0.122994899749756 -0.121159732341766 0.131795346736908 0.530784606933594 0.091055862605572 0.072533041238785 -0.201789647340775 -0.407618314027786 0.088899649679661 -0.037378076463938 0.304800063371658 0.048605378717184 -0.178216204047203 0.107193246483803 -0.361259311437607 -0.306463420391083 0.122311241924763 -0.640189528465271 0.317151337862015 -0.480247616767883
http://dbpedia.org/resource/Lipscomb_University 0.321766287088394 -0.560108423233032 0.050745915621519 0.392646014690399 0.115321546792984 -0.282789260149002 0.360920935869217 0.111590720713139 0.032667022198439 -0.498242408037186 -0.356833010911942 -0.121012575924397 -0.320584356784821 0.158848494291306 -0.119221881031990 -0.412966668605804 0.632411956787109 0.072357065975666 0.037468276917934 -0.129079654812813 -0.621100008487701
http://dbpedia.org/resource/Power_Assets_Holdings -0.363600790500641 0.134132966399193 0.195710822939873 0.513270139694214 0.547599256038666 0.351766526699066 0.360280692577362 0.136179491877556 0.272524833679199 -0.001176648074761 -0.442356914281845 -0.330579310655594 0.082653105258942 -0.069309175014496 -0.092938810586929 -0.353809148073196 -0.608002305030823 -0.795235812664032 -0.583826541900635 0.271439880132675 -0.694558978080750
http://dbpedia.org/resource/Christendom_College 0.176404029130936 0.166549965739250 -0.424612611532211 0.798291325569153 0.060170352458954 0.439115285873413 0.217766657471657 0.226026043295860 -0.112248986959457 0.259595155715942 -0.214710876345634 0.280264317989349 -0.125491797924042 0.263906002044678 -0.017376866191626 0.097035005688667 0.412649840116501 -0.146193638443947 -0.337307840585709 0.190877780318260 -0.298393338918686
http://dbpedia.org/resource/Breaking_Kayfabe -0.197608217597008 0.285933196544647 0.464159667491913 0.506859540939331 0.401725560426712 0.332151919603348 0.048785153776407 -0.281426042318344 -0.151122540235519 -0.034350220113993 -0.446743965148926 0.197115898132324 -0.455903053283691 0.248406231403351 -0.160589948296547 -0.313108891248703 0.448290884494781 0.370128273963928 -0.684867918491364 0.460983306169510 -0.181945964694023
http://dbpedia.org/resource/ChinaCoal 0.020774729549885 0.131644695997238 -0.084053017199039 0.955710411071777 0.415634632110596 0.444019228219986 0.546816945075989 0.153986915946007 -0.099666297435760 -0.015742916613817 -0.399170666933060 -0.259179830551147 0.112687371671200 0.068137682974339 0.152038052678108 -0.332387030124664 -0.233083546161652 -0.467539757490158 -0.882677912712097 0.816658139228821 -0.456290662288666
http://dbpedia.org/resource/9_Dead_Gay_Guys 0.047016806900501 0.249107405543327 0.069712556898594 0.509593129158020 0.351685404777527 0.241998389363289 0.082371257245541 -0.224511891603470 -0.093772791326046 0.165741592645645 0.251436144113541 0.063555642962456 0.232696041464806 0.178075611591339 -0.156668916344643 -0.071283243596554 -0.422286123037338 -0.439837604761124 -0.716842830181122 0.278965950012207 -0.618553042411804
http://dbpedia.org/resource/Paper_Tigers -0.461173206567764 0.102023907005787 0.054196156561375 -0.107063725590706 0.817159056663513 -0.308586061000824 0.427852153778076 -0.175192728638649 -0.854814112186432 0.171924456954002 -0.145416930317879 -0.190982669591904 -0.331889808177948 0.108176656067371 -0.003126994939521 -0.817976117134094 -0.032093502581120 -0.193824291229248 -0.718766808509827 0.689077317714691 -0.425032734870911
http://dbpedia.org/resource/Capita -0.036626663058996 0.076676934957504 0.168793097138405 0.536167979240417 0.742821156978607 0.294541358947754 0.180256873369217 -0.087809868156910 0.080454714596272 -0.218942493200302 -0.379296928644180 0.110815472900867 -0.022682944312692 -0.122818522155285 0.162453025579453 -0.088529467582703 -0.350279361009598 -0.121656633913517 -0.208023473620415 0.002477673115209 -0.944782078266144
http://dbpedia.org/resource/Ga_Ga_Ga_Ga_Ga -0.188302367925644 0.438632935285568 0.266578376293182 0.484212577342987 0.456956207752228 -0.643318355083466 0.054485775530338 0.030153594911098 -0.512622594833374 0.383546143770218 0.037444747984409 0.400204002857208 0.109787732362747 0.152578786015511 0.320815891027451 -0.252226173877716 0.205294936895370 0.270051658153534 -0.650640368461609 0.825995922088623 -0.699414372444153
http://dbpedia.org/resource/GKN -0.230843424797058 0.547365307807922 -0.705005049705505 0.407602846622467 0.643148124217987 0.558855056762695 0.434160888195038 -0.301599770784378 0.076778292655945 0.066833585500717 0.449211418628693 -0.193078309297562 -0.095011577010155 -0.000785583979450 0.073249615728855 -0.236948490142822 -0.425601303577423 0.152288138866425 0.017105814069510 -0.394370049238205 -1.062207221984863
http://dbpedia.org/resource/Willis_Group -0.106257170438766 0.057848621159792 -0.352516353130341 0.544112443923950 0.592500030994415 0.086461067199707 -0.204515844583511 -0.020155856385827 0.207521662116051 0.132405236363411 0.093851648271084 -0.095966428518295 0.005570163484663 -0.326808124780655 0.517189562320709 -0.136819064617157 -0.056648358702660 -0.045166853815317 -0.230279803276062 -0.012166661210358 -0.612757802009583
http://dbpedia.org/resource/Gree_Electric -0.135403618216515 0.246758714318275 0.129649117588997 0.657244682312012 0.408865839242935 0.443370074033737 0.673612654209137 0.293391317129135 -0.165513172745705 0.131226375699043 0.059996154159307 0.076628565788269 0.031302630901337 -0.003559089964256 -0.089379347860813 -0.337964445352554 -0.372583687305450 -0.418657630681992 -0.790738165378571 0.241491749882698 -0.240494325757027
http://dbpedia.org/resource/Endlessly_(album) -0.100406855344772 0.069692812860012 0.418659955263138 0.097688637673855 0.251851946115494 -0.303663849830627 0.456523209810257 -0.055754669010639 -0.566284239292145 -0.103196501731873 -0.325644016265869 -0.205619037151337 -0.174542292952538 -0.096946932375431 -0.255322515964508 -0.459806710481644 -0.020698750391603 -0.073714181780815 -0.510123014450073 0.285345554351807 -0.849522352218628
http://dbpedia.org/resource/Mr._Impossible_(album) 0.205999612808228 0.285439938306809 0.118040077388287 0.216063544154167 0.371837884187698 0.409049004316330 0.374418437480927 0.111965395510197 -0.484883308410644 0.019432483240962 -0.024689488112926 0.127784803509712 -0.202620446681976 -0.370433837175369 0.356116503477097 -0.249598354101181 -0.262696921825409 0.256228327751160 -0.843429088592529 0.371852934360504 -0.733079493045807
http://dbpedia.org/resource/Franklin_Pierce_University 0.408339917659760 -0.045095056295395 0.002170702209696 0.342501670122147 -0.392751514911652 0.487833142280579 -0.145589381456375 0.031500626355410 -0.514605760574341 0.887510240077972 -0.270200729370117 -0.115355819463730 -0.390262812376022 -0.040191665291786 0.213220044970512 -0.113178655505180 0.364908844232559 0.119705989956856 0.337915211915970 0.154155045747757 -0.454226434230804
http://dbpedia.org/resource/WAER 0.553578138351440 0.298987418413162 0.336623400449753 0.134380251169205 -0.206066876649857 0.149079799652100 -0.183067306876183 0.204662650823593 0.149688452482224 0.389309495687485 0.088306143879890 -0.163453489542007 0.161359488964081 -0.275108218193054 0.214734956622124 0.079764492809772 0.088805869221687 -0.147858425974846 -0.270037889480591 0.261322408914566 -0.493715971708298
http://dbpedia.org/resource/Match_Point 0.385380089282990 0.018620990216732 0.120106332004070 0.237117931246758 0.290748029947281 0.011567590758204 0.173208415508270 0.309773802757263 -0.323915868997574 0.446809589862823 0.025470461696386 0.377745062112808 0.150352090597153 0.337003588676453 0.073976755142212 -0.465357333421707 -0.629497110843658 -0.690634489059448 -0.366376221179962 0.255051225423813 -0.425530105829239
http://dbpedia.org/resource/Brazzaville 0.653929293155670 0.217707827687263 -0.525332212448120 0.054973915219307 -0.285940200090408 0.342448532581329 -0.154461562633514 0.512233018875122 -0.012074328027666 -0.055357947945595 -0.042423143982887 -0.411099195480347 -0.819023370742798 -0.506387412548065 0.178872451186180 0.565707683563232 0.339845985174179 1.255201816558838 -0.252697795629501 0.273211956024170 -0.414640873670578
http://dbpedia.org/resource/Boise_State_University 0.685925066471100 -0.254510283470154 -0.142350152134895 0.298748284578323 -0.740453958511353 0.657521724700928 0.042339049279690 -0.301100611686706 0.207603096961975 -0.265071749687195 -0.373891800642014 -0.796378493309021 -0.220584943890572 0.022139502689242 0.269559621810913 -0.091170795261860 0.124790437519550 -0.494452565908432 -0.111178256571293 0.177105903625488 -0.533236205577850
http://dbpedia.org/resource/Nebraska_Wesleyan_University 0.491801232099533 0.472214013338089 -0.221764296293259 0.417187094688416 0.320486515760422 0.469971120357513 0.421096295118332 -0.012834771536291 0.037520062178373 -0.120888821780682 0.180625453591347 0.163712367415428 -0.175093248486519 -0.192701891064644 0.106153726577759 -0.444861859083176 0.219276711344719 -0.029417144134641 -0.088075101375580 -0.040840495377779 -0.400229543447495
http://dbpedia.org/resource/Godzilla_(1998_film) -0.063590243458748 -0.265990197658539 0.434531927108765 0.502554655075073 0.367380827665329 0.201682880520821 -0.053462103009224 -0.125292047858238 -0.063398383557796 0.109216518700123 0.483660042285919 0.141658157110214 0.103680394589901 0.172905176877975 -0.400339841842651 -0.425056904554367 -0.238315194845200 -0.478891611099243 -0.484462827444076 0.219980508089066 -0.441297382116318
http://dbpedia.org/resource/Primeval_(film) 0.076713792979717 -0.088092774152756 0.136608213186264 0.546798646450043 0.555645763874054 0.092777617275715 0.170081481337547 0.262310445308685 -0.066917106509209 -0.111629344522953 -0.144251570105553 0.123429007828236 0.308258414268494 0.251376599073410 -0.058185826987028 0.287893533706665 -0.008525450713933 -0.156098231673241 -0.569353401660919 0.304263561964035 -0.029435304924846
http://dbpedia.org/resource/8_Million_Stories 0.000591402524151 -0.039393376559019 0.034872330725193 0.346289873123169 0.352131634950638 0.128581032156944 0.089083664119244 -0.135389924049377 -0.405371516942978 0.102651581168175 -0.150631994009018 0.246427729725838 -0.007890441454947 0.181622222065926 0.003665643045679 -0.250049650669098 -0.312891513109207 0.267060697078705 -1.025537610054016 0.708825886249542 -0.351041346788406
http://dbpedia.org/resource/America's_Sweetheart_(album) -0.363525331020355 0.158157408237457 0.050900835543871 -0.069473877549171 0.506495893001556 0.043854426592588 0.573076426982880 -0.279041409492493 -0.628820598125458 0.280174672603607 -0.134792968630791 0.092019855976105 0.164151206612587 -0.174593120813370 -0.059896662831306 -0.729119896888733 -0.046497177332640 -0.153688237071037 -0.935813426971436 0.349952846765518 -0.095903858542442
http://dbpedia.org/resource/Ping_An_Bank -0.236678436398506 0.561251401901245 0.176852852106094 0.622739374637604 0.240584969520569 0.370526283979416 0.299454420804977 0.102684944868088 -0.279962152242661 0.086294494569302 -0.360776185989380 -0.559806525707245 0.187697783112526 0.007610112894326 -0.021652797237039 -0.334431856870651 -0.167080268263817 -0.374323517084122 -0.810168623924255 0.238691553473473 -0.212195128202438
http://dbpedia.org/resource/Xerox 0.411742031574249 0.200834035873413 -0.142981424927711 0.373158752918243 0.662538468837738 0.498970150947571 0.728562295436859 -0.090102992951870 0.230102837085724 0.411482334136963 -0.053141079843044 -0.127362728118896 0.193626657128334 -0.608775198459625 -0.429701477289200 -0.520760953426361 -0.190458491444588 -0.081139534711838 0.721760153770447 -1.172931551933289 -0.709347546100616
http://dbpedia.org/resource/Origin_Energy -0.082976885139942 -0.055059123784304 0.108112007379532 -0.094635225832462 0.747464120388031 0.084576524794102 0.219602823257446 0.785952508449554 0.346567273139954 0.167038068175316 -0.031983736902475 -0.046985384076834 0.265873789787292 0.375899761915207 0.189586892724037 -0.126811057329178 -0.319083958864212 -0.863901197910309 -0.563567817211151 0.278208464384079 -1.048627614974976
http://dbpedia.org/resource/Monkey_Business_(album) 0.226805597543716 0.145972907543182 0.495139777660370 0.472946554422379 0.803458392620087 -0.129737064242363 0.491495251655579 0.056492626667023 -0.294253736734390 -0.159823819994926 -0.439792424440384 -0.070510298013687 -0.022619765251875 -0.092849791049957 -0.171739280223846 -0.845617711544037 0.088285185396671 0.044307019561529 -0.983667433261871 0.529004335403442 -0.293315649032593
http://dbpedia.org/resource/Meralco 0.541554629802704 0.033346980810165 -0.007061553187668 0.355639308691025 1.004383325576782 0.488202095031738 -0.249509692192078 0.219820588827133 0.424542993307114 -0.361424267292023 -0.431670278310776 0.094795338809490 0.051097553223372 -0.125335842370987 0.246274232864380 -0.474601298570633 -0.176348835229874 -0.221407487988472 -0.406818449497223 -0.030171819031239 -0.604140162467957
http://dbpedia.org/resource/Out_of_Sight 0.307862490415573 -0.516828596591949 0.573489189147949 0.632736742496490 0.253104627132416 -0.081624396145344 0.100002177059650 0.160952791571617 0.058050360530615 0.270179986953735 0.321768820285797 0.001226989785209 0.068635612726212 0.092165112495422 -0.396091818809509 0.125227704644203 -0.053476713597775 -0.152779847383499 -0.292111396789551 0.213326647877693 -0.502924501895905
http://dbpedia.org/resource/Size_Matters -0.416935205459595 -0.009874767623842 0.161739483475685 -0.499548345804214 0.408688396215439 0.181600987911224 0.313316047191620 -0.104115493595600 -0.443712830543518 -0.131263718008995 -0.426063925027847 -0.031584478914738 -0.035078004002571 -0.033679779618979 0.059423200786114 -1.018663525581360 0.155545175075531 0.247004121541977 -0.780046641826630 0.270670562982559 -0.479722648859024
http://dbpedia.org/resource/Vivendi -1.091916084289551 0.199771389365196 -0.174043789505959 0.453307628631592 -0.284792959690094 0.677525818347931 -0.009833805263042 0.184695258736610 -0.838935017585754 0.262133240699768 -0.633819997310638 -1.018855929374695 0.073478676378727 -0.331059873104095 -0.711214959621429 -0.308149278163910 0.371482729911804 0.248941078782082 -0.859299540519714 1.579979538917542 -1.287748813629150
http://dbpedia.org/resource/Shanghai_Electric 0.043939385563135 0.350815057754517 0.041226107627153 0.848378479480743 0.434005469083786 0.261535167694092 0.718566477298737 -0.207736507058144 -0.133285358548164 0.224662244319916 -0.043284539133310 -0.240216657519340 -0.216756001114845 -0.328048139810562 0.231128424406052 -0.121373616158962 -0.025694038718939 -0.561040878295898 -0.597222983837128 0.425774455070496 -0.358543723821640
http://dbpedia.org/resource/Two_Family_House 0.230776742100716 0.284199506044388 0.356773436069489 0.276079148054123 0.503820478916168 0.204166814684868 -0.455198258161545 -0.121821805834770 0.137055099010468 -0.109452486038208 -0.238060757517815 -0.193577691912651 0.406673997640610 0.021068789064884 -0.100670859217644 -0.016817735508084 -0.440882265567779 0.075248055160046 -0.229955002665520 0.354356080293655 -0.406965017318726
http://dbpedia.org/resource/The_Wonder_Years_(9th_Wonder_album) 0.401445239782333 0.227700144052505 0.152218505740166 0.462718814611435 0.236324220895767 0.090837717056274 0.378888636827469 -0.141661196947098 -0.527964651584625 0.431613147258759 -0.387342661619186 -0.052530873566866 -0.069141060113907 0.187181442975998 0.032565165311098 -0.499003320932388 -0.125275552272797 0.293787986040115 -0.528205931186676 0.406005948781967 -0.341468662023544
http://dbpedia.org/resource/Celgene -0.334702432155609 0.258100032806396 -0.004033512901515 0.463583111763000 0.622499406337738 -0.150659903883934 0.242681100964546 0.124708548188210 0.012241498567164 0.134886592626572 0.048581779003143 0.368149638175964 0.054075270891190 0.092643909156322 0.171396374702454 -0.317781805992127 -0.428436517715454 -0.159855857491493 0.229001030325890 0.295085012912750 -0.308499455451965
http://dbpedia.org/resource/Coco_Before_Chanel 0.106293521821499 0.006808910518885 -0.014545930549502 0.725711047649384 0.426535546779633 0.386678189039230 0.065406657755375 0.147301584482193 -0.285773366689682 0.264326840639114 0.170342445373535 -0.026814999058843 0.504289269447327 0.176052227616310 0.082436107099056 -0.706598162651062 -0.694587230682373 -0.357428610324860 -0.565564513206482 0.311747193336487 -0.084809087216854
http://dbpedia.org/resource/Deadgirl -0.025641404092312 -0.011338243260980 0.011406881734729 0.402514249086380 0.619763493537903 -0.044704508036375 0.129689946770668 0.161635115742683 0.215598076581955 0.081581696867943 0.400305598974228 0.077614396810532 0.115384280681610 0.219259455800056 0.005574571900070 0.147793203592300 -0.391841888427734 0.149081796407700 -0.269679754972458 0.113328583538532 -0.114582948386669
http://dbpedia.org/resource/The_Medallion 0.124099947512150 0.256251335144043 0.277305603027344 0.328910946846008 0.165999218821526 -0.224769219756126 0.059516772627830 0.029406523332000 -0.128911316394806 -0.018097085878253 0.177444979548454 -0.164101794362068 0.067715361714363 0.141546219587326 -0.442593038082123 -0.540230512619019 -0.241274207830429 -0.600874245166779 -0.348663091659546 0.449262619018555 -0.320165991783142
http://dbpedia.org/resource/The_Covenant_(film) -0.052461329847574 0.443528354167938 0.282821983098984 0.685028612613678 0.294419586658478 0.182094186544418 -0.042701620608568 0.046000417321920 -0.261202275753021 0.078465536236763 0.100840561091900 0.085170514881611 -0.029244108125567 0.582676827907562 0.063971787691116 -0.083616681396961 -0.204080060124397 -0.178288504481316 -0.488701134920120 0.185729458928108 -0.494761466979981
http://dbpedia.org/resource/The_Opportunists -0.056694686412811 0.233834251761436 -0.079412102699280 0.189671024680138 0.208923786878586 0.166494145989418 -0.105106726288795 0.018023347482085 -0.377151042222977 0.475106686353683 0.428135514259338 0.002462571719661 0.059729963541031 0.278999805450439 -0.051249243319035 -0.483716815710068 -0.074674725532532 -0.175081819295883 -0.191090255975723 -0.080234162509441 -0.332046329975128
http://dbpedia.org/resource/The_Path_of_Totality -0.324756771326065 -0.385243117809296 0.178487852215767 0.081675805151463 0.585503756999969 0.459504663944244 0.367018312215805 0.008584277704358 -0.093911781907082 0.277949512004852 -0.632847130298615 0.146571502089500 -0.100650630891323 0.028824813663960 0.359690278768539 -0.852574229240417 -0.056910414248705 -0.026723623275757 -0.665376663208008 0.207428365945816 -0.409179598093033
http://dbpedia.org/resource/Moodring 0.452210009098053 -0.024652715772390 0.253405094146729 0.005993632599711 0.454793334007263 -0.348115950822830 0.301263809204102 0.243423998355866 -0.424711048603058 0.052414342761040 -0.376804322004318 -0.103470154106617 -0.039013061672449 0.135201767086983 0.035739496350288 -0.699315190315247 -0.070255436003208 -0.106534928083420 -0.842930734157562 0.591335415840149 -0.380176126956940
http://dbpedia.org/resource/Arrow_Electronics -0.144352987408638 0.089864447712898 -0.356932580471039 0.764121949672699 0.715694844722748 0.360924065113068 0.099368155002594 0.088764682412148 0.067713685333729 0.092602528631687 0.176774471998215 0.348606079816818 0.221637472510338 0.099658302962780 0.147023916244507 -0.526126623153687 -0.002356208860874 -0.311214208602905 -0.117586448788643 -0.164907068014145 -0.274450957775116
http://dbpedia.org/resource/Sound_of_Noise -0.124397769570351 0.123362489044666 0.285402595996857 0.604093611240387 0.366639167070389 0.156999588012695 -0.120053522288799 -0.260681807994842 -0.468729645013809 -0.064779035747051 0.189464852213860 0.356346994638443 0.558199346065521 0.323239296674728 0.143745675683022 -0.231128811836243 -0.512003242969513 -0.228227689862251 -0.654479444026947 0.504411160945892 -0.606952726840973
http://dbpedia.org/resource/1991_(EP) 0.066311813890934 -0.102039247751236 0.329069882631302 0.143384248018265 0.535278320312500 -0.100152246654034 0.143277481198311 0.140569254755974 -0.484489351511002 0.016996627673507 -0.305767357349396 0.335330933332443 0.228196322917938 -0.116645634174347 -0.059054732322693 -0.726150810718536 -0.112417258322239 0.492364436388016 -0.522558987140656 0.244800001382828 -0.640534341335297
http://dbpedia.org/resource/Time_Changes_Everything -0.258833765983582 0.500405311584473 0.306345552206039 -0.073124051094055 0.398594498634338 0.126077204942703 0.319332361221313 -0.449116885662079 -0.376879662275314 0.240646332502365 -0.043523248285055 -0.070069015026093 -0.240328535437584 -0.045132897794247 -0.061213903129101 -0.424732804298401 0.148579195141792 0.207626208662987 -0.442815601825714 0.283161491155624 -0.931065797805786
http://dbpedia.org/resource/Greensboro_College 0.352159202098846 -0.063116878271103 -0.040930878371000 0.268732637166977 0.168564155697823 0.136861279606819 -0.232967451214790 0.251069486141205 -0.458129405975342 0.358357161283493 -0.308645963668823 -0.349907428026199 -0.609294474124908 -0.214077994227409 0.031421668827534 -0.059337776154280 -0.084325447678566 -0.181222870945930 0.297290414571762 -0.083245292305946 -0.401810407638550
http://dbpedia.org/resource/Room_237 0.102839767932892 -0.047148916870356 -0.173897534608841 0.816027879714966 0.357314705848694 -0.140705391764641 0.196871355175972 -0.112990416586399 0.111693195998669 0.187400773167610 -0.114312008023262 0.118607625365257 0.180127173662186 0.230047985911369 0.063444145023823 -0.073731683194637 -0.251311480998993 0.081389255821705 -0.275948435068130 0.360688686370850 -0.594200134277344
http://dbpedia.org/resource/I_Created_Disco -0.009894091635942 -0.031805958598852 0.291534304618835 -0.002679301425815 0.523422420024872 -0.336139976978302 0.202595248818398 0.460392922163010 -0.222048401832581 0.369325608015060 -0.425622671842575 0.290941774845123 -0.241463735699654 -0.110062234103680 -0.185726791620254 -0.434620499610901 -0.196514382958412 0.149888560175896 -0.391233503818512 0.418714523315430 -0.756575822830200
http://dbpedia.org/resource/A_Ghost_Is_Born -0.401124626398087 0.096560925245285 0.277292758226395 -0.001448433031328 0.580449640750885 -0.170738130807877 -0.200507000088692 0.113857857882977 -0.278041511774063 0.292369633913040 0.054792791604996 0.287464022636414 0.326412051916122 -0.108462199568748 0.089033246040344 -0.542496621608734 -0.171416282653809 0.019641291350126 -0.713462054729462 0.331559866666794 -0.347134113311768
http://dbpedia.org/resource/Crazy_Heart 0.446139156818390 -0.427409380674362 0.395775228738785 0.837376832962036 0.464367568492889 0.009050064720213 0.111967734992504 -0.094895087182522 -0.177426695823669 -0.043083749711514 0.252442061901092 0.051642391830683 0.183441519737244 0.412465989589691 -0.135084509849548 -0.538419961929321 -0.418490678071976 -0.076969504356384 -0.602358758449554 0.606019854545593 -0.284611880779266
http://dbpedia.org/resource/Royal_Dutch_Shell 0.213217750191689 0.018053857609630 0.075484372675419 0.273705929517746 1.222406506538391 -0.065896198153496 0.385729312896729 0.246495425701141 0.383088499307633 0.193544074892998 -0.065330170094967 -0.293719738721848 -0.499295324087143 -0.118473745882511 0.620429217815399 -0.462509870529175 -0.603633522987366 -0.642919600009918 -0.691377997398376 -0.165637373924255 -0.772185802459717
http://dbpedia.org/resource/Offend_Maggie -0.043543871492147 0.324272930622101 -0.205135747790337 0.418790847063065 0.483370840549469 0.023521048948169 0.564715564250946 0.133069798350334 -0.810961663722992 0.039635587483644 0.001226153224707 0.363967299461365 -0.144620224833488 -0.205689683556557 0.339175671339035 -0.536950647830963 -0.174007490277290 0.211172178387642 -0.462661832571030 0.380951046943665 -0.799992620944977
http://dbpedia.org/resource/To_Save_a_Life 0.331928074359894 -0.162228107452393 0.033758088946342 0.720667719841003 0.415013492107391 0.047885011881590 -0.120375573635101 -0.250553637742996 -0.580593407154083 -0.022881561890244 0.208767205476761 0.072698101401329 0.467020601034164 0.176047071814537 -0.194187685847282 0.257767647504807 -0.083457067608833 0.078974977135658 -0.924176394939423 0.419583797454834 -0.339701384305954
http://dbpedia.org/resource/University_of_North_Carolina_at_Pembroke -0.041985437273979 -0.115676403045654 -0.254792630672455 0.339660674333572 0.010472007095814 0.410987257957458 -0.083641380071640 0.206724226474762 -0.161629915237427 0.060238618403673 0.233985856175423 0.011192430742085 -0.520304322242737 -0.247097551822662 0.523647069931030 -0.713008582592010 -0.003473392222077 0.086773507297039 -0.177823454141617 -0.123659804463387 -0.402974516153336
http://dbpedia.org/resource/Give_Up_the_Ghost_(album) 0.236009702086449 -0.230196624994278 0.450339883565903 -0.017893150448799 0.946646988391876 0.284349769353867 0.577820599079132 0.244422212243080 -0.309902966022491 0.178300037980080 -0.110225625336170 0.286168396472931 0.238685339689255 -0.071637816727161 0.422484427690506 -0.951232314109802 0.190470591187477 0.012668872252107 -0.481397420167923 0.487466275691986 -0.169947177171707
http://dbpedia.org/resource/WREY -0.331998348236084 0.197625681757927 -0.075528539717197 0.639290690422058 -0.306712001562118 0.336227595806122 0.548169493675232 -0.100473746657372 0.303164839744568 0.146132037043571 0.562560498714447 0.203228086233139 0.095730595290661 0.165184780955315 0.023203128948808 -0.097416557371616 -0.002759142545983 -0.038111697882414 -0.889130353927612 -0.141993135213852 -0.172431170940399
http://dbpedia.org/resource/Midnite_Vultures 0.031502116471529 -0.000862719840370 0.291008263826370 0.054811604321003 0.688800573348999 -0.437600851058960 0.150326088070869 -0.139783054590225 -0.519836544990540 -0.241566345095634 -0.239153176546097 -0.201778128743172 0.239842817187309 0.025042388588190 -0.224389493465424 -0.772340059280396 0.177823051810265 0.318502217531204 -0.473193049430847 0.528446197509766 -0.254335701465607
http://dbpedia.org/resource/Film_Socialisme -0.067986808717251 0.315734326839447 0.166774481534958 0.491422355175018 0.304723143577576 0.222729235887527 -0.027341376990080 0.071790270507336 -0.287977546453476 0.331186562776566 0.409725934267044 -0.090637922286987 0.376291006803513 0.305674970149994 -0.081061616539955 0.184367999434471 -0.207740470767021 -0.127499446272850 -0.608417928218842 0.441610634326935 0.249477848410606
http://dbpedia.org/resource/Smash_His_Camera 0.461432725191116 0.336048454046249 0.121283970773220 0.581606090068817 0.163598492741585 -0.451829075813294 -0.001203472958878 0.216365918517113 0.053740624338388 0.255765795707703 0.140024617314339 0.058027897030115 0.194215953350067 0.158256873488426 0.300023078918457 -0.045041427016258 -0.332422196865082 -0.289014816284180 0.004335951525718 0.144334077835083 -0.171285003423691
http://dbpedia.org/resource/Abilene_Christian_University -0.129173099994659 -0.404278099536896 0.032789133489132 0.632809042930603 -0.062665738165379 0.013175289146602 0.157530978322029 0.246892392635345 -0.228891059756279 0.231371685862541 -0.527747273445129 -0.402372300624847 -0.945215582847595 -0.022709835320711 0.494111955165863 -0.540473341941833 0.215696379542351 0.511074662208557 -0.470170289278030 0.229481935501099 -1.033207654953003
http://dbpedia.org/resource/Weapons_(album) -0.135009065270424 0.221356391906738 0.510757088661194 -0.158475592732430 0.588360071182251 0.029630623757839 0.287181496620178 0.047975935041904 -0.311960279941559 -0.142974212765694 -0.162927299737930 0.373728424310684 -0.073696129024029 -0.208542197942734 -0.149097427725792 -0.698631525039673 0.157407298684120 0.071387879550457 -0.548973619937897 0.318475484848023 -0.581479907035828
