http://dbpedia.org/resource/Senegal	-0.822411835193634	-0.40707138180732727	0.03942066431045532	0.08210712671279907	0.8407384753227234	0.5121603608131409	0.060298945754766464	0.19321110844612122	-0.8493877649307251	-0.1315477043390274	0.6121317148208618	-0.051438260823488235	-0.15493927896022797	-1.0850715637207031	-0.12625287473201752	-0.9462277293205261	0.17968526482582092	0.8526899218559265	0.22909308969974518	0.07443425059318542	0.10716021060943604	-0.35050687193870544	0.5741164088249207	-0.9429766535758972	-0.20558516681194305	-0.28218144178390503	-0.32235440611839294	1.0401383638381958	-0.8262714147567749	1.1488293409347534	0.01993715576827526	-0.3806934356689453	0.2572557032108307	-0.7454643249511719	0.2767523229122162	-0.6617299318313599	0.6908348202705383	-0.11216751486063004	0.9007195830345154	-0.32203108072280884	-0.5628230571746826	0.1633608341217041	-0.15158693492412567	0.6967827081680298	-0.240865558385849	-0.19587792456150055	0.6383370757102966	0.6596978306770325	-0.6183443665504456	0.11725422739982605	-0.8058878183364868	0.4068058431148529	-0.18931294977664948	-0.6224958300590515	-0.19542349874973297	-0.02840324491262436	0.1915796846151352	0.0030366622377187014	-0.3770473003387451	-0.5745630264282227	-0.1940380483865738	-0.2676391005516052	-0.5847936868667603	-0.2853071987628937	-0.08218128979206085	-0.4108335077762604	-0.10560877621173859	0.0022660568356513977	0.14983271062374115	0.3788524866104126	0.10680300742387772	0.23857958614826202	-0.5129077434539795	0.06861517578363419	0.11464230716228485	0.06557291001081467	-0.10785631090402603	0.16048017144203186	-0.35644030570983887	0.648994505405426	0.6457298994064331	0.9739845991134644	-0.0721423551440239	-0.013534302823245525	0.615068793296814	-0.8096581697463989	-0.7843862771987915	0.5832802653312683	0.4643177092075348	0.5455285906791687	-0.18677301704883575	-0.2183610051870346	0.06823505461215973	0.53407222032547	0.45130521059036255	0.1917566955089569	0.4990316331386566	0.8781924247741699	0.6692821979522705	-0.5133742094039917	0.14560222625732422	0.6193633675575256	-1.1053476333618164	-0.5453215837478638	-0.4642851948738098	0.7184231281280518	0.4951362609863281	-0.0006212402950040996	1.232096552848816	0.5304721593856812	0.25586727261543274	0.2696652412414551	-0.5461435914039612	0.16643807291984558	0.6572699546813965	0.6463981866836548	-0.14312583208084106	-0.31308338046073914	0.6895512938499451	0.007138409186154604	-0.8266043663024902	-0.8118519186973572	0.26148703694343567	0.394024133682251	-0.026760119944810867	-1.2374706268310547	-0.5816587805747986	0.445593923330307	1.1264560222625732	-0.31116706132888794	0.27928218245506287	0.6531985998153687	-0.8725959062576294	-0.3255506455898285	0.16317348182201385	-0.25640684366226196	-0.6326346397399902	0.5067359209060669	0.7445641756057739	-0.3387363851070404	-0.3680945038795471	-0.11151013523340225	-1.1214790344238281	0.17047014832496643	-0.321297824382782	0.8867725729942322	0.1777360588312149	0.3505990207195282	-0.8360429406166077	0.06221195310354233	0.6057208180427551	0.37137824296951294	-0.40350034832954407	-0.5671888589859009	-1.483789086341858	0.0882301926612854	-0.020323405042290688	-0.46342310309410095	-0.09847740828990936	-1.1097630262374878	-0.6100413799285889	-0.1809512823820114	1.3665518760681152	0.3446103632450104	0.08208879828453064	0.3283005654811859	0.9310381412506104	-0.13059860467910767	-0.873921811580658	-0.6266317367553711	-0.17930860817432404	0.2167530506849289	1.2844555377960205	0.12676751613616943	0.4245813190937042	-0.3913823068141937	-0.3092857301235199	-0.8248770833015442	-0.28192242980003357	0.04670186713337898	1.6090258359909058	0.21530835330486298	-0.4441490173339844	0.4432711601257324	-0.3076605498790741	-0.7145452499389648	0.8787040710449219	0.6918812394142151	-0.2786220610141754	-0.7206910252571106	-0.9444937705993652	0.7049726247787476	-1.4286726713180542	0.5724164247512817	0.24323803186416626	0.42006370425224304	1.5291661024093628	-0.16964232921600342	1.2346789836883545	-1.6794127225875854	
http://dbpedia.org/resource/Australia	-0.6635048985481262	-0.29655981063842773	-0.09293551743030548	-0.2836188077926636	0.17162635922431946	-0.0988083928823471	-0.38210150599479675	1.3222858905792236	-0.5574517250061035	-0.8251329660415649	-0.3676699697971344	-0.24258282780647278	-0.024560820311307907	-1.011132836341858	-0.1741492748260498	0.6981922388076782	0.34934496879577637	-0.4534302353858948	0.05719838663935661	-0.23594413697719574	0.09723445028066635	0.27612149715423584	0.8133563995361328	-0.8293106555938721	0.500629723072052	1.5183964967727661	-0.5922154188156128	-0.11660420149564743	-1.576078176498413	-0.07679718732833862	0.0911334678530693	0.8768502473831177	0.5025137662887573	-0.06399714946746826	-0.14244727790355682	0.17751865088939667	-0.6583523154258728	0.1879698932170868	0.03998676687479019	0.03670443221926689	0.6416001319885254	-0.5426435470581055	-0.015256796963512897	0.9164419174194336	-0.3241516947746277	0.7958735823631287	0.4349055588245392	1.1630009412765503	-0.007717893458902836	0.33257371187210083	-0.47720450162887573	0.6182849407196045	0.4291095733642578	-0.6671605706214905	-1.4908125400543213	0.8177950382232666	0.31690001487731934	0.580005943775177	0.02863512933254242	-0.6695701479911804	-0.04727208986878395	0.060221459716558456	0.3969267010688782	-0.8245443105697632	-0.3646478056907654	-0.38074737787246704	-1.0128337144851685	-0.3258526921272278	-0.3151703178882599	1.047615647315979	0.7014220356941223	-0.9065876603126526	-1.3434300422668457	0.404436856508255	0.43382540345191956	-0.46891382336616516	0.029684461653232574	-0.09903549402952194	1.3268336057662964	0.8221538662910461	-0.09655941277742386	-0.875977635383606	0.2703663110733032	-0.15373322367668152	0.6875693202018738	0.18445277214050293	0.5691312551498413	-0.6433838605880737	0.6018308997154236	0.7943761944770813	-0.21232110261917114	-0.1755383014678955	-0.11955321580171585	-0.3248661458492279	0.25867778062820435	-0.4203740358352661	-0.6138331294059753	-0.2688766419887543	-0.4253959655761719	1.2960419654846191	0.11986224353313446	0.5000395774841309	0.7897568941116333	-1.650018572807312	-0.0948510393500328	0.7266467809677124	0.610074520111084	-0.47608324885368347	-0.5180203318595886	-0.20677156746387482	0.3886113464832306	1.5294954776763916	0.476407915353775	0.5306738018989563	0.6409686803817749	1.107735276222229	0.5172762870788574	0.3946212828159332	0.5975750088691711	0.08500959724187851	-0.29963457584381104	0.8702355623245239	0.8084548711776733	0.07762374728918076	-0.7619951367378235	0.5138579607009888	-0.09887731820344925	-0.19550521671772003	1.1927982568740845	0.26782160997390747	0.6610254645347595	-0.06578762829303741	0.00961372535675764	0.720139741897583	-0.6441826820373535	0.007618139963597059	-0.37954679131507874	0.8084671497344971	1.3632782697677612	-0.6444037556648254	-0.2078193873167038	0.9057081341743469	-0.2543147802352905	0.1350366771221161	-0.2228185087442398	-0.012651900760829449	0.25772666931152344	-0.7731522917747498	0.33845365047454834	0.10347209125757217	-0.3197220265865326	0.5423109531402588	-0.8577824831008911	0.45378634333610535	-0.8721810579299927	-0.5820762515068054	-0.7381739020347595	0.25046971440315247	-0.653207004070282	0.2753058671951294	-0.6044895648956299	0.056930217891931534	-0.200417622923851	0.7579431533813477	0.33660274744033813	-0.29037392139434814	0.775662362575531	-0.06924206763505936	0.7199460864067078	-0.5964653491973877	-0.9721664190292358	0.2427850067615509	-0.46765196323394775	-0.4446265399456024	-0.10576342791318893	-0.44868752360343933	-0.2737913429737091	0.169542133808136	0.059150535613298416	-0.8170202374458313	0.33735403418540955	0.12311394512653351	-0.018319595605134964	-0.5399414896965027	-0.125029057264328	-0.9895006418228149	0.5614207983016968	2.2406625747680664	0.6199415326118469	0.29264503717422485	0.47416141629219055	1.645311713218689	-0.5452526211738586	0.4526395797729492	0.15424290299415588	0.6080344319343567	1.2450575828552246	0.9680802822113037	0.3065711259841919	-0.19648826122283936	
http://dbpedia.org/resource/Guinea	-0.46783432364463806	-0.08426301926374435	0.025941165164113045	0.7570211291313171	0.8249062299728394	-0.4769951105117798	0.3080015480518341	-0.12660901248455048	-0.9451854228973389	0.43053752183914185	1.1186143159866333	-1.063691258430481	-0.08272039145231247	-1.1652586460113525	-0.05448541417717934	-0.46766024827957153	-0.10469286888837814	0.6888738870620728	0.5050689578056335	0.5063592195510864	0.10119956731796265	-0.11301819980144501	0.6536082029342651	-0.7295479774475098	-0.6937023401260376	0.8789549469947815	0.19000734388828278	0.39112141728401184	-1.1614305973052979	1.4430404901504517	-0.3746677041053772	0.3627111613750458	0.3267909586429596	0.061581794172525406	0.21398583054542542	0.2983268201351166	1.3902709484100342	-0.15198177099227905	0.4437588155269623	0.019388169050216675	0.2084852010011673	-0.180599182844162	0.3959166407585144	0.608984112739563	-0.16687655448913574	-0.23635633289813995	-0.03947346284985542	0.6108811497688293	-0.9153765439987183	-0.023989832028746605	-0.45619139075279236	1.0358463525772095	0.10708349198102951	-0.21329902112483978	-0.4514169692993164	-0.044147789478302	0.13404731452465057	-0.4672468602657318	-0.345750629901886	-0.3461180627346039	0.27475571632385254	0.12589016556739807	-0.7180787324905396	-0.366345077753067	0.1363397240638733	0.12702317535877228	-0.21626180410385132	0.0877886414527893	-0.793872594833374	0.2152964323759079	0.29642099142074585	0.4565716087818146	-0.5473450422286987	0.735256016254425	0.18626557290554047	-0.9855881929397583	-0.21000106632709503	0.47232720255851746	0.26752451062202454	1.6086803674697876	0.767822265625	0.46686363220214844	-0.13621222972869873	-0.04898706078529358	0.7052115201950073	-0.23072417080402374	-0.09468679130077362	0.5192307233810425	0.5079227089881897	0.43269070982933044	0.26531293988227844	-0.26455917954444885	0.042971812188625336	0.6935306191444397	0.9087854027748108	-0.23344755172729492	-0.004667018074542284	0.5105149745941162	0.6500431895256042	0.037574104964733124	0.4776785373687744	-0.390929251909256	-0.1406070590019226	-0.7097276449203491	-0.27113986015319824	0.5440518856048584	-0.03690562769770622	0.1312159299850464	0.1970168799161911	-0.24807344377040863	0.9459226727485657	0.3348110020160675	-0.46261873841285706	-0.20225705206394196	0.26422131061553955	0.49439409375190735	0.521529495716095	-0.5567418932914734	1.1978821754455566	0.49223217368125916	0.5889591574668884	-0.9229703545570374	-0.3513020873069763	0.7003452181816101	-0.22199691832065582	-1.0885021686553955	-0.7956794500350952	-0.22600625455379486	0.7549965977668762	-0.5269760489463806	0.615540623664856	0.14240294694900513	-0.5299841165542603	0.25477299094200134	-0.24999894201755524	0.5793818235397339	-0.3908153772354126	0.3681982159614563	0.5261568427085876	-0.9773122072219849	0.24883364140987396	-0.020431004464626312	-0.6618366837501526	0.4061388373374939	-0.5317030549049377	0.7867638468742371	-0.2802715003490448	1.01522958278656	-0.4857281744480133	0.23097869753837585	0.15578170120716095	-0.9692913889884949	-0.24390113353729248	0.0166668388992548	-0.3022686541080475	0.47545430064201355	-0.2687842845916748	0.5321876406669617	0.25127190351486206	-0.12494655698537827	-0.6601454019546509	-0.14038045704364777	0.00038458689232356846	0.8516896367073059	-0.3690735995769501	0.2524155378341675	0.686345636844635	-0.5427918434143066	-0.17973759770393372	-0.13356155157089233	-0.16874590516090393	0.26153042912483215	0.4339752793312073	0.3232733905315399	-0.9614476561546326	0.163132444024086	-0.4729030430316925	-0.28245967626571655	0.6415576934814453	-0.46377283334732056	1.437613844871521	-0.5987431406974792	-0.44385388493537903	-0.28363868594169617	-0.009960520081222057	0.11469896137714386	1.5361237525939941	0.47708484530448914	0.22465737164020538	-0.5936763286590576	-0.8408048748970032	0.7132771611213684	-1.272923231124878	0.9781906008720398	-0.17638666927814484	-0.20007972419261932	1.8373841047286987	0.04215594381093979	0.7336688041687012	-0.631966769695282	
http://dbpedia.org/resource/Lithuania	-0.09531888365745544	0.24428512156009674	0.5829633474349976	-1.118067979812622	-0.40128132700920105	0.7271698713302612	1.1881517171859741	0.04986622557044029	-0.6302714943885803	0.32666510343551636	1.2196149826049805	-0.11156526207923889	0.34688717126846313	-0.7300958633422852	-0.21148592233657837	-1.3948485851287842	0.5559234023094177	0.31642651557922363	-0.5915214419364929	0.457901269197464	-0.1406484693288803	-0.44512003660202026	0.4887407422065735	-1.0246777534484863	0.9448932409286499	-0.8234396576881409	-0.796039342880249	0.9003827571868896	-0.518521249294281	0.6034025549888611	0.04587242007255554	0.034120649099349976	0.2263803631067276	-0.9673475027084351	0.10209283232688904	0.1996331363916397	0.10164249688386917	0.07666611671447754	0.46423032879829407	0.9053422808647156	-0.01997753232717514	0.24397648870944977	0.2676156163215637	1.3523274660110474	0.21284201741218567	0.45357945561408997	0.9336726665496826	0.4233734905719757	-0.2612024247646332	0.5979332327842712	-0.2184796929359436	0.09776794910430908	-0.066340371966362	-0.6850373148918152	-0.17501366138458252	-0.24841786921024323	0.2731863558292389	-0.2678596079349518	0.3779163956642151	-0.22724273800849915	0.1821230798959732	-0.5956400632858276	0.145958811044693	-0.6807875633239746	-0.004802393727004528	-0.5869516730308533	-0.46387073397636414	0.6007429361343384	0.6009551882743835	0.4979405105113983	-0.14800509810447693	-0.06329714506864548	-1.6274654865264893	-0.02932869829237461	0.3739049732685089	-1.0888488292694092	-0.0038699063006788492	-0.27184078097343445	-0.2308119237422943	0.6698387861251831	-0.16170276701450348	0.17906175553798676	0.016688872128725052	0.5353111028671265	0.28927385807037354	-0.5965767502784729	-1.0998271703720093	-0.6116394400596619	1.6777923107147217	0.6163047552108765	0.004640775732696056	0.2730146050453186	0.044505394995212555	-0.9629813432693481	0.5348494052886963	-0.5077552199363708	-0.26158612966537476	0.29634353518486023	0.045863594859838486	-0.7211883068084717	0.5545886754989624	0.8218539953231812	-0.19701515138149261	0.07973001152276993	-0.3859977424144745	1.493854284286499	-0.6595256924629211	-0.004654800519347191	0.08558441698551178	0.017498835921287537	1.029860019683838	0.053049881011247635	0.31764018535614014	-0.18708553910255432	0.45958787202835083	-0.3521775007247925	-0.5265745520591736	-0.0772281289100647	0.6437461972236633	-0.36731845140457153	0.07620663940906525	-0.9364106059074402	0.4485732913017273	-0.007654136978089809	-0.2845848798751831	0.18796195089817047	-0.014327582903206348	0.4150542914867401	0.5087693929672241	0.07964611798524857	1.0154651403427124	-0.17568480968475342	-0.16845640540122986	0.5552546381950378	-0.16966170072555542	-0.9597697854042053	-0.7822455763816833	0.3545007109642029	0.17010991275310516	-0.3418833315372467	-0.14600957930088043	-0.09506833553314209	-1.4974336624145508	0.8647460341453552	0.34578558802604675	1.254296064376831	1.0142892599105835	0.7084349393844604	-0.6814512610435486	0.004460000433027744	0.06769029051065445	-0.9845530390739441	-0.8256770372390747	-0.15997153520584106	-0.4661236107349396	-0.5720275640487671	-0.2473057359457016	0.1707140952348709	-0.8449418544769287	-0.16244566440582275	0.14622007310390472	-0.12539896368980408	-1.548448920249939	0.2829614579677582	0.11618153005838394	-0.9818294048309326	-0.8414506316184998	0.24302619695663452	-1.0892400741577148	0.153025820851326	0.24711880087852478	-0.6048728227615356	1.2867233753204346	-0.6102125644683838	-0.30031758546829224	0.348575621843338	-0.8434478044509888	0.18381522595882416	0.015503305941820145	0.14603127539157867	0.795068085193634	-0.06662914156913757	-1.014359951019287	0.1726493239402771	-0.11361793428659439	-0.6350942850112915	1.4282326698303223	0.5903562307357788	-0.31673339009284973	-0.30950209498405457	-0.13939279317855835	-0.24022045731544495	-0.028308968991041183	0.5691825151443481	0.4855605959892273	0.2895497977733612	1.5288572311401367	-0.2765195965766907	-0.2151096910238266	-0.36832553148269653	
http://dbpedia.org/resource/Barbados	-0.048679787665605545	0.057119619101285934	0.2024420201778412	-0.06525689363479614	0.18576954305171967	-0.17146244645118713	0.16206271946430206	0.4850617051124573	0.32325059175491333	-0.6641164422035217	0.5090785622596741	-1.4904738664627075	-0.9325063824653625	-0.7153820991516113	-0.6506786346435547	0.36673784255981445	0.7650082111358643	0.5400004386901855	-0.05049769952893257	-0.6183750033378601	-0.19028763473033905	-0.4066879451274872	1.0223846435546875	-0.10528141260147095	0.6749987006187439	-0.31103208661079407	0.10501409322023392	-0.28284311294555664	-1.817943811416626	0.6515683531761169	-0.4365437924861908	0.7151960134506226	1.0032570362091064	0.9911453723907471	0.42482230067253113	-0.5456812977790833	-0.029264044016599655	1.0030550956726074	-0.7967909574508667	-0.0389137901365757	-0.30896446108818054	-0.34908774495124817	0.26819923520088196	0.9918152689933777	-0.08516033738851547	0.6017252802848816	0.03829365223646164	0.16975060105323792	0.12102379649877548	0.19873841106891632	0.09736226499080658	-0.29452672600746155	0.48995426297187805	-1.2098543643951416	-0.5215473771095276	1.0992050170898438	-0.6256433129310608	-0.280767560005188	-0.02903042733669281	-1.1410417556762695	0.4182523190975189	-0.6116867065429688	-0.9398139119148254	0.45513319969177246	-0.6612225770950317	0.37058013677597046	-0.32247865200042725	0.9725451469421387	-0.24261696636676788	-0.046068187803030014	-0.2500821352005005	-1.1204596757888794	0.10513222217559814	0.041825078427791595	0.11172255873680115	0.32368457317352295	-0.40297481417655945	0.8406029939651489	0.2856443226337433	1.4557079076766968	0.8539365530014038	0.7278578877449036	0.4084951877593994	-0.884075939655304	0.35954901576042175	0.3170245885848999	0.15658903121948242	-0.1441108137369156	1.0039621591567993	0.2833441197872162	-0.679360032081604	0.7590197324752808	0.17442885041236877	0.3364291191101074	-0.04909200221300125	0.23278003931045532	-0.4164123833179474	-0.40353989601135254	-0.23884522914886475	0.06852320581674576	-0.15453822910785675	0.7097002863883972	0.008066237904131413	-0.650562047958374	-0.5588341355323792	0.30983954668045044	0.4695700705051422	0.33115968108177185	-0.2642125189304352	0.3915722072124481	0.46186190843582153	0.41689005494117737	-0.0769878625869751	0.9735427498817444	0.5219391584396362	-0.17362020909786224	-0.2289043813943863	0.06426811218261719	-0.324411004781723	0.08400003612041473	0.08367127180099487	0.08821453154087067	-0.07138501852750778	0.40791961550712585	0.27455928921699524	0.06919419765472412	-0.31866592168807983	-0.8468079566955566	0.3658409118652344	-0.24739331007003784	0.933020293712616	-0.8951329588890076	-0.4330020248889923	-0.2223755121231079	-0.25152650475502014	-0.43840712308883667	0.13789325952529907	0.34899818897247314	-0.04442453756928444	-0.4137008786201477	-0.318014919757843	-0.7513892650604248	-0.9442161321640015	0.5982103943824768	-0.25617048144340515	1.1277660131454468	0.6094452142715454	0.11056695133447647	-1.319206714630127	-0.8026900887489319	0.21477752923965454	-0.20893165469169617	-0.25918641686439514	-0.6794569492340088	-0.94582200050354	-0.33715707063674927	-0.6672680974006653	-0.0006885461043566465	-0.12087361514568329	0.2975631654262543	-0.49758073687553406	-0.13649466633796692	-0.09540855139493942	-0.17842993140220642	1.015476107597351	-0.5650078654289246	-0.27354952692985535	-0.22203673422336578	-0.42320552468299866	-0.07517712563276291	-0.42749157547950745	0.2270973175764084	1.6290704011917114	0.775004506111145	-0.5238549709320068	0.2900209426879883	-0.10498350858688354	-0.19945771992206573	0.05283243581652641	0.02780027501285076	0.1907557100057602	-0.18352551758289337	-0.4622426927089691	-0.516532301902771	-0.6638320684432983	-0.20253975689411163	0.9287059903144836	0.7330201268196106	0.39326488971710205	-1.011949062347412	-0.49449339509010315	0.30921852588653564	-0.6662782430648804	0.45964673161506653	1.2345876693725586	-0.5298696160316467	1.0769788026809692	0.00633044121786952	0.7425934672355652	0.14619046449661255	
http://dbpedia.org/resource/Aruba	-0.5783369541168213	0.271930456161499	0.6273641586303711	0.061838068068027496	0.14363473653793335	-0.534785270690918	-0.5959831476211548	0.47631311416625977	-0.09638585150241852	0.06953343003988266	0.3181237280368805	-0.9411784410476685	0.21976400911808014	-0.6896235346794128	-0.15054401755332947	0.34486648440361023	0.23517918586730957	0.3517424166202545	-1.0418673753738403	-0.8543275594711304	-0.6595755815505981	-0.4520845115184784	0.03390560671687126	0.3269072473049164	0.912527322769165	-0.5437597632408142	0.20162421464920044	-0.3561112880706787	-0.2742301821708679	0.7979024648666382	-0.1261790245771408	0.6058368682861328	0.3671590983867645	0.2962791323661804	0.21567870676517487	0.10323964804410934	0.40196388959884644	0.30198195576667786	0.22446584701538086	0.6099643707275391	-0.02032807655632496	0.37898674607276917	0.508643627166748	0.47777700424194336	-0.38178765773773193	0.3698109984397888	0.16901664435863495	0.520876944065094	-0.0523141473531723	0.028284166008234024	-0.12652404606342316	0.9315668940544128	-0.20452044904232025	0.5027899742126465	-0.6201109290122986	0.021317051723599434	0.006401864346116781	0.19059725105762482	-0.44787660241127014	-0.8725059032440186	0.48155975341796875	0.21429067850112915	-0.27388307452201843	0.5077604055404663	-0.3800513744354248	-0.7422196269035339	-0.5973307490348816	0.004438372328877449	-0.131496861577034	0.38103705644607544	0.45773714780807495	-0.4564765393733978	-0.3050677478313446	-0.06186740845441818	-0.08442525565624237	-0.33086296916007996	-0.08898160606622696	1.0444658994674683	0.35460808873176575	1.9140127897262573	0.7814038395881653	0.9110146164894104	-0.260872483253479	-0.5351800918579102	0.5639709234237671	0.7321561574935913	-0.9985727071762085	0.6950764656066895	0.9737554788589478	0.27003243565559387	0.13335402309894562	-0.6003571152687073	0.044008560478687286	0.46140947937965393	0.04212105646729469	-0.1396854817867279	0.2524864971637726	-0.4956660568714142	-0.002482697833329439	-0.2862289547920227	0.1890845149755478	0.25677841901779175	-0.33568522334098816	-0.36984750628471375	-0.7973438501358032	0.814581573009491	-0.2101999819278717	0.6261359453201294	0.19729168713092804	-0.09131620079278946	0.5203908085823059	0.8342603445053101	0.021335462108254433	0.07238847017288208	0.8788444995880127	0.47473129630088806	1.0053129196166992	-1.2476617097854614	0.739169716835022	0.928574800491333	0.0836205780506134	-0.055904097855091095	-0.313759982585907	-0.1381019949913025	0.07551074028015137	-0.0685122087597847	0.6588809490203857	-0.6135678887367249	0.6007682681083679	0.7538118958473206	0.872940182685852	-1.2168735265731812	-0.7534188032150269	0.10295211523771286	-0.1151982843875885	0.2052052915096283	0.22778327763080597	1.178179383277893	0.8422846794128418	-0.35400617122650146	0.28465157747268677	0.28476426005363464	-0.8917727470397949	0.7751293778419495	-0.2967287302017212	1.2930662631988525	0.16118894517421722	0.4513584077358246	-0.5861303210258484	-0.339936226606369	0.8420177698135376	-0.11507955193519592	-0.12062417715787888	-0.5792257189750671	-0.591012179851532	0.29129722714424133	-0.30988672375679016	-0.06672072410583496	-0.7517706751823425	1.105238914489746	-0.02412954345345497	-0.3928787410259247	0.41826531291007996	-0.13397394120693207	1.0054941177368164	-1.095180630683899	0.05649041384458542	-0.44641679525375366	-0.4922463297843933	-0.10897867381572723	0.531600296497345	0.38991621136665344	1.210649013519287	0.699445366859436	0.27545052766799927	-0.08987796306610107	-0.7708129286766052	-0.5306700468063354	-0.991044282913208	-0.5244050621986389	-0.20100590586662292	-0.6074801683425903	0.44842272996902466	0.047689881175756454	-0.5759660005569458	-0.7410132884979248	0.8504720330238342	0.6963263154029846	0.019987402483820915	-0.9846460819244385	-0.7828342318534851	-0.7517244219779968	-0.038069095462560654	0.004593429621309042	0.2504894733428955	-1.0135917663574219	0.9569520950317383	-0.14005045592784882	-0.5347405672073364	-1.0500249862670898	
http://dbpedia.org/resource/Costa_Rica	-0.13141606748104095	0.07999300956726074	0.042499277740716934	0.6372197866439819	-0.01286186184734106	0.5985462665557861	-0.5143446922302246	0.4875872731208801	-0.9866217374801636	-0.3254264295101166	0.7048636674880981	-0.4668567478656769	0.24590325355529785	-1.331550121307373	-0.06131204962730408	0.7387725710868835	0.8323063850402832	0.8769097924232483	-0.40045166015625	-1.035596489906311	-0.18944625556468964	0.0516875684261322	1.0616973638534546	-0.11329147219657898	0.48929914832115173	-0.29025670886039734	-0.055014025419950485	0.1345389038324356	-1.91102933883667	0.30521419644355774	-0.32158517837524414	-0.010961896739900112	1.1547850370407104	-0.258520245552063	0.1008954718708992	-0.9170296788215637	0.33930492401123047	-0.09509304165840149	-1.4250085353851318	0.510168731212616	-0.35847029089927673	-0.1886826902627945	0.6439023017883301	-0.14876918494701385	0.24084316194057465	-0.17672611773014069	0.08541630953550339	0.30899667739868164	-1.0101385116577148	1.0388211011886597	-0.7379878759384155	0.5482823848724365	-0.24071107804775238	-0.7229650616645813	-0.16912557184696198	-0.4149479866027832	-0.7013615965843201	0.5111971497535706	0.7995730042457581	-0.13902413845062256	0.32362183928489685	0.02095526084303856	-0.06330931931734085	0.28976505994796753	0.20501984655857086	0.4840928018093109	-0.16265390813350677	-0.23840220272541046	0.2374846339225769	0.47013503313064575	0.33999109268188477	0.45747092366218567	0.06577465683221817	0.2730201184749603	0.36059796810150146	-0.691494345664978	0.4470359683036804	0.03566478565335274	0.1599249243736267	1.0860915184020996	0.7346005439758301	0.7553637027740479	0.5415208339691162	-0.30061644315719604	0.24295978248119354	0.3820657730102539	0.5286348462104797	0.7830477356910706	0.4478197991847992	0.714318573474884	-0.845344066619873	0.43453851342201233	-0.032004065811634064	0.22453834116458893	0.07148227840662003	-0.21476122736930847	0.3875671327114105	-0.547256350517273	0.2144090235233307	-0.19530916213989258	-0.634230375289917	0.8171381950378418	-0.17861217260360718	-0.41642996668815613	-0.7584852576255798	0.6983866095542908	-0.6935729384422302	-0.12870469689369202	0.2820243239402771	-0.09306561201810837	-0.4025912880897522	-0.31723007559776306	0.8615092635154724	-0.5415009260177612	0.22068963944911957	0.4094814956188202	0.1183822751045227	-0.3973321318626404	0.45232680439949036	-0.1307779997587204	0.8508830070495605	0.18816335499286652	-0.30711629986763	0.21846574544906616	-0.13491058349609375	-0.0560167022049427	0.02396354265511036	-0.6412807106971741	0.7441797256469727	0.11865587532520294	1.629080891609192	-0.11471410095691681	0.14002388715744019	0.22748830914497375	0.5126092433929443	-0.13099373877048492	-1.0317878723144531	0.3638814091682434	0.3555406332015991	-0.2486543357372284	0.3565245568752289	-0.9632760882377625	-0.7654776573181152	0.5474128127098083	-0.1250539869070053	0.42363420128822327	1.4157027006149292	1.2831594944000244	-0.10807514935731888	-1.0155484676361084	0.7331439256668091	-0.04792023077607155	-0.724336564540863	-0.26178598403930664	-0.5270144939422607	-0.17827408015727997	-0.2862088978290558	0.040975213050842285	0.23190514743328094	0.5128856897354126	-0.13897380232810974	-0.20276303589344025	-0.26251715421676636	-0.10880827903747559	0.6627399921417236	-1.1264034509658813	-0.645616352558136	-0.710637629032135	0.06090114265680313	-1.5330629348754883	-0.4606921076774597	-0.4766385853290558	1.1875165700912476	0.40328463912010193	0.4854421615600586	-0.2263299524784088	-0.5647265911102295	-0.28873953223228455	-0.40201157331466675	-0.4843975603580475	0.6797293424606323	-0.38955968618392944	-0.8481462001800537	-0.9863507747650146	-0.7160554528236389	-0.8696774244308472	0.7530304789543152	1.3075627088546753	0.6193708777427673	-0.9722635746002197	-0.4271670877933502	-0.2556878924369812	-1.1095558404922485	-0.6367285847663879	0.35258591175079346	-0.07744130492210388	0.6458105444908142	0.6438900828361511	0.032599832862615585	0.07370764762163162	
http://dbpedia.org/resource/Burkina_Faso	-0.4785626530647278	0.7865083813667297	0.42962583899497986	0.4416589140892029	0.032048363238573074	-0.6184186935424805	0.20941480994224548	0.15491916239261627	-0.6204867959022522	-0.15211068093776703	0.9780674576759338	-0.9411183595657349	-0.16957908868789673	-0.5759737491607666	-0.013572988100349903	-0.24677330255508423	0.242849200963974	1.0862308740615845	0.8781294226646423	-0.6345756649971008	-0.6670224070549011	-0.029410341754555702	0.4624127447605133	-0.7844619750976562	-0.27804288268089294	-0.04077007621526718	-0.30614858865737915	0.5309013724327087	-1.3862595558166504	0.9307834506034851	0.23388144373893738	-0.2687847912311554	0.12259894609451294	0.42100802063941956	0.1494358628988266	0.38672763109207153	1.044437050819397	-0.45918381214141846	-0.04045935720205307	-0.5686652064323425	0.6373568773269653	0.8666315674781799	-0.47732725739479065	1.2088992595672607	-0.566677987575531	-0.043995894491672516	-0.006529207341372967	1.216876745223999	-0.048396602272987366	-0.09304577857255936	-0.2712387144565582	0.8924350738525391	0.26612338423728943	-0.30611860752105713	-0.9681276679039001	0.2534268796443939	0.4606179893016815	-0.7234379053115845	-0.44388872385025024	0.10826016217470169	-0.3602719306945801	-0.37388721108436584	-0.7164939641952515	-0.04404116049408913	0.6096872687339783	0.5311378240585327	0.20592954754829407	0.006966401357203722	-0.34626254439353943	0.2356538325548172	-0.09812919795513153	-0.414220929145813	-0.32651814818382263	0.27693310379981995	0.6693532466888428	0.38927018642425537	-0.15758730471134186	0.7201040983200073	-0.01196835096925497	1.1188849210739136	0.2428746521472931	-0.18003956973552704	-0.09470996260643005	-0.6057570576667786	0.8904067277908325	-1.1544355154037476	0.31740161776542664	0.06316110491752625	-0.04618503898382187	-0.03308362886309624	0.0032925494015216827	-0.2705783545970917	0.7070744037628174	-0.24228864908218384	0.9162298440933228	-0.12001260370016098	0.3887551724910736	0.6858788728713989	0.3306110203266144	0.22119048237800598	0.8182709217071533	-0.3453996777534485	-0.19414041936397552	-1.0439741611480713	0.4787733554840088	0.17066334187984467	0.4990147650241852	-0.05522555112838745	0.40461477637290955	0.8431790471076965	0.1803392916917801	0.6275138258934021	0.2507925033569336	-0.24101875722408295	-0.09937841445207596	0.4053957462310791	0.3830343782901764	0.375413179397583	0.4549306333065033	0.21128956973552704	-0.10888342559337616	-0.5685770511627197	0.46017444133758545	0.3572578430175781	0.041870083659887314	-0.8211095929145813	-0.5364664196968079	0.6324735283851624	1.5346827507019043	-0.6698901057243347	0.38365232944488525	0.25809311866760254	-0.5775656700134277	0.47105854749679565	-0.7725002765655518	-0.1483985334634781	-0.7348926067352295	0.6578970551490784	1.4976391792297363	-0.3261655867099762	-0.5625907182693481	-0.5013468861579895	-0.8928744792938232	0.24528057873249054	0.12515008449554443	0.6127017736434937	0.37966999411582947	1.2392551898956299	-0.6451025009155273	-0.786486029624939	-0.08048825711011887	-0.057725049555301666	-0.46204453706741333	-0.3128649890422821	-0.47909852862358093	-0.27985161542892456	0.13996049761772156	-0.04459559917449951	-1.35390305519104	0.015625420957803726	-0.6608519554138184	-0.14610686898231506	0.4391460120677948	-1.4456640481948853	0.7857553362846375	0.7385855317115784	0.5480570197105408	-0.25651031732559204	-0.16399188339710236	-0.9275489449501038	0.3202900290489197	-0.40559011697769165	0.5163870453834534	0.4333052933216095	-0.22630038857460022	-0.1519329994916916	-0.6449085474014282	-0.5732986330986023	0.01270670909434557	-0.7888049483299255	0.5873929858207703	-0.5385051965713501	-0.8859254717826843	0.0390210784971714	-0.13398420810699463	-0.43554747104644775	1.2278085947036743	0.5976685285568237	0.31392085552215576	-0.23599790036678314	-0.952606201171875	0.517368733882904	-1.737720251083374	0.8959590792655945	-0.2968575954437256	0.10657425224781036	1.2734217643737793	0.061340317130088806	1.018025279045105	-0.9192504286766052	
http://dbpedia.org/resource/Chinese_Taipei	-0.9985862374305725	0.10578765720129013	-0.15746524930000305	0.4129199683666229	-0.2669690251350403	0.7422866821289062	0.5616898536682129	-0.05071350559592247	0.031096579506993294	-0.6662608981132507	1.1013520956039429	-1.8469922542572021	0.14775246381759644	-0.7671008110046387	0.26497432589530945	-0.16680769622325897	-0.40510204434394836	0.34670180082321167	0.31686073541641235	-0.28405746817588806	-0.7146615386009216	-0.6504421234130859	0.5623367428779602	0.37755757570266724	0.18387602269649506	-0.5499608516693115	-0.6131083369255066	-0.3076851963996887	-0.7320969104766846	-0.1171979010105133	0.2431746870279312	1.0319594144821167	0.7162289619445801	0.4063141942024231	0.18491403758525848	-0.19030612707138062	-0.42573124170303345	-0.29997360706329346	-0.09147606045007706	0.8220952153205872	-0.04655754938721657	0.19734172523021698	0.30884963274002075	1.1735213994979858	0.6479042172431946	-0.056982383131980896	0.1378965973854065	0.830170214176178	-0.307651549577713	-0.5931019186973572	-0.300370991230011	0.557537853717804	-0.22660700976848602	-1.1196597814559937	-1.1838054656982422	0.10525491833686829	0.3878142237663269	-0.22442032396793365	0.8184064626693726	-1.0787113904953003	0.31826475262641907	-0.12393529713153839	-0.7321618795394897	-0.6639221906661987	-0.010001092217862606	-0.09017422795295715	-0.17916247248649597	-0.03663293644785881	-0.3036409020423889	0.09491312503814697	0.8801422715187073	-0.6407580971717834	-0.6415612697601318	-0.6744294166564941	0.4705565273761749	-0.3614600598812103	-0.11138240247964859	0.4944392740726471	0.24058398604393005	0.812057375907898	0.8552024960517883	0.8410197496414185	-0.23431479930877686	0.16425929963588715	0.627106785774231	-0.13936936855316162	-0.05165150761604309	0.3846175968647003	0.8587402701377869	1.159536361694336	-0.8648254871368408	-1.1147289276123047	0.2523176074028015	0.45657244324684143	-0.2444099485874176	-0.11925036460161209	-0.1715080291032791	-1.3444221019744873	0.11784959584474564	0.3851657211780548	0.4245442748069763	0.5443745851516724	-0.20502270758152008	0.18234771490097046	0.030754785984754562	0.41639244556427	-0.4479915499687195	0.5666784644126892	-0.26183274388313293	0.255169153213501	0.6332374215126038	0.18961584568023682	0.15141816437244415	0.22147591412067413	0.43848779797554016	0.28699639439582825	-0.03981752693653107	0.11148852854967117	-0.194150909781456	-0.11105795949697495	-0.10716547071933746	-0.5022815465927124	-0.38883504271507263	0.08910675346851349	-0.3892630934715271	-0.10274304449558258	0.5706619620323181	-0.7254360318183899	0.01889616809785366	0.008545445278286934	0.05554977431893349	0.41653090715408325	0.23673516511917114	0.1805446296930313	0.2909546196460724	0.27581265568733215	-0.14355331659317017	-0.15788263082504272	1.5649319887161255	-0.6001734733581543	-0.15099969506263733	-0.8178271055221558	-0.48381856083869934	-0.05694260448217392	-0.22049415111541748	0.2293786108493805	-0.5170817375183105	0.2383834421634674	-0.48061197996139526	-0.6465961933135986	0.343980610370636	-0.24748767912387848	0.728750467300415	-0.8439223170280457	-0.8285030126571655	0.05153437703847885	0.20348745584487915	-1.0555484294891357	-0.0967249870300293	0.39138171076774597	0.039756257086992264	0.15637440979480743	0.4093829095363617	0.6433068513870239	0.05435000732541084	-0.8907495737075806	0.08170665055513382	-0.08860698342323303	0.5208242535591125	-1.2520698308944702	0.36083269119262695	0.5488172769546509	1.0665080547332764	-0.20545101165771484	0.8464475274085999	-0.24371065199375153	-0.7525216341018677	-0.8099714517593384	-0.45439624786376953	-0.6752611398696899	0.3888414800167084	-0.1653493046760559	-1.005763292312622	0.24748842418193817	0.007621000520884991	-1.3273953199386597	0.49737516045570374	0.8350004553794861	0.055201947689056396	-0.874823272228241	-0.05999778211116791	-0.4885706305503845	-0.3873291015625	-0.7164643406867981	-0.12130939960479736	-0.7702603340148926	0.49526315927505493	0.4376983046531677	-0.24184374511241913	-0.6007721424102783	
http://dbpedia.org/resource/Congo	-0.0961211547255516	0.06433216482400894	0.02128562331199646	0.15288200974464417	0.14789040386676788	0.1828526258468628	0.1606808304786682	0.09966415166854858	-0.08282200247049332	-0.10985061526298523	0.023134637624025345	-0.0728578120470047	0.07256346195936203	-0.500546932220459	0.18166673183441162	0.28126803040504456	0.14598514139652252	0.28429028391838074	-0.43528759479522705	0.5360506176948547	-0.18110202252864838	-0.42378050088882446	0.4746719002723694	-0.4249265789985657	-0.06694463640451431	0.0030588423833251	0.3530980944633484	-0.13476939499378204	-0.7300974726676941	0.09783916175365448	0.061841994524002075	0.2484588474035263	0.05771773308515549	-0.08121741563081741	-0.5377619862556458	0.219639390707016	0.6737321019172668	0.281891405582428	0.12764838337898254	0.2859739363193512	-0.5985400676727295	0.010095745325088501	-0.03153913468122482	0.8124648332595825	-0.39191970229148865	0.4874233305454254	0.1960831880569458	0.6014063954353333	-0.03778022527694702	0.17969651520252228	-0.15950587391853333	0.9700535535812378	0.1351739913225174	-0.582644522190094	-0.47644731402397156	0.30235230922698975	0.65044105052948	-0.20465151965618134	0.18614880740642548	-0.6751485466957092	0.4243198335170746	-0.5149999856948853	-0.8986206650733948	0.537924587726593	-0.329010546207428	0.19774115085601807	-0.16475139558315277	-0.46221300959587097	-0.19295421242713928	0.2233048528432846	-0.013509055599570274	0.1244530975818634	-0.08936373889446259	0.62055903673172	0.03878467530012131	-0.034159377217292786	0.03994470834732056	0.20314162969589233	-0.6644222140312195	0.4281022548675537	0.26358211040496826	1.517154574394226	0.0832529067993164	-0.13175785541534424	-0.3953089714050293	0.5214771628379822	-0.10878162831068039	-0.699545681476593	0.13446111977100372	0.6375158429145813	-0.21843266487121582	-0.3567711114883423	-0.3184679448604584	0.5009695887565613	0.14616337418556213	-0.0790606439113617	0.1473085880279541	-0.24258555471897125	-0.029625454917550087	-0.1391068547964096	-0.19891202449798584	0.17182059586048126	0.03228163346648216	-0.2487058937549591	-0.5742541551589966	0.3568117618560791	-0.07531075179576874	0.16385939717292786	-0.2527063190937042	-0.2016640454530716	0.33925846219062805	0.15735921263694763	0.5425602793693542	0.3155238926410675	0.02538994513452053	0.9879607558250427	0.2888270914554596	0.4220786392688751	0.5172073841094971	0.2621377408504486	0.7878260612487793	-0.6525247097015381	0.0995512306690216	0.050590191036462784	-0.04639195650815964	0.5729292631149292	0.026270480826497078	-0.06409410387277603	0.4204743206501007	-0.10009604692459106	-0.28799721598625183	0.7072440981864929	-0.5911199450492859	0.9044729471206665	-0.2843458652496338	-0.35969430208206177	-0.3388284742832184	0.7514566779136658	0.7414811849594116	-0.1025843620300293	-0.0647926852107048	-0.2112215906381607	-0.05485258623957634	-0.21501001715660095	-0.26022395491600037	0.05564422905445099	-0.08751087635755539	0.10944661498069763	-0.2765430212020874	0.3301349878311157	-0.09361358731985092	-0.29715076088905334	0.2823980450630188	0.360428124666214	-0.6640475988388062	0.46915873885154724	-0.46218350529670715	-0.14934757351875305	-0.13231447339057922	-0.09382177889347076	0.1188025176525116	-0.4306039810180664	0.15701907873153687	0.3970855176448822	0.07129719853401184	-0.27236703038215637	0.26784399151802063	0.1254243552684784	-0.15542887151241302	-0.5266531705856323	-0.2774119973182678	0.26162639260292053	0.6907559037208557	0.4419556260108948	0.4114917814731598	0.35265737771987915	-0.4580099880695343	0.12197315692901611	0.0362105555832386	-0.28080928325653076	-0.3325733244419098	0.09570770710706711	-0.09200002998113632	0.4090704023838043	-0.2977483570575714	-0.3630833029747009	0.7127343416213989	0.04191560670733452	0.36379510164260864	-0.23904965817928314	0.2277710735797882	0.15292230248451233	-0.040545154362916946	-0.2222754955291748	0.17551498115062714	-0.6191990971565247	0.7089537978172302	0.47659361362457275	-0.30326902866363525	-0.7225493788719177	
http://dbpedia.org/resource/Portugal	-0.5499863624572754	0.18035124242305756	-0.6127429008483887	0.3538093864917755	0.08855690062046051	0.8074422478675842	0.05352484807372093	0.1960931420326233	-0.38362929224967957	0.2943493723869324	0.4182383418083191	-1.3651317358016968	0.36548906564712524	0.2962512969970703	-0.5087834000587463	-0.5704621076583862	0.4577396810054779	0.18718692660331726	0.2516215741634369	-0.5526805520057678	-0.9881834387779236	1.0487035512924194	0.9031449556350708	0.0576431043446064	1.0634987354278564	0.12982551753520966	-0.7432549595832825	0.20084111392498016	-2.008679151535034	0.4774702489376068	0.0016341572627425194	0.1046648696064949	1.5716896057128906	-0.7110373377799988	0.6182892918586731	0.30242323875427246	0.9639760255813599	0.41620445251464844	-0.37365487217903137	0.4214591383934021	-0.3380664885044098	0.11205009371042252	0.4604353904724121	1.8353784084320068	0.8351597785949707	1.2861964702606201	0.4364912807941437	0.5007088780403137	-1.0352349281311035	-0.19193336367607117	-0.17692284286022186	0.8512086272239685	0.236116424202919	-1.0434068441390991	-0.5309932231903076	0.19544069468975067	-0.6807290315628052	0.11436217278242111	-0.40469223260879517	-0.6101112961769104	-0.7639137506484985	-0.6497703194618225	-0.03268176317214966	-0.19751742482185364	0.20318204164505005	-0.1909506469964981	0.1155586764216423	-0.004767888225615025	-0.3121642768383026	0.5763914585113525	0.5869224667549133	-0.0897958055138588	-0.3449706435203552	0.7001552581787109	0.6342951655387878	-0.9541234374046326	-0.6979146599769592	0.9323218464851379	0.10292147845029831	0.7886368036270142	0.5866624712944031	-0.26815739274024963	0.9169912338256836	-0.19300687313079834	0.3758857548236847	-0.2510201334953308	-0.8071491122245789	-0.7960602045059204	-0.4884193241596222	0.846510648727417	-1.0805439949035645	-0.011080208234488964	-0.47265946865081787	-0.012505720369517803	0.10440018773078918	0.03118038922548294	0.6134681105613708	-0.6551052927970886	0.4786093235015869	0.36247918009757996	-0.17381516098976135	0.9741588234901428	0.09971042722463608	-0.6110622882843018	-0.23967529833316803	0.8258436918258667	-0.178592249751091	0.4626912772655487	-0.7532976269721985	0.6074456572532654	-0.2586529850959778	0.5358918309211731	0.31516221165657043	0.12083595991134644	1.0048513412475586	0.08311916887760162	-0.5121784806251526	1.0967497825622559	-0.34789368510246277	0.23614025115966797	-0.8561069369316101	0.08876919001340866	0.20158511400222778	0.2257671058177948	0.5772297382354736	0.1501084864139557	-0.8488883972167969	0.5406915545463562	1.1228482723236084	-0.004442795179784298	0.7529399991035461	-0.13605935871601105	-0.7539743781089783	0.38090571761131287	-0.117364801466465	-0.34261253476142883	0.11171993613243103	0.3205638825893402	1.3219565153121948	0.4218587875366211	-0.24209605157375336	-0.31785139441490173	-0.5311359763145447	0.46090272068977356	0.415405809879303	0.5953360795974731	0.38152122497558594	0.9803532361984253	0.28615036606788635	0.5305365324020386	-0.09120362251996994	-0.5024407505989075	-0.363291472196579	0.31294766068458557	-1.082847237586975	-0.2711888551712036	-0.5929050445556641	-0.13908891379833221	-0.049211688339710236	1.2300001382827759	-1.0317268371582031	0.38377562165260315	-0.5814545750617981	0.45552146434783936	0.09711300581693649	-0.5988110303878784	-0.9056253433227539	0.6021038293838501	-0.4027908444404602	-0.14184240996837616	-0.1399514228105545	0.7383403182029724	1.2183245420455933	0.1883344054222107	0.27494898438453674	-0.2665461599826813	-0.16162271797657013	-0.3233741223812103	-0.6622464060783386	-0.2827259600162506	0.7151054739952087	-0.9900068044662476	-0.9704029560089111	0.4165835976600647	-0.20444835722446442	-0.4716514050960541	0.7055133581161499	1.1907974481582642	-0.25221484899520874	-0.17911678552627563	-0.8537521958351135	0.4635849595069885	-0.43533986806869507	0.22310848534107208	0.32768070697784424	-0.4128188192844391	1.0813326835632324	-0.04029392823576927	-0.5159227252006531	-0.165247842669487	
http://dbpedia.org/resource/Dominican_Republic	-0.05243141949176788	0.6054692268371582	-0.24798370897769928	-0.2523045241832733	-0.5343554615974426	0.47991347312927246	-0.8842589259147644	0.4895786941051483	-0.1349874883890152	-0.028168095275759697	1.4950261116027832	-0.511356770992279	-0.30638909339904785	-1.09192955493927	-0.8232043981552124	0.4346214830875397	0.5510754585266113	-0.5827839374542236	0.02424432523548603	-1.007110595703125	-0.9826611280441284	-0.018570775166153908	1.4741318225860596	-0.8084284663200378	0.5268215537071228	-0.17172667384147644	0.22426435351371765	1.4892905950546265	-1.130948781967163	0.6068328619003296	-0.6168294548988342	0.14301295578479767	0.19770006835460663	0.42299166321754456	0.2757521867752075	-0.16490890085697174	0.2500769793987274	0.44832202792167664	-1.0998440980911255	0.24529415369033813	-0.6772220730781555	0.25234198570251465	0.027419231832027435	0.9139198660850525	-0.39219388365745544	0.497077614068985	0.5340353846549988	1.0396746397018433	-0.46247008442878723	-0.1301298886537552	-0.36817634105682373	-0.26200488209724426	-0.058806274086236954	-0.9966892600059509	0.3781985342502594	0.6988409161567688	-0.34427645802497864	-0.13068147003650665	0.024573784321546555	0.0415780171751976	0.1296476274728775	0.43622440099716187	-0.17309878766536713	0.5805412530899048	-0.44746145606040955	0.11696220189332962	-0.39249101281166077	-0.20275744795799255	0.09623640775680542	0.5556095242500305	0.3176291882991791	0.1193905770778656	0.14290185272693634	-0.4658607542514801	0.5069779753684998	-0.6640685200691223	-0.17945730686187744	0.45232197642326355	-0.3318532407283783	1.2167774438858032	0.7882523536682129	0.48608237504959106	-0.45018383860588074	0.27085983753204346	0.14381033182144165	0.2534516155719757	-0.5085446238517761	0.41992536187171936	0.49044954776763916	0.6113480925559998	-0.6934515237808228	0.10045426338911057	0.6419468522071838	-0.15139085054397583	0.5434703230857849	-0.9373652338981628	-0.327936589717865	-1.0888882875442505	-0.23406878113746643	-0.1156763955950737	-0.25480180978775024	0.2894956171512604	0.09431514889001846	-0.8915738463401794	-0.3423120975494385	0.5178762078285217	0.11758750677108765	0.6616747975349426	-0.253369003534317	0.10359623283147812	0.44817864894866943	0.35669976472854614	0.688305139541626	-0.41061243414878845	1.2776292562484741	-0.058983832597732544	0.2785157263278961	-0.5953578352928162	0.23576225340366364	-0.5481085181236267	0.2139601707458496	-0.18193593621253967	0.26908108592033386	-0.39818239212036133	0.25193968415260315	-0.6591171026229858	-0.26124468445777893	-0.03982659429311752	0.8736268877983093	-0.2084215134382248	0.004590519238263369	-0.27624475955963135	-0.9149085879325867	-0.7370679974555969	-0.929824709892273	-0.4267938733100891	0.02829435095191002	0.5765287280082703	-0.21913614869117737	-0.3008088171482086	-1.0448817014694214	-0.7740823030471802	-0.8928613066673279	-0.052857182919979095	0.041344285011291504	0.8322580456733704	0.8207297921180725	-0.14881938695907593	-0.7083674669265747	-0.6626079678535461	0.5267190337181091	-0.7544661164283752	0.0030718797352164984	-0.6604389548301697	-0.6062635183334351	0.9666378498077393	-0.5917511582374573	-0.9863548874855042	-0.2203955501317978	0.5557644367218018	0.07276412099599838	-0.07671327888965607	-1.0602612495422363	0.7486593723297119	0.6714957356452942	-1.0287270545959473	0.3817764222621918	0.19651862978935242	-1.269921898841858	-0.4664664566516876	0.4219111204147339	0.3491358458995819	1.5087982416152954	0.8485180735588074	-0.9162197113037109	-0.5478149652481079	-0.6543519496917725	-0.197141632437706	-0.10904724150896072	0.02484837733209133	0.9344525933265686	-1.1315425634384155	-0.32363736629486084	-0.585651159286499	-1.122843861579895	-0.9618721604347229	0.3153318464756012	0.873908281326294	0.2945420444011688	0.06471231579780579	-0.9127840399742126	-0.04100966826081276	-0.8301230072975159	-0.23478367924690247	0.3978283405303955	-0.22638550400733948	1.0992180109024048	0.5354775190353394	0.33148103952407837	-0.6150892972946167	
http://dbpedia.org/resource/Bulgaria	-0.16028322279453278	1.4089648723602295	0.43966731429100037	-0.6943519711494446	-0.09484986960887909	1.1235533952713013	0.24108293652534485	-0.26137790083885193	-0.5890361070632935	0.34671711921691895	0.6469108462333679	-0.6763045191764832	0.2945428490638733	-0.26018771529197693	-0.6475550532341003	0.4675600230693817	-0.171853706240654	-0.16916877031326294	-0.338412344455719	-0.4216001033782959	-0.135758638381958	-0.7160569429397583	0.8642112612724304	-0.19256961345672607	0.10738631337881088	0.22594785690307617	-0.32931244373321533	0.29522958397865295	-1.6284030675888062	0.6299833059310913	-0.2809417247772217	0.6909711360931396	0.09891462326049805	-1.1154857873916626	0.7469289898872375	0.12522880733013153	0.5595630407333374	0.3729935884475708	0.20678968727588654	0.7698527574539185	-0.20556479692459106	0.26375943422317505	-0.6304975748062134	0.8248479962348938	0.2183239907026291	0.4392052888870239	0.09060636162757874	1.5384626388549805	-0.6198379397392273	-0.1872839778661728	-0.6615175008773804	0.5500634908676147	-0.45914360880851746	-0.6029609441757202	-0.6754680871963501	-0.32640013098716736	0.24921126663684845	-0.5604121685028076	-0.26059871912002563	-0.9161255359649658	-0.10359583050012589	-0.12051817774772644	0.8238613605499268	-0.07981420308351517	0.10024367272853851	-0.3173643946647644	-0.8499342799186707	0.22755412757396698	-0.7781133055686951	0.3914647102355957	1.0152711868286133	-0.05231991037726402	-1.1191350221633911	-0.575468122959137	0.021998759359121323	0.5511288046836853	0.2130475640296936	0.7255714535713196	-0.27239277958869934	0.8557126522064209	0.20658253133296967	0.2761170566082001	-0.3804592788219452	-0.9281102418899536	0.30739185214042664	0.4970115125179291	-0.8109853863716125	0.5000590085983276	-0.011878009885549545	1.2764204740524292	-0.5346738696098328	-1.0033961534500122	-0.5439349412918091	0.2563324570655823	0.5394430160522461	-0.5833852887153625	0.5468834638595581	-0.7679633498191833	-0.08853648602962494	0.8607470393180847	0.9266298413276672	0.23385579884052277	0.38625988364219666	-0.004669840447604656	-0.198389932513237	0.6629468202590942	-0.24280379712581635	0.04620930179953575	-0.6956937909126282	0.11043450236320496	0.025808334350585938	0.4888383746147156	0.10758993029594421	-0.7073422074317932	0.5154343843460083	0.6641401052474976	0.486615389585495	0.4268415868282318	0.3075522780418396	-0.48538628220558167	0.34286847710609436	0.15042389929294586	1.3352967500686646	-0.18294280767440796	0.013478963635861874	0.37079232931137085	0.0012402087450027466	0.00868242233991623	0.5499532222747803	0.6818884611129761	0.2564717233181	-0.2521272301673889	0.43864336609840393	-0.10773423314094543	-0.7473366260528564	-0.36427372694015503	-0.17272339761257172	0.9381247758865356	1.171030879020691	-0.8528385162353516	-0.34874117374420166	1.1231019496917725	-0.6190083622932434	1.476481318473816	0.7108349204063416	0.7859997153282166	0.9661670327186584	1.272512435913086	0.35707905888557434	-0.5239656567573547	-0.45983028411865234	-0.012866893783211708	-0.00885765440762043	0.1513231098651886	-0.6339909434318542	-0.8348239064216614	-0.5381060838699341	-0.14043523371219635	-0.790076494216919	0.5357270836830139	-0.44814059138298035	0.14321750402450562	-0.6780248284339905	0.11822141706943512	0.3512671887874603	-0.3074870705604553	0.09674472361803055	0.030410276725888252	-1.13121497631073	-0.2314947247505188	-0.2518153488636017	-0.32959702610969543	1.100946307182312	0.4609791040420532	-0.7715874314308167	-0.02699306234717369	-1.840598702430725	0.10785674303770065	0.6064804196357727	-0.9941861629486084	-0.03375343978404999	-1.0987211465835571	-0.8856518268585205	0.1748226433992386	-0.8531967401504517	0.09489191323518753	1.5541982650756836	0.33824843168258667	-0.9245375394821167	-0.4549349248409271	-0.5261844396591187	0.18885332345962524	-0.5686830878257751	0.7181138396263123	0.6456900238990784	0.2324998676776886	1.2140694856643677	0.21570460498332977	-0.3029356598854065	0.17100930213928223	
http://dbpedia.org/resource/Mauritius	-0.6563740968704224	-0.12650413811206818	-0.31231942772865295	-0.3570871949195862	0.26871708035469055	0.8131924867630005	0.41320475935935974	0.40557876229286194	-0.15199610590934753	-1.10028076171875	1.2080055475234985	-0.7669354677200317	1.0743392705917358	-0.04098385199904442	-0.5608718991279602	0.6905654072761536	0.8176701664924622	0.0897192656993866	0.13878582417964935	0.3035406172275543	-0.17444635927677155	0.06957792490720749	0.021232323721051216	-0.7299149632453918	-0.38935914635658264	-0.07488696277141571	0.6868650913238525	0.2574002742767334	-1.2979952096939087	0.33456388115882874	-1.328201413154602	0.7430980205535889	1.141782522201538	1.1045312881469727	0.35094738006591797	-0.10606560856103897	0.5256215929985046	0.7449358701705933	-0.3333972990512848	0.21088261902332306	0.17478233575820923	-0.18354056775569916	0.5775608420372009	1.254251480102539	-0.43469327688217163	-0.06259845197200775	0.8513891100883484	0.04344026371836662	-0.15148143470287323	0.5338358283042908	-0.0831407904624939	0.5939275622367859	-0.23311984539031982	-0.9936280250549316	-1.1226096153259277	0.7313287258148193	-0.09513876587152481	-0.1153973639011383	-0.5698923468589783	-1.1589280366897583	-0.12039422243833542	0.12353047728538513	-0.5466947555541992	-0.09214426577091217	0.16841958463191986	-0.40162742137908936	0.32274770736694336	-0.5964599847793579	-0.1051139160990715	0.05136074125766754	0.7487832307815552	-0.38884684443473816	-1.0598983764648438	0.688858687877655	0.47792381048202515	0.34267863631248474	-0.7884955406188965	0.21111644804477692	-0.37671202421188354	0.5475739240646362	0.32270458340644836	1.003153681755066	-0.10355232656002045	-0.057286810129880905	0.1155196875333786	0.13773930072784424	0.23910626769065857	-0.3201275169849396	0.5463888049125671	0.6811419129371643	-0.19908109307289124	-0.5862559676170349	0.1533687561750412	0.8825085163116455	-0.8185350894927979	0.07130832225084305	-0.09204138070344925	-0.4209042489528656	0.3609497547149658	-0.19966250658035278	0.5799552202224731	0.33932626247406006	0.44307610392570496	-0.8132110834121704	-0.9669444561004639	0.20999641716480255	0.34015727043151855	0.045204583555459976	0.1790246218442917	-0.2854255437850952	-0.5125271081924438	0.5958260893821716	0.20732292532920837	0.015326584689319134	0.935500979423523	0.36311203241348267	0.4235720634460449	-0.47478461265563965	0.7459892630577087	0.5192025303840637	1.3168591260910034	-0.733786404132843	-1.0217589139938354	0.06980501860380173	1.112411618232727	-0.5032142996788025	0.6050811409950256	-0.29759523272514343	-0.027613084763288498	-0.0563102662563324	0.5925752520561218	1.287488341331482	-0.20522500574588776	0.6519574522972107	-0.800026535987854	-0.026502039283514023	-0.39841899275779724	0.2206914722919464	0.5722514390945435	-0.17148281633853912	-0.09659057855606079	-1.0016669034957886	-1.1226072311401367	0.34359344840049744	-0.3154657185077667	0.4554501175880432	0.005271560978144407	0.8009028434753418	-0.3564467430114746	-0.04488927498459816	-0.0811631828546524	0.09928610175848007	0.5269516110420227	-1.0879517793655396	-0.7349397540092468	-0.18943002820014954	0.1728709191083908	0.8047302961349487	-0.8792127370834351	0.3620370030403137	-0.9303147196769714	0.2871694266796112	0.1371818333864212	-0.3133999705314636	-0.48097461462020874	0.2794027030467987	0.1508672535419464	-0.4822152554988861	0.07590854912996292	-0.15269041061401367	-1.1204993724822998	0.021603291854262352	1.4612730741500854	0.382485568523407	0.46293312311172485	-0.04266337677836418	0.21147523820400238	-1.1702747344970703	-0.4610297977924347	-0.05815766379237175	-0.10115677863359451	-0.12639015913009644	-1.1049541234970093	0.3375619947910309	-0.06348102539777756	-0.5294159650802612	0.002705498831346631	1.424582839012146	0.18595582246780396	-1.1575028896331787	-0.5576751232147217	0.3161844313144684	-0.3613974153995514	-0.46264007687568665	0.28828155994415283	0.05721824988722801	0.8758849501609802	-0.4305838346481323	0.2874656915664673	0.09897050261497498	
http://dbpedia.org/resource/Tonga,_Cameroon	0.16131043434143066	0.2509706914424896	-0.08502060174942017	0.5076811909675598	0.3403199017047882	0.10978857427835464	0.1910102367401123	0.13179656863212585	-0.09299403429031372	0.024447903037071228	0.04378824308514595	0.1360466033220291	0.1406470239162445	-0.04107009992003441	-0.3509025275707245	-0.09924773126840591	-0.14303241670131683	-0.04171766713261604	-0.18457889556884766	0.28654730319976807	-0.047896891832351685	0.10158194601535797	0.09148890525102615	-0.15940842032432556	0.25256896018981934	0.21646520495414734	-0.1358201950788498	0.2914172410964966	-0.4987468123435974	-0.1289447844028473	0.0038919385988265276	-0.14639881253242493	0.35004621744155884	0.16512912511825562	-0.15850812196731567	0.1724659651517868	-0.04323679581284523	0.32955461740493774	-0.26887091994285583	0.0401153527200222	0.011590876616537571	0.3359989821910858	-0.10538730025291443	0.07786807417869568	0.08607322722673416	0.4815216064453125	0.0031949919648468494	0.24584265053272247	-0.29431676864624023	-0.059315577149391174	-0.20360463857650757	0.36318090558052063	0.03565308079123497	-0.6333292722702026	-0.2210424244403839	0.07244914770126343	0.19190944731235504	-0.10330276936292648	0.1998974233865738	-0.5244480967521667	0.119560606777668	-0.15034987032413483	-0.25585854053497314	0.06455874443054199	-0.2083044946193695	0.16138623654842377	0.2591148018836975	-0.1379016935825348	0.09264221787452698	0.20013314485549927	0.11077916622161865	-0.10538464039564133	-0.12942135334014893	0.06039529666304588	0.35003024339675903	-0.10563147813081741	-0.17708303034305573	0.09152846783399582	-0.2636098563671112	0.24245376884937286	-0.17217107117176056	0.5268715023994446	0.12510260939598083	-0.49848154187202454	0.4479142129421234	0.13160431385040283	-0.11335970461368561	-0.13775572180747986	0.17360293865203857	0.11407465487718582	0.41912636160850525	-0.005214134231209755	-0.15143439173698425	-0.0045006456784904	0.19715426862239838	-0.19531433284282684	-0.26363661885261536	0.29998454451560974	-0.008208809420466423	-0.2602512240409851	0.2626732885837555	0.041954509913921356	0.27383047342300415	0.022051865234971046	-0.12691360712051392	-0.04865854233503342	-0.09206625074148178	-0.24403759837150574	0.1289355456829071	0.07420192658901215	0.15325383841991425	0.07876140624284744	0.21294629573822021	-0.13751795887947083	0.051897644996643066	0.04275884851813316	0.5397274494171143	-0.13343238830566406	0.24022816121578217	0.4464466869831085	0.303947776556015	-0.007723827846348286	0.03793378546833992	0.27008312940597534	-0.09433279186487198	-0.08210316300392151	0.21037408709526062	-0.6330353617668152	0.1187608614563942	0.16548745334148407	0.3143044710159302	-0.1581900715827942	-0.3250523805618286	0.19164353609085083	-0.25082147121429443	0.1398271769285202	-0.3232027590274811	0.08499416708946228	0.45055004954338074	-0.015406304970383644	0.2846991717815399	-0.19672410190105438	-0.23271071910858154	-0.23254290223121643	-0.252401202917099	0.04340062290430069	0.39234548807144165	0.37694627046585083	-0.34144043922424316	-0.03307051956653595	0.06454947590827942	0.10128752887248993	0.2721481919288635	0.35338884592056274	-0.5710205435752869	-0.37742289900779724	-0.1609545201063156	-0.29690101742744446	-0.20204615592956543	-0.35022130608558655	-0.23836754262447357	0.127997025847435	-0.10731052607297897	-0.020458053797483444	-0.053953662514686584	-0.10893948376178741	0.3484531342983246	0.18378925323486328	-0.03933435305953026	-0.15761137008666992	0.02229822799563408	0.014370524324476719	0.3607277274131775	0.03149900212883949	0.20715221762657166	0.25594598054885864	0.11233583837747574	0.010771257802844048	-0.20334674417972565	-0.26131901144981384	0.22241738438606262	0.24587342143058777	-0.14496174454689026	-0.04323679208755493	-0.07945697009563446	-0.17600718140602112	0.526051938533783	0.7805888056755066	0.3018636703491211	-0.2809511721134186	-0.4877704381942749	0.44649386405944824	-0.2555448114871979	0.11574573814868927	0.042022377252578735	-0.17649464309215546	0.3988756835460663	-0.14198552072048187	-0.10162604600191116	-0.5784664750099182	
http://dbpedia.org/resource/Sri_Lanka	-0.08902313560247421	0.15041929483413696	-0.33332377672195435	-0.30039218068122864	0.6208909153938293	1.2547416687011719	1.0182856321334839	0.793631374835968	-0.1985221952199936	0.04660606011748314	0.8252331614494324	-1.0612225532531738	0.4018852114677429	-0.47235599160194397	-0.06177780032157898	0.5798431038856506	0.11581478267908096	0.6697616577148438	-1.0118942260742188	-0.33713915944099426	-0.7103781700134277	-0.12019038200378418	0.08764338493347168	0.09241756051778793	0.3913107216358185	-0.24471771717071533	0.32249128818511963	0.6887243390083313	-1.0975114107131958	-0.0725310742855072	-1.333252191543579	0.1403140127658844	-0.25377345085144043	0.4287617802619934	0.1367078721523285	-0.4694887101650238	0.0412253811955452	0.39510658383369446	-0.939102292060852	-0.7356992363929749	0.05146913230419159	-0.5849964618682861	-0.9254656434059143	0.3961673974990845	0.701036274433136	0.7308796644210815	0.4408078193664551	-0.1794607788324356	0.09152994304895401	0.011297636665403843	-0.5090638399124146	0.8123080134391785	0.3392026126384735	-0.7629527449607849	-1.1192777156829834	0.739132285118103	0.8242108821868896	-0.7650668621063232	0.1330377161502838	-0.4305444657802582	0.19708748161792755	-0.3940425217151642	0.3277116119861603	0.2279440462589264	-0.49658146500587463	0.10491219162940979	-0.5675124526023865	0.22072501480579376	0.1962057650089264	0.7822121977806091	0.4213612973690033	-0.09810909628868103	-0.6574183106422424	-0.11265780031681061	0.3359070420265198	-0.3192541301250458	-0.1349625289440155	0.5309309363365173	0.8813161849975586	1.6233642101287842	0.47362184524536133	-0.16172170639038086	-0.0015226397663354874	-0.11891051381826401	-0.06357671320438385	-0.19744674861431122	0.36503636837005615	-0.8839494585990906	0.22118188440799713	0.4387207329273224	-0.40803277492523193	0.1751733124256134	0.3275893032550812	-0.1615009605884552	0.49909818172454834	0.24256128072738647	0.15531201660633087	-0.4851395785808563	0.14790435135364532	0.12690462172031403	0.577734649181366	0.2330567091703415	0.02289324440062046	-0.4032139778137207	-0.9359244108200073	0.4945695400238037	-0.8836421966552734	-0.028998497873544693	0.048757415264844894	0.9460278153419495	0.9357505440711975	-0.437600314617157	0.43953263759613037	0.43750473856925964	0.5866509079933167	-0.4031657576560974	-0.36080941557884216	-0.22167402505874634	0.01764700934290886	1.020688772201538	0.9338095188140869	-0.45904305577278137	-0.1852387636899948	-0.13280265033245087	-0.3655027747154236	0.803123950958252	0.29757699370384216	0.3429446518421173	0.9974581599235535	-0.18430760502815247	-0.18707942962646484	0.5223504304885864	-0.063189297914505	-0.6945547461509705	-0.44740116596221924	-0.900062620639801	-0.17013850808143616	0.4248355031013489	1.453123688697815	-1.1080948114395142	-0.12892159819602966	-0.7951928973197937	-1.1789095401763916	-0.5370448231697083	0.1605277806520462	0.36608797311782837	0.02072397619485855	0.23999249935150146	-0.671808660030365	-0.14357797801494598	-0.7552318572998047	0.4778573513031006	-0.1515113115310669	0.3947412073612213	-0.47405388951301575	0.1622789353132248	-1.1997791528701782	-0.18399381637573242	-0.4433835744857788	0.2717936933040619	-0.5455945730209351	-0.3149496018886566	-0.13218995928764343	0.17896951735019684	-0.07101289182901382	-0.2518428564071655	0.2336163967847824	-0.33884957432746887	-0.6541325449943542	-0.18972884118556976	0.17419959604740143	0.08537551015615463	1.0298488140106201	0.32974690198898315	-0.12598766386508942	-0.7839860916137695	-0.6520591974258423	-0.45429152250289917	0.21397455036640167	-0.14968587458133698	0.0925004780292511	-0.15934674441814423	-0.4973738491535187	-0.4580416679382324	-0.16656185686588287	-0.8317373394966125	0.34031978249549866	0.8273258805274963	0.38809874653816223	-0.2099224179983139	-0.23564943671226501	1.0402827262878418	-1.1026523113250732	0.8028695583343506	-0.19212938845157623	1.1523847579956055	0.8454933762550354	1.2976890802383423	-0.6783289909362793	-0.8247020244598389	
http://dbpedia.org/resource/Greece	-0.35192060470581055	-0.7990418672561646	-0.5566893815994263	-0.47230949997901917	-0.374248206615448	0.4966610372066498	1.110259771347046	0.24468392133712769	-0.8509962558746338	-0.35714268684387207	1.2472572326660156	-1.6011954545974731	0.22301308810710907	-1.0397696495056152	0.24082286655902863	0.1733882874250412	1.307510256767273	-0.14714619517326355	-0.5103355050086975	-0.29861995577812195	-0.29717668890953064	0.3326902687549591	0.35523536801338196	-1.0089820623397827	0.08004596084356308	0.6990495324134827	-0.24770770967006683	0.4028327167034149	-0.9970371127128601	0.576424777507782	-0.7526864409446716	0.22143138945102692	0.538124680519104	-0.6623288989067078	0.9544593691825867	-0.14385028183460236	0.1573881357908249	0.4932037889957428	-0.16203726828098297	-0.049438752233982086	-0.7105539441108704	0.35186776518821716	-0.2143743485212326	0.5091354846954346	-0.028926793485879898	0.35950589179992676	0.4525066316127777	0.36429744958877563	-0.3763046860694885	0.3803440034389496	-0.5341154932975769	-0.4900972843170166	-0.13672323524951935	-1.0224189758300781	-0.5243730545043945	0.04560541734099388	0.05495006591081619	-0.6594898700714111	-0.4099237322807312	-1.427471399307251	-0.1284191608428955	0.297818660736084	0.40806302428245544	-0.9258697032928467	0.20122721791267395	-0.7567124366760254	-0.31704050302505493	-0.0481300912797451	0.5317215919494629	0.828069269657135	0.07063856720924377	-0.45028337836265564	-1.0510820150375366	-0.42541366815567017	0.851273238658905	-1.0891468524932861	0.07131899893283844	0.15370328724384308	-0.1364775002002716	1.0590530633926392	0.6165237426757812	0.562626838684082	0.8914644718170166	0.1877564936876297	0.08076735585927963	-0.3728036880493164	-0.5668216347694397	-1.1902134418487549	0.17456382513046265	0.7206227779388428	-0.4510340988636017	0.9973458051681519	-0.05149245634675026	0.5005877017974854	0.7211013436317444	0.03855866566300392	0.41398489475250244	0.03818633034825325	-0.24636390805244446	-0.2248682975769043	0.48755010962486267	0.5397589206695557	-0.5422652959823608	-0.7974158525466919	-0.2644370496273041	0.3011511564254761	-0.3066238462924957	-0.5713171362876892	-0.11140774935483932	0.7398360967636108	-0.09531635046005249	-0.5508702993392944	0.3837442696094513	0.06430651992559433	0.2079073041677475	0.5687404274940491	-0.243600994348526	0.6729637384414673	0.25274068117141724	-0.41988587379455566	0.17809279263019562	-0.25389522314071655	0.06174466386437416	0.31048187613487244	-0.42022499442100525	0.6593897938728333	-0.4206608235836029	0.5165862441062927	0.16327431797981262	0.30596309900283813	0.5069543719291687	-0.2747979164123535	-0.39079809188842773	0.2536313533782959	-1.0201656818389893	-0.16402167081832886	-0.6660687327384949	0.10188762843608856	1.0148961544036865	-0.3008609414100647	-0.5811736583709717	-0.014372146688401699	-0.3678397536277771	1.0142005681991577	0.2254960685968399	0.01990618370473385	0.9471839666366577	0.9997513890266418	0.09256681054830551	0.5799016356468201	0.04899440333247185	-0.06266792118549347	0.08023517578840256	0.2233402281999588	-0.5175045132637024	-0.32744091749191284	-1.1515908241271973	-0.4275266230106354	-0.6021100282669067	0.008756414987146854	0.0731983557343483	-0.6459791660308838	-0.8471531867980957	0.47757846117019653	-0.5030709505081177	-0.21965795755386353	-0.477902889251709	0.39809709787368774	-0.7680373787879944	-1.033868670463562	0.5620142221450806	-0.24460797011852264	0.33416110277175903	0.3276311159133911	-0.3082711696624756	-0.5075685381889343	-0.6049101948738098	-0.949570894241333	0.5111562609672546	0.30652186274528503	0.9910472631454468	-0.4525887072086334	-0.5778538584709167	0.24404767155647278	-0.8708451986312866	-0.20904064178466797	1.6061691045761108	1.1251909732818604	0.3898307681083679	-0.4595240652561188	-1.3378077745437622	0.9011886119842529	-1.2085124254226685	0.7872828841209412	0.8113255500793457	0.5889796614646912	1.2841824293136597	-0.05410376191139221	-0.07786395400762558	0.23446136713027954	
http://dbpedia.org/resource/Uzbekistan	-1.0065827369689941	0.3371589481830597	0.8420518040657043	-0.2732813358306885	-0.7095453143119812	0.2930789887905121	0.25736767053604126	0.7368210554122925	-1.7578855752944946	-0.3633022904396057	0.4905737638473511	0.2687048017978668	0.09238900989294052	-0.37950173020362854	-0.23870401084423065	-1.0738593339920044	-0.13602536916732788	-0.614273726940155	-0.13422252237796783	0.24305686354637146	-0.21471764147281647	-0.3167518377304077	0.6097458004951477	-0.4456070065498352	-0.1394035667181015	0.2069127857685089	-0.43147385120391846	0.6470357775688171	-0.4741854667663574	0.39666587114334106	-0.7129092812538147	0.15344054996967316	-0.4833901524543762	-0.44950538873672485	-0.647447943687439	-0.5124433636665344	0.3002046048641205	-0.7362880706787109	-0.25867441296577454	0.19012555480003357	0.6589529514312744	0.17191511392593384	-0.20983992516994476	1.5344496965408325	0.12228994071483612	0.2857157588005066	0.9824734330177307	-0.03679259866476059	-0.5955739617347717	1.2857955694198608	-0.23626191914081573	-0.04551834240555763	0.32070988416671753	-1.385973334312439	-0.6702988147735596	-0.04887159541249275	1.0803239345550537	-0.7205484509468079	-0.2743614912033081	-0.5962194204330444	1.0822856426239014	0.19174741208553314	-0.5717955827713013	-0.6445794105529785	-0.1674877405166626	-0.06208135932683945	0.23069611191749573	0.5005456209182739	-0.46436813473701477	-0.00860752072185278	0.7648719549179077	0.8278654217720032	-1.7379266023635864	-0.5816552042961121	0.24515756964683533	0.5328296422958374	0.47606611251831055	-0.12421788275241852	-0.47950002551078796	0.6431841850280762	0.49460965394973755	0.9490103125572205	-0.699181318283081	-0.306054949760437	1.1588386297225952	0.1998290866613388	-0.03844877704977989	-0.19236472249031067	0.8030468225479126	1.282868504524231	-0.40640002489089966	0.4007692337036133	-0.0009349645697511733	-0.3238379955291748	0.25699520111083984	-0.19591625034809113	0.5703047513961792	-0.34395793080329895	0.4027087390422821	-0.050293341279029846	0.21910172700881958	0.39666351675987244	-0.08560435473918915	-0.4704284965991974	0.7708138823509216	0.7450355887413025	0.026920566335320473	-0.12823107838630676	0.5087937116622925	0.12200949341058731	0.3032081127166748	-0.2105432003736496	-0.07565740495920181	-0.2119196355342865	0.229049950838089	-0.027773987501859665	0.908664882183075	-0.4054824113845825	0.554206907749176	0.09416943788528442	0.6612706184387207	-0.5178564190864563	-0.7677301168441772	-0.2605239450931549	0.29960158467292786	0.22412268817424774	-0.05613473057746887	0.33337143063545227	0.7705561518669128	-0.2665916681289673	0.8466110229492188	0.8341988325119019	-0.4939911961555481	0.621903657913208	0.3777010440826416	0.24679718911647797	-0.5952737927436829	0.26684650778770447	0.3526303768157959	-0.6606689691543579	-0.4170326888561249	-0.03757621347904205	-1.1846140623092651	-0.6886006593704224	-0.5561489462852478	-0.06741104274988174	0.6612834930419922	1.1188843250274658	-0.42256227135658264	-0.04222304746508598	0.07715905457735062	0.5684427618980408	-0.4963444471359253	0.15074828267097473	-0.4275950491428375	0.4299675226211548	0.30053141713142395	0.6129040718078613	-0.1393330991268158	0.2482178807258606	-0.12358828634023666	0.4269823729991913	0.5780829787254333	0.21408537030220032	0.8988742828369141	0.06793496757745743	-0.07423200458288193	-0.015212819911539555	-1.0422804355621338	-1.022324800491333	-0.13002465665340424	0.11928371340036392	-0.5677638053894043	-0.12378277629613876	0.094268299639225	-0.13184383511543274	-0.754253089427948	-0.48039236664772034	0.3178040385246277	-0.3505016565322876	0.5324428677558899	-0.6144535541534424	-0.6989582180976868	-0.18579107522964478	-0.20016874372959137	-0.5862535834312439	0.4680662453174591	0.34082236886024475	0.1336032897233963	-1.1854850053787231	-0.6265471577644348	1.0940487384796143	-0.5799234509468079	-0.3946463465690613	0.814450740814209	0.8129887580871582	1.6933101415634155	0.7166306376457214	-0.05798023194074631	-1.5160869359970093	
http://dbpedia.org/resource/Mauritania	-0.1844707876443863	0.6160807013511658	0.3362608253955841	0.5513886213302612	0.8980947136878967	0.487545371055603	-0.17626509070396423	0.13452987372875214	-1.0883711576461792	0.21443979442119598	0.40953680872917175	-0.5158575773239136	0.2728990912437439	-1.974734902381897	0.39509865641593933	0.33965003490448	-0.05837249755859375	1.1149488687515259	0.8100259304046631	-0.7843436598777771	0.10306460410356522	-0.7182227373123169	0.7423532605171204	-0.294338196516037	-0.4343687891960144	0.9576948881149292	-0.18532662093639374	1.161536455154419	-1.1320692300796509	0.5028237104415894	-0.04047878459095955	0.6248761415481567	0.13765482604503632	-0.06916580349206924	0.34043315052986145	-0.008436731062829494	0.9227118492126465	0.6601797342300415	-0.19309431314468384	0.7864712476730347	0.629783034324646	0.24090369045734406	-0.40861788392066956	0.6826920509338379	-0.0009942315518856049	0.4242876172065735	0.28411760926246643	0.6861964464187622	-0.23586425185203552	-0.0756174772977829	-0.40709424018859863	0.8639917969703674	0.09330642223358154	-1.008471131324768	-0.0309950839728117	0.1619524210691452	-0.30693352222442627	-0.5409721732139587	-0.47076067328453064	0.04450133442878723	-0.4481948912143707	-0.3601526618003845	-1.3582782745361328	-0.06711716949939728	-0.046160902827978134	0.018206100910902023	0.32676753401756287	-0.7727126479148865	-0.22691263258457184	1.0706124305725098	-0.5380108952522278	0.6071138381958008	-0.2702367305755615	0.2551446855068207	-0.20967963337898254	0.1788470298051834	-0.2462453991174698	0.07396490126848221	0.3913361132144928	0.43893611431121826	0.3601655662059784	0.520418643951416	0.05619588494300842	-0.37334537506103516	0.6709793210029602	-0.1362709254026413	-0.36829081177711487	0.2940577566623688	0.007146396208554506	0.2639286518096924	-0.06364816427230835	-0.3578857481479645	0.3415261507034302	0.25755831599235535	0.5939208269119263	-0.16213274002075195	0.9230841994285583	-0.05315777286887169	-0.2946411967277527	-0.39179885387420654	-0.01704028993844986	0.23397386074066162	-0.7679466605186462	-0.9259248971939087	-0.01780528947710991	0.638094961643219	0.3002464473247528	-0.24775062501430511	0.1785571575164795	0.17687171697616577	0.7014163136482239	-0.34747251868247986	-0.2192552238702774	-0.1645335704088211	-0.4131421446800232	-0.04451503977179527	0.793414831161499	0.4705601930618286	0.922598659992218	0.26887935400009155	0.31607601046562195	-0.8063299655914307	-0.378337025642395	1.0877846479415894	0.03994005545973778	-0.4566267132759094	-0.616589367389679	0.17592735588550568	0.4947057068347931	-0.13109564781188965	0.20096786320209503	0.44885730743408203	-0.758496880531311	0.9016425013542175	0.24312371015548706	0.12257739901542664	-0.6109771728515625	0.45280370116233826	0.964826762676239	-0.6134459972381592	-0.15099011361598969	-0.35113611817359924	-0.4610089659690857	0.29380694031715393	-0.06956715136766434	0.7554643750190735	0.539580225944519	0.7455743551254272	-0.15103618800640106	0.5644147396087646	0.08205719292163849	0.3100782334804535	-0.2858259677886963	-0.6557195782661438	0.038024112582206726	0.07444661855697632	-1.173673391342163	0.38464435935020447	-0.8196831345558167	-0.6185302138328552	-0.5362308621406555	-0.141130730509758	-0.06884381920099258	0.19856372475624084	-0.017568400129675865	0.09325965493917465	0.2531954050064087	-0.13176147639751434	-0.9674496054649353	-0.8894022107124329	0.12052051723003387	0.08296816796064377	1.3194249868392944	0.45543351769447327	0.0012182514183223248	-0.006082961801439524	0.0832352414727211	-1.2621077299118042	-0.6903729438781738	-0.3141542375087738	0.9004867672920227	0.34948188066482544	-0.34639957547187805	-0.18791882693767548	-0.37973058223724365	0.059293586760759354	1.0894896984100342	0.23820573091506958	0.5145434141159058	-0.8667529225349426	-0.6855769753456116	0.9681996703147888	-1.00108003616333	0.8704977035522461	-0.28348103165626526	-0.697594404220581	1.5367522239685059	-0.2667981684207916	1.1023341417312622	-1.3480092287063599	
http://dbpedia.org/resource/Ivory_Coast	-0.2957736551761627	0.4395727217197418	-0.16967932879924774	0.13162696361541748	0.5118351578712463	0.051184095442295074	-0.4430440664291382	0.960787832736969	-1.3875248432159424	-0.5047005414962769	0.11052786558866501	0.0846337303519249	-0.5293996334075928	-1.4301834106445312	-0.10467514395713806	0.13722997903823853	0.4378088116645813	0.9580482244491577	0.11154185980558395	0.15620116889476776	-0.21048352122306824	-0.5185148119926453	-0.1446657031774521	0.0879533588886261	-0.8715711236000061	0.5315650105476379	0.2488732486963272	1.3394354581832886	-0.776139497756958	0.6733548641204834	0.14169560372829437	-0.004688456188887358	0.5805834531784058	0.35055261850357056	0.4759015440940857	-0.31323084235191345	0.5508702993392944	-0.08350178599357605	0.4767894446849823	0.2557319402694702	-0.16593949496746063	0.3560342490673065	-0.06025340408086777	1.648760199546814	-0.0176599882543087	0.5248872637748718	0.17257678508758545	1.11453115940094	-0.8524513244628906	-0.28525790572166443	-0.43193066120147705	1.164655089378357	0.6106851100921631	-0.5794153213500977	-0.4297490119934082	-0.07714349776506424	0.3716343641281128	-0.2523180842399597	0.46061262488365173	-0.33279335498809814	-0.14960099756717682	0.023810841143131256	-1.2013657093048096	-0.2282949835062027	0.6389915943145752	0.16570720076560974	-0.8199772238731384	-0.1293087750673294	-0.10973504930734634	-0.13779468834400177	-0.039980802685022354	0.03319321572780609	-1.134296178817749	0.3203791677951813	0.03848232328891754	0.08752262592315674	-0.23952056467533112	0.6654844880104065	-0.07879231870174408	0.668313205242157	0.08924228698015213	0.5561932325363159	-0.2286594808101654	0.020360253751277924	1.1169147491455078	-0.4024011492729187	-0.21050997078418732	0.5407087206840515	0.6288334131240845	0.03940701484680176	0.5663148760795593	-0.991382896900177	-0.23760800063610077	0.5174778699874878	0.9580739140510559	-0.10627001523971558	0.10323227196931839	-0.3831760883331299	0.7020974159240723	-0.6886687278747559	0.1802513301372528	0.2330428957939148	0.8905474543571472	-0.8572414517402649	-0.252779096364975	0.7476083040237427	0.558513879776001	-0.15748798847198486	0.038452379405498505	0.16074733436107635	0.12142068892717361	0.7891549468040466	-0.8527496457099915	-0.7280003428459167	0.2908950448036194	0.6370416283607483	-0.28650662302970886	0.09024153649806976	0.6248839497566223	0.5993439555168152	-0.1466991901397705	-0.12204891443252563	0.16839678585529327	1.0887935161590576	-0.08669617027044296	0.37470754981040955	-0.6042929887771606	-0.14993980526924133	0.4702972173690796	-0.2990785539150238	0.8202230930328369	0.39271411299705505	-1.4398527145385742	0.19890093803405762	0.5216531157493591	-0.38916653394699097	-0.07306388020515442	1.2633775472640991	0.14676949381828308	-0.0022399246226996183	-0.18861815333366394	-0.36709561944007874	-1.0232272148132324	0.14829698204994202	0.04507463052868843	0.3628941476345062	-0.22775082290172577	1.1427842378616333	-0.5335665345191956	-0.5630955100059509	0.283530592918396	-0.3037312924861908	-0.18619783222675323	-0.6842595934867859	-0.5861446261405945	-0.3422994017601013	-0.06367550790309906	0.1787254363298416	-0.9307534098625183	-0.34862369298934937	-0.30719491839408875	-0.34244492650032043	0.2950591444969177	-0.3547612428665161	0.4785497188568115	-0.2442602515220642	1.0617759227752686	-0.1531120091676712	0.12531088292598724	-0.7324155569076538	-0.1669054925441742	0.2630399465560913	0.8841956853866577	0.6873979568481445	-0.5907572507858276	0.11190138012170792	-0.5129081010818481	0.4657595455646515	0.057684820145368576	-1.0025595426559448	0.770119309425354	-1.4874229431152344	-0.9408242106437683	-0.0691675990819931	0.644635021686554	0.054701291024684906	0.6917858719825745	0.8624147772789001	-0.016793491318821907	-0.5625810623168945	-0.9193654656410217	0.0883454903960228	-0.7268248796463013	0.21850425004959106	-0.09325309842824936	0.5774340629577637	1.6572022438049316	0.1405511498451233	0.2722923159599304	-0.8359714150428772	
http://dbpedia.org/resource/Finland	-0.3050137460231781	-0.004650822374969721	-0.6976463198661804	0.3759932518005371	0.7478098273277283	-0.02690013498067856	0.7383853197097778	0.022979483008384705	-0.8265548348426819	-0.346295565366745	1.1997967958450317	-1.1357991695404053	0.47698289155960083	-0.42624014616012573	-0.345143586397171	-0.08056357502937317	0.8191526532173157	0.21740753948688507	0.34261220693588257	0.4199439585208893	-1.343398094177246	0.7812820076942444	0.48741084337234497	-0.7152069211006165	0.9692750573158264	-0.1776268184185028	-0.8242993354797363	0.23183700442314148	-0.856881320476532	1.1054221391677856	-0.005779610481113195	0.2152380794286728	1.1374293565750122	-0.4331793189048767	0.694307267665863	-0.7480510473251343	-0.13884609937667847	0.18847671151161194	-0.21691186726093292	0.8388183116912842	0.10706693679094315	0.17199286818504333	-0.62997967004776	1.1260875463485718	0.4232019782066345	0.6048052310943604	-0.14004972577095032	0.4460395872592926	-1.44586980342865	-0.6462064981460571	-0.006363912019878626	1.397026777267456	0.6905443072319031	-1.276314616203308	-0.6050909757614136	-0.8036503195762634	-0.19713865220546722	-0.27724015712738037	0.6208810806274414	-1.1036683320999146	-0.29229578375816345	-0.4414718747138977	0.4770311415195465	-0.2018517404794693	0.5127108693122864	-0.09923693537712097	-1.2683910131454468	-0.039946191012859344	-0.5251671075820923	-0.30600011348724365	-0.13629694283008575	-0.4916519224643707	-1.124884843826294	0.19252625107765198	0.7832151055335999	-1.1028815507888794	0.4871000647544861	0.5165221691131592	-0.34471914172172546	0.9536917209625244	0.7832739949226379	0.2691347897052765	0.2080615758895874	0.40498486161231995	0.17568835616111755	-1.0542157888412476	-0.29251670837402344	0.17431645095348358	0.7784085869789124	1.0015254020690918	-0.19547133147716522	-0.02933311089873314	-0.9279527068138123	0.4684212803840637	-0.3136945366859436	-0.15001671016216278	0.9466343522071838	-0.5816079378128052	0.5888094305992126	0.49867764115333557	0.2234424352645874	0.6962264776229858	-0.682861864566803	0.043848082423210144	-0.8634691834449768	0.14136528968811035	-0.9556784629821777	-0.14509181678295135	0.031167292967438698	0.050056517124176025	0.6766529679298401	-0.35710299015045166	0.36627089977264404	0.18405264616012573	-0.005880976095795631	-0.16487689316272736	-0.5187625885009766	-0.27122434973716736	0.3714902400970459	0.06383341550827026	-0.7330647110939026	0.3411293625831604	0.018393712118268013	-0.44512253999710083	0.4277556538581848	0.8706213235855103	-0.5914222598075867	0.3969586193561554	0.15193548798561096	-0.09474314004182816	1.2728360891342163	0.27308389544487	-0.23910163342952728	0.7653321027755737	-0.05681320279836655	0.04611949622631073	-0.3189537823200226	0.3666674792766571	0.5436025261878967	-0.4024825990200043	0.2132425457239151	-0.08179352432489395	-0.3446105420589447	0.22291597723960876	0.40049609541893005	1.3464195728302002	0.4411911070346832	0.8173543810844421	-0.029647162184119225	-0.5795400142669678	0.32596948742866516	-0.25696659088134766	-0.5226500630378723	-0.26974618434906006	-1.0427590608596802	-0.20550474524497986	-0.4494346082210541	-0.7484470009803772	0.2881236672401428	0.6854006052017212	-0.5538462996482849	0.3362236022949219	-0.4121145009994507	0.022858213633298874	-0.03348085284233093	-0.04381260275840759	0.275759756565094	-0.1998150646686554	-1.2083231210708618	-0.2222398966550827	-0.3043489158153534	0.25461387634277344	1.0426907539367676	-0.18356084823608398	0.18857793509960175	-0.7352052330970764	-0.9963472485542297	0.13186153769493103	0.32799533009529114	0.2292759269475937	0.6173489689826965	-0.32494983077049255	-1.1412417888641357	-0.6836850643157959	-0.6494508385658264	-0.9196349382400513	0.9982507228851318	1.208877444267273	-0.15120849013328552	-1.112347960472107	-0.6696038246154785	0.7454664707183838	-0.30515238642692566	0.23152783513069153	0.055211279541254044	-0.15992628037929535	1.6391420364379883	0.5651023387908936	0.010574541054666042	0.40023568272590637	
http://dbpedia.org/resource/Tahiti	-0.45926088094711304	-0.8261151313781738	-0.9616915583610535	-0.16019368171691895	-0.44825270771980286	0.4468471109867096	-0.1516457498073578	0.2148512750864029	0.3260118365287781	-0.7719566226005554	0.7268363833427429	-0.6913278102874756	0.8998266458511353	-0.390069842338562	-0.5375618934631348	-0.049864623695611954	0.022114526480436325	-0.2707572877407074	-0.9120076298713684	-0.6350948214530945	-0.564247727394104	-0.1802874505519867	0.15463441610336304	0.004617271479219198	0.03430255502462387	-0.08365536481142044	0.4414481520652771	0.511282205581665	-0.6052730679512024	-0.008612547069787979	-0.07111244648694992	-0.33556145429611206	-0.4730272591114044	0.32884877920150757	1.1499990224838257	0.33940765261650085	0.4151199460029602	-0.8702764511108398	-0.004341939929872751	1.1728811264038086	-0.1777133196592331	0.17328742146492004	-0.3592602610588074	1.003007173538208	0.23647673428058624	-0.14561724662780762	0.975504457950592	0.6625127196311951	-0.8515720963478088	0.29860803484916687	0.3712635934352875	-0.3862284719944	0.899761974811554	-0.556480884552002	-0.8190621137619019	0.01877482235431671	0.033626049757003784	0.4145900011062622	-0.45405587553977966	-0.19711410999298096	0.30557119846343994	0.4203762710094452	-0.09633155167102814	-0.2764877676963806	-0.4453273415565491	-0.5528838038444519	-0.5232526659965515	-0.12516896426677704	0.25319600105285645	0.5661576986312866	-0.042682476341724396	-0.4277254343032837	-0.10730062425136566	0.4215001165866852	0.4653517007827759	-0.2716626822948456	-0.11037653684616089	-0.27565109729766846	0.7138667106628418	0.06742706894874573	0.33268797397613525	1.2279822826385498	0.12954287230968475	0.6230907440185547	0.5873312950134277	0.7421851754188538	0.24735969305038452	-0.38139796257019043	1.0971683263778687	0.5451546311378479	-0.5485443472862244	-0.6787476539611816	0.2217022031545639	-0.2583784759044647	0.17183788120746613	-1.0515110492706299	-0.7614205479621887	-0.15017925202846527	-0.46979716420173645	-0.05796900391578674	-0.43148183822631836	-0.047078266739845276	0.0034297762904316187	0.2278544008731842	-0.5306691527366638	0.5306961536407471	-0.19828982651233673	0.6581522226333618	0.0948646292090416	-0.41276276111602783	0.5439649820327759	0.15621402859687805	0.4916713237762451	-0.15112930536270142	1.2464346885681152	0.18059875071048737	-0.0051329839043319225	-0.8024247288703918	1.1382085084915161	0.513461709022522	0.5397887229919434	-0.6192035675048828	0.17714327573776245	0.7756160497665405	0.27450573444366455	-0.009161516092717648	0.24481678009033203	-0.3154236376285553	0.2632559835910797	-0.46572670340538025	0.7067000865936279	0.30711430311203003	-0.6141479015350342	0.2624305486679077	-0.18470865488052368	0.3140048682689667	-0.06570794433355331	0.574013888835907	1.5289833545684814	-0.9837638735771179	0.44190487265586853	0.4129760265350342	-0.28080013394355774	0.48475950956344604	-0.05716124549508095	0.9883484840393066	0.2403634488582611	0.6478596329689026	-0.6579750180244446	0.7000834345817566	1.0080664157867432	-0.009781427681446075	0.11381301283836365	0.27776721119880676	-0.8359212279319763	0.10407866537570953	0.4294905662536621	-0.06882870942354202	-0.8435631990432739	-0.19325268268585205	-0.35712990164756775	-0.20316456258296967	0.23879842460155487	0.27365371584892273	0.07424716651439667	0.7424301505088806	0.10996834933757782	-0.7508179545402527	-0.6504669189453125	-0.48744088411331177	-0.6130382418632507	0.22446563839912415	0.5716543793678284	0.501205563545227	-0.8103845119476318	-0.16094136238098145	0.14698734879493713	-0.988893985748291	0.5160733461380005	-0.5769327282905579	0.4914778769016266	-0.04749835655093193	-0.25454002618789673	-0.11541315168142319	0.46672523021698	-0.22909881174564362	0.3486076891422272	-0.2845313847064972	0.799225926399231	-0.524675726890564	-1.2906198501586914	1.002684473991394	-0.4593488276004791	-0.2969270348548889	0.8878923058509827	-0.686248779296875	0.9078521728515625	-0.3019593358039856	-0.3309978246688843	-1.032232642173767	
http://dbpedia.org/resource/Guyana	-0.02933744341135025	1.0427669286727905	0.37644338607788086	-0.5771108865737915	0.6916173100471497	0.053088776767253876	-0.3424631357192993	0.1252254694700241	0.20034146308898926	-0.4627157151699066	0.734084963798523	-0.5655202269554138	-0.037752170115709305	-0.3443659842014313	-0.17721451818943024	0.7767590284347534	0.2663375437259674	0.6911686658859253	-1.289656639099121	-0.18567189574241638	-0.29226231575012207	0.2786094844341278	0.5272232890129089	0.5218043923377991	0.8937249779701233	-0.7626583576202393	0.42840269207954407	0.2768777012825012	-1.44831120967865	0.07429967820644379	-0.13920798897743225	0.10730074346065521	1.0701030492782593	0.32098913192749023	0.9091483354568481	-0.4308696985244751	0.6023772954940796	0.3802778422832489	-0.9834654331207275	0.3313152492046356	-0.2515743374824524	0.35617595911026	-0.1312825083732605	0.9370549917221069	0.3688454031944275	0.17040126025676727	-0.39019837975502014	0.7273260354995728	-0.7198246121406555	0.5112598538398743	-0.47812098264694214	0.08506520837545395	-0.10110831260681152	-1.2951589822769165	-0.7653248310089111	0.2422402948141098	-0.5659376382827759	-0.6183587908744812	0.22854650020599365	-1.185160756111145	0.3044070303440094	0.19222979247570038	-1.1939170360565186	-0.06242651119828224	-0.7455188035964966	-0.6227112412452698	0.12175831943750381	-0.232520192861557	0.19142316281795502	0.5292912125587463	0.18100126087665558	-0.05522916838526726	-0.31633418798446655	0.45364895462989807	0.4197390377521515	-0.01088925451040268	-0.3053171634674072	1.343266487121582	0.22186622023582458	1.2581536769866943	0.3185468018054962	1.15230131149292	0.1708698272705078	0.5830021500587463	0.15246713161468506	-0.22280655801296234	-0.13164260983467102	0.07674615830183029	0.6782677173614502	1.0893471240997314	-0.22344256937503815	0.17722956836223602	-0.09431473910808563	0.4883086383342743	0.32147008180618286	-0.375532865524292	0.22220557928085327	-1.824789047241211	-0.3067706525325775	0.278679221868515	-0.24611268937587738	0.15923015773296356	0.33095917105674744	-0.06807441264390945	-0.4256507456302643	0.3824351131916046	0.08124280720949173	0.19814495742321014	0.5264148116111755	0.06620114296674728	0.3693440556526184	-0.5253595113754272	0.3633607029914856	0.39826500415802	0.8493446707725525	0.9138550758361816	0.744959831237793	-0.4575940668582916	0.5168606638908386	0.31368014216423035	0.5078811049461365	-0.17451448738574982	-0.2721119225025177	0.03933461382985115	0.7799113392829895	-0.3899085223674774	-0.3761816918849945	-0.6406062841415405	0.6470587253570557	0.34461623430252075	0.6053975224494934	-0.8355050683021545	-0.5485901236534119	-0.12080443650484085	-0.9637057185173035	-0.3276684284210205	-0.27492406964302063	0.24242879450321198	-0.33988717198371887	-0.17546670138835907	-0.24010398983955383	-0.49338650703430176	-1.5690454244613647	-0.0405593067407608	-0.07738500088453293	0.5313432216644287	0.7554780840873718	0.3779749870300293	-1.2279422283172607	-0.3106478750705719	0.9145088791847229	-0.8458988666534424	0.10895251482725143	-0.16247667372226715	-0.6683833599090576	0.2421441525220871	-0.5726726651191711	-0.4626702070236206	-0.1806560903787613	-0.07706509530544281	-1.0040497779846191	-0.3383847773075104	-0.2942426800727844	0.06286263465881348	1.021470069885254	-0.4901807904243469	0.2925003468990326	-0.11759823560714722	-0.3544217348098755	0.336374968290329	-1.4403822422027588	0.0802718847990036	1.0108035802841187	0.9241557121276855	-0.7440453767776489	-0.25468337535858154	-0.31856998801231384	0.20889383554458618	-0.10941530764102936	-0.14634232223033905	-0.08418618142604828	-0.6390575170516968	-0.05178859457373619	0.10021568834781647	-0.47039467096328735	0.10032180696725845	0.11193067580461502	0.6648444533348083	0.30715611577033997	-0.4492320120334625	0.4995812773704529	0.6291427612304688	-0.48208382725715637	-0.46636930108070374	-0.42118674516677856	0.30667024850845337	1.153971552848816	-0.006057138554751873	-0.1734933704137802	-0.26697027683258057	
http://dbpedia.org/resource/Dominica	-0.39960816502571106	-0.4148390293121338	0.116033636033535	0.27603721618652344	-0.07703150063753128	0.6975436806678772	-0.9252645373344421	0.35256966948509216	-0.18613681197166443	-0.41502606868743896	1.5978628396987915	-0.445438027381897	0.008234373293817043	-0.6944673657417297	-0.4121415317058563	0.9467990398406982	1.2326338291168213	0.3877947926521301	-0.484710156917572	-0.7909387350082397	-0.37510401010513306	-0.3055782914161682	0.7201796770095825	-0.6400671601295471	0.12860704958438873	0.26745110750198364	0.06865043938159943	0.4240437150001526	-1.3107465505599976	0.44159144163131714	-0.8176968097686768	0.18827177584171295	0.3614620566368103	0.715342104434967	1.324204444885254	0.4130406975746155	1.099571704864502	0.5519260764122009	-0.577830970287323	-0.049729712307453156	-0.16846323013305664	-0.23437932133674622	-0.31685373187065125	0.6228669881820679	-0.4972596764564514	0.4198421537876129	0.5803773403167725	0.4267342984676361	-0.3133377432823181	0.11661766469478607	-0.4009327292442322	-0.21866533160209656	0.1183929592370987	-0.7884803414344788	-0.08731629699468613	0.22556406259536743	-0.43237069249153137	-0.1642492413520813	-0.36927714943885803	-0.28651875257492065	0.5196983218193054	-0.23372748494148254	-0.34114521741867065	0.23140382766723633	-0.6143059134483337	0.42440974712371826	-0.533177375793457	0.2762290835380554	0.10140002518892288	0.5096385478973389	0.09729357063770294	0.19761396944522858	0.23473912477493286	0.054716262966394424	0.4994020462036133	0.48519808053970337	-0.4459526836872101	0.28039059042930603	-0.8093442320823669	1.5162025690078735	0.4016178250312805	0.496971994638443	-0.6784460544586182	-0.19694137573242188	-0.023511718958616257	0.03881411254405975	-0.18987977504730225	0.6440961360931396	0.9223266839981079	0.9029003977775574	0.21560238301753998	-0.06400829553604126	-0.16378049552440643	0.3641682267189026	-0.3162674605846405	-0.18408696353435516	-0.4718802273273468	-0.5567631721496582	-0.4484292268753052	-0.3111118674278259	0.28950998187065125	-0.02106233313679695	-0.20689387619495392	-0.9610683917999268	-0.5316581726074219	0.592846155166626	0.4769241213798523	0.6571592092514038	-0.44067591428756714	-0.18602634966373444	0.5844477415084839	0.7580949068069458	0.24999070167541504	-0.020931120961904526	0.7023705840110779	-0.14761187136173248	0.7525613903999329	-0.6301009058952332	0.19806712865829468	0.3073984980583191	0.860407292842865	-0.09451419115066528	-0.12611407041549683	0.3720485270023346	0.1289563626050949	-0.26580098271369934	-0.28562673926353455	-0.6715844869613647	0.8426370024681091	-0.1896178126335144	0.47753939032554626	-0.15700776875019073	-0.24758130311965942	0.16531360149383545	-0.41624340415000916	-0.9923314452171326	0.21366316080093384	0.616590678691864	-0.014251265674829483	-0.801554262638092	-1.0149387121200562	-0.9862446784973145	-0.9724925756454468	0.17610158026218414	-0.27709802985191345	1.0481711626052856	0.5450608134269714	-0.2996216118335724	-0.951172947883606	-0.365322083234787	0.7078496217727661	-0.5129110813140869	0.04101555421948433	-1.0064339637756348	-0.8386453986167908	0.9125397205352783	-0.8453415036201477	-0.8233171701431274	-0.4218645393848419	-0.20377586781978607	-0.2924438714981079	-0.49954846501350403	-0.7729563117027283	0.5044950842857361	0.46419861912727356	-0.6186962127685547	0.4799126386642456	0.3335457444190979	-0.09542195498943329	-0.10811075568199158	-0.15317291021347046	-0.4142601490020752	1.292949914932251	0.5779208540916443	-0.38076815009117126	-0.0690026581287384	-0.3408743143081665	0.6033339500427246	-0.16623397171497345	-0.13457506895065308	0.7859193086624146	-0.5000947117805481	-0.6267706751823425	-0.3422703444957733	-0.9215891361236572	-0.6468369960784912	0.6606214642524719	0.3881663680076599	0.43548402190208435	-0.4804087281227112	-1.1915291547775269	0.09197220206260681	-0.571045458316803	0.17525304853916168	-0.2632206380367279	-0.20680759847164154	1.2910913228988647	0.10468477010726929	0.4538562297821045	-0.5583983659744263	
