http://dbpedia.org/resource/Chad_national_football_team	0.3476563096046448	0.19055137038230896	-0.7296777367591858	0.6360264420509338	0.009041007608175278	-0.3283916413784027	-0.027855636551976204	0.2835177481174469	-0.32829049229621887	-0.46573299169540405	-0.030287500470876694	1.3527445793151855	0.3212054371833801	-0.3122616708278656	0.4837656021118164	0.953593373298645	0.4838313162326813	0.1528567522764206	-0.9237775802612305	0.8268033266067505	-0.7116081118583679	-0.026930931955575943	0.7987431287765503	-0.7529024481773376	0.03134957328438759	0.661766529083252	0.9465588927268982	-0.7597430944442749	-0.5107102394104004	-0.7829447388648987	0.4868793189525604	0.24519313871860504	0.8044824004173279	-0.03631739318370819	0.441125750541687	0.9244718551635742	-0.4849564731121063	-0.5701388716697693	0.1574384719133377	0.21580995619297028	0.3656582832336426	0.588692307472229	-0.8619240522384644	0.02028731442987919	-1.1679383516311646	0.35534438490867615	0.11594395339488983	0.21187609434127808	-0.7678390741348267	0.5741793513298035	-0.39541107416152954	-0.21684511005878448	-0.07539485394954681	-0.07726134359836578	0.4336397647857666	0.4060906767845154	0.36048823595046997	0.19721761345863342	0.35815584659576416	-0.6048519611358643	-0.8088165521621704	-0.0691162645816803	-0.027862651273608208	-0.5515598058700562	0.45601609349250793	0.08790577203035355	-0.17093463242053986	-0.49142006039619446	0.09157654643058777	0.32269275188446045	-0.13898012042045593	0.22956565022468567	-1.0376096963882446	-0.22056621313095093	0.4326810836791992	-0.008359168656170368	0.5420563220977783	-0.0016472884453833103	-1.207250952720642	0.6532586216926575	0.002945817308500409	1.1035057306289673	0.7001510858535767	-0.13547024130821228	0.06863218545913696	0.4299294650554657	0.3273361325263977	0.42025092244148254	0.5165608525276184	-0.3757169544696808	0.49367278814315796	0.09601162374019623	0.39265167713165283	0.521327555179596	0.4345158040523529	0.23223556578159332	-0.2282041311264038	0.019781889393925667	0.46965929865837097	-0.3091074228286743	0.2393210381269455	0.5392805337905884	-0.3128376603126526	-0.462900847196579	0.19317500293254852	0.6850579380989075	0.44259968400001526	-0.3951038122177124	0.05841829255223274	-0.49661266803741455	-0.3249790668487549	0.9162843227386475	0.8651261925697327	0.5671442151069641	-0.05396866053342819	0.2458924800157547	0.022169319912791252	-0.07045523822307587	-0.009853232651948929	0.690470814704895	0.9889345765113831	-0.9123410582542419	-0.024366654455661774	1.077527642250061	0.7694337964057922	-0.4897235631942749	0.6937710642814636	-0.5883749127388	0.9507513642311096	0.1398383378982544	0.5880315899848938	0.11105028539896011	-0.7596759796142578	0.9795286059379578	-0.20567774772644043	-0.198548823595047	-0.6983129978179932	-0.1581401824951172	1.150741696357727	-0.6188380122184753	0.7197507619857788	0.22203443944454193	0.10285098105669022	0.4759124517440796	-0.5236644744873047	0.04563074931502342	0.16729043424129486	0.051799509674310684	-1.0418365001678467	0.609197199344635	0.9837469458580017	1.8493921756744385	-0.118013396859169	-0.7056128978729248	-0.4087033271789551	-0.2763960659503937	0.44815704226493835	0.11494328826665878	-0.3014007806777954	-0.4283807575702667	-0.5767945647239685	0.29854896664619446	0.39000052213668823	-0.26077786087989807	0.6717143058776855	0.35452210903167725	-0.561452329158783	-0.23193040490150452	0.21368491649627686	-0.5857381820678711	-0.6566683053970337	-0.3297877311706543	-0.2768692970275879	0.9959895610809326	-0.5183661580085754	0.6308435201644897	0.007605621125549078	-0.013864102773368359	-0.5219761729240417	-0.8823103308677673	0.9306071996688843	0.2048082798719406	0.35055336356163025	-0.05396270751953125	0.4867759346961975	-0.09918859601020813	0.739229679107666	-0.3223133385181427	0.35527440905570984	-0.5872374773025513	-0.551197350025177	-0.09311028569936752	-0.8542924523353577	-0.6471482515335083	0.9077644944190979	-0.049446091055870056	1.274364948272705	0.25653785467147827	-0.31978148221969604	-0.30342474579811096	
http://dbpedia.org/resource/Kenya_national_football_team	-0.20940576493740082	-0.37159618735313416	-0.2073928564786911	0.21409571170806885	0.3422510325908661	-0.17549970746040344	0.7779217958450317	0.22189031541347504	-0.021607043221592903	-0.7232698202133179	-0.18423575162887573	0.2054784893989563	0.4730829894542694	-0.4825230538845062	1.3016035556793213	0.3401719927787781	0.4346294403076172	0.17308180034160614	-0.8963489532470703	1.230333924293518	-0.6091060638427734	-0.40424543619155884	0.24057401716709137	-0.8877636194229126	-0.24618767201900482	-0.43910256028175354	0.0546058788895607	-0.5154893398284912	-0.7705094218254089	-1.1838663816452026	0.9202219247817993	1.478357195854187	0.6674383282661438	-0.1499880701303482	0.18455374240875244	-0.09805049002170563	-0.4480205178260803	-0.19746296107769012	-0.5040184855461121	0.1921626478433609	-0.4452631175518036	-0.27429071068763733	0.13891589641571045	0.42907342314720154	-0.3498772978782654	1.1924644708633423	-0.09964017570018768	0.9064820408821106	-0.2839682996273041	-0.061805132776498795	0.07168212532997131	-0.32895711064338684	-0.48401594161987305	-0.8079840540885925	-0.04526013880968094	0.005308675114065409	0.866675853729248	-0.3915688097476959	0.7139915227890015	-0.8396470546722412	0.08199374377727509	0.027243951335549355	0.2845621705055237	0.1817328929901123	-0.47707584500312805	0.5213842391967773	0.1408585011959076	0.07591123133897781	-0.1277819722890854	0.2904590368270874	-0.23684382438659668	-0.34634482860565186	-1.260962724685669	0.3303859829902649	0.08017347753047943	0.3149518072605133	0.745177149772644	0.5599391460418701	-0.7695760130882263	0.3027130961418152	0.131475031375885	1.2267451286315918	0.3796910047531128	-0.8242552280426025	0.16185177862644196	0.6172031164169312	-0.29215678572654724	-0.08387262374162674	0.48870596289634705	0.306733101606369	0.6579861044883728	-0.01074161659926176	-0.39320001006126404	0.9538646340370178	0.7943944931030273	-0.22913390398025513	-0.2478911429643631	-0.1231207326054573	0.3337281048297882	0.5121472477912903	-0.11585793644189835	0.3457570970058441	0.18703976273536682	0.07234250009059906	0.10001136362552643	0.5515342950820923	0.026134563609957695	-0.8109314441680908	0.13635756075382233	-0.9812588095664978	-0.6769946217536926	-0.1250375211238861	0.5562024116516113	0.6053555011749268	0.6165311932563782	-0.014342004433274269	-0.7293128967285156	-0.8491197824478149	0.8274931907653809	0.07482050359249115	0.5294139385223389	0.02755695767700672	-0.2886596918106079	1.260329008102417	0.5666925311088562	-0.5608415603637695	0.06218276917934418	-0.020521460101008415	0.17169328033924103	-0.07848961651325226	-0.22420667111873627	-0.23506945371627808	-0.10831393301486969	0.2967739403247833	-0.30639174580574036	0.022606149315834045	0.32311198115348816	0.24816839396953583	1.8614037036895752	-0.19058085978031158	-0.28767937421798706	0.0980999544262886	-0.8939805626869202	-0.35782068967819214	-0.259006142616272	0.3258267343044281	0.4714490473270416	0.809238076210022	-0.7131378650665283	-0.3768632709980011	0.27356433868408203	0.6054413914680481	-1.2350380420684814	-0.10537933558225632	-0.2603604197502136	-0.13163281977176666	-0.2446124106645584	1.1174503564834595	0.1366969496011734	0.19131144881248474	-0.3624967634677887	0.07679823786020279	0.1941676139831543	-0.32078784704208374	0.7030737400054932	0.3706182837486267	0.10606274753808975	-0.10187981277704239	-0.8247422575950623	-0.7485021948814392	-0.47473210096359253	-0.22248896956443787	0.2574506998062134	0.6984503865242004	0.26385411620140076	-0.6197466850280762	-0.009265679866075516	-0.1492696851491928	-0.08690257370471954	-0.8370701670646667	0.2695155143737793	-0.1799526959657669	0.6130171418190002	0.6295580267906189	-0.10713455080986023	0.6908419132232666	1.3021154403686523	-0.059732332825660706	0.580855667591095	0.00904796738177538	0.03500385954976082	-0.06090956926345825	-0.8184975981712341	0.08715879172086716	-0.03875797241926193	0.8401515483856201	1.3635772466659546	0.10678829997777939	0.43583565950393677	-0.8622667193412781	
http://dbpedia.org/resource/Myanmar_national_football_team	-0.9958511590957642	1.183853268623352	-0.33998772501945496	-0.5809270143508911	0.3722379207611084	0.34951674938201904	0.676008939743042	0.44031065702438354	-0.32434120774269104	-0.43921175599098206	0.07771310955286026	0.004158275201916695	0.4920077323913574	-0.1486503630876541	0.29260414838790894	0.3690629005432129	0.0985410064458847	0.6197099089622498	-1.3402345180511475	0.18943488597869873	-1.358290195465088	-0.10940150171518326	-0.12455904483795166	-0.014079121872782707	-0.3909589350223541	0.5514666438102722	0.7261749505996704	-0.1304771602153778	-0.03077288158237934	-0.39937064051628113	0.5429708957672119	1.4661962985992432	0.16328921914100647	-0.3482684791088104	0.48932453989982605	-0.5533627867698669	0.3449350893497467	-0.1728539615869522	0.12357832491397858	0.597696840763092	0.5786362290382385	-0.7589714527130127	-0.46319088339805603	0.05538095161318779	1.037049651145935	1.077917218208313	0.23168885707855225	0.0062483311630785465	-0.012536361813545227	0.552363932132721	0.06096912547945976	0.3888109624385834	-0.40736958384513855	-0.1364915817975998	0.41454166173934937	-0.6350969672203064	0.012831532396376133	-0.9697162508964539	0.9079959988594055	-0.6961311101913452	0.20313693583011627	-0.4794859290122986	-0.17354418337345123	-0.9122602343559265	0.4935450553894043	0.174235001206398	0.8199764490127563	-0.46386024355888367	-0.7824413180351257	-0.1625431776046753	-0.292563796043396	-0.22012710571289062	-0.6648511290550232	-0.7403262257575989	0.22681765258312225	0.5430434346199036	-0.6646045446395874	-0.0322129987180233	0.04936906322836876	0.5090436339378357	-0.057257961481809616	0.47505077719688416	-0.20947211980819702	0.016829708591103554	0.6020309329032898	-0.48150721192359924	0.7310178279876709	0.18233723938465118	0.7010178565979004	0.5469558238983154	-0.5138412714004517	0.39669734239578247	-0.758714497089386	0.2222566455602646	0.6777179837226868	-0.5294375419616699	0.11711597442626953	0.4917660355567932	0.40488824248313904	0.3312998116016388	-0.3854658901691437	0.3249433934688568	0.06116468086838722	-0.8261317014694214	-0.21543796360492706	1.0750114917755127	-0.045494046062231064	0.2771092355251312	0.6336778998374939	-0.2520528733730316	0.1351604014635086	0.3002723753452301	0.3907507658004761	-0.229587584733963	0.2987576723098755	-0.5564382672309875	-0.8823025226593018	-0.8715620636940002	0.5343942046165466	0.22090446949005127	0.6867068409919739	0.3990894854068756	-0.38123810291290283	0.40370526909828186	0.5786485075950623	0.1432914286851883	0.848516047000885	-0.07147875428199768	0.5251786112785339	-0.4770326614379883	0.3164278268814087	-0.015478982590138912	0.249628484249115	-0.34125402569770813	0.01415996253490448	0.5492733120918274	0.3394882380962372	-0.36908724904060364	1.0802258253097534	-0.5760277509689331	0.3771913945674896	-0.7028012275695801	-0.8033396005630493	-0.06363357603549957	-0.5763717293739319	0.20035144686698914	0.08934266865253448	0.058107491582632065	-0.7142057418823242	0.26503393054008484	0.7918513417243958	0.7987644076347351	0.5139921307563782	0.6162896156311035	-1.3205233812332153	-0.04666488617658615	-0.08473097532987595	-0.5937693119049072	0.042476754635572433	-0.3110627830028534	-1.4343966245651245	0.24328023195266724	-0.31374382972717285	-1.3746390342712402	-0.20117272436618805	-0.30317458510398865	-0.34138116240501404	0.07870091497898102	-0.5818493366241455	-0.8023704290390015	0.16266398131847382	-0.09262470155954361	0.3882805109024048	0.6765123605728149	-0.046761758625507355	0.4958863854408264	0.06198357045650482	-0.2890080213546753	0.3720698058605194	-0.8417367935180664	-0.2726851999759674	0.5647183656692505	0.6044882535934448	1.007259726524353	-0.13226816058158875	0.09979799389839172	1.1368809938430786	0.4323674440383911	0.6326155662536621	-0.19089961051940918	-0.4385775029659271	0.5340119004249573	-0.4133051633834839	-0.07496403902769089	-0.4810575842857361	0.28743043541908264	1.4266449213027954	0.09105582535266876	-0.03044299967586994	0.3025205433368683	
http://dbpedia.org/resource/Indonesia_national_football_team	-0.45894595980644226	-0.7064328789710999	-0.638796865940094	0.4947446286678314	0.2897408902645111	-0.7197332978248596	0.35471901297569275	0.18785327672958374	-0.7238591909408569	-0.3610270023345947	-0.46226102113723755	-0.36642083525657654	0.7108771204948425	-0.8782818913459778	1.367372989654541	-0.06272590160369873	0.22065794467926025	-0.03851898014545441	-1.6118143796920776	0.02305670827627182	-0.9054593443870544	-0.4181760847568512	0.012938128784298897	-0.4665968716144562	-0.27388301491737366	-0.19436362385749817	-0.3109295070171356	0.21537472307682037	-0.5925232768058777	0.022505493834614754	1.234651803970337	0.9495024681091309	0.8712438344955444	-0.34771329164505005	0.30122092366218567	0.07153267413377762	0.16444739699363708	-0.5986539125442505	-0.8006889820098877	-0.23262813687324524	0.3519527018070221	0.7492121458053589	-0.3679095506668091	0.45861801505088806	0.19511660933494568	0.35965496301651	0.03232540935277939	0.4969656467437744	0.11616357415914536	-0.30729037523269653	-0.059642672538757324	-0.4899112284183502	-0.24934586882591248	-0.41771090030670166	0.01621345616877079	-0.780462384223938	0.4045095145702362	-0.5637174844741821	0.44037744402885437	-0.43897977471351624	0.13480618596076965	-1.156728982925415	-0.05288276448845863	-1.033686637878418	0.0713772252202034	0.6575007438659668	0.3277387320995331	-0.2552495300769806	-0.7018777132034302	-0.10136085003614426	0.19153639674186707	-0.28029751777648926	-0.5474658608436584	-0.24998615682125092	0.3167422413825989	0.734403669834137	0.09201055765151978	-0.4412355422973633	0.3144766688346863	-0.08878139406442642	0.9737327694892883	1.613012671470642	0.06880681961774826	-0.13683447241783142	0.8909897208213806	0.1794813573360443	0.4146828055381775	0.3390709161758423	-0.2887505292892456	0.2109731137752533	0.1615033596754074	-0.08404005318880081	0.5797497034072876	0.1989428848028183	-0.6061007380485535	-0.14656494557857513	-0.6831446290016174	0.31339991092681885	0.04194631427526474	-0.71134352684021	-1.29348623752594	0.40396565198898315	0.07112211734056473	-0.29575249552726746	-0.04071567580103874	1.7643133401870728	0.024150779470801353	-0.05501534417271614	-0.15321902930736542	-0.26123568415641785	0.7332411408424377	0.8779032826423645	1.241942286491394	0.1375199407339096	0.13423779606819153	-0.007324527949094772	-0.3314262330532074	-0.46795058250427246	0.36204850673675537	0.6052854657173157	1.3465086221694946	-0.04963654279708862	-1.1454336643218994	0.1303073763847351	0.3965034782886505	0.19200782477855682	0.4996645450592041	-0.3607482314109802	0.6178103685379028	-0.2944926917552948	-0.3802531063556671	0.7846654653549194	-0.885222315788269	0.5387882590293884	-0.1330830454826355	0.38153037428855896	0.33448728919029236	-0.02804599329829216	0.725662112236023	-0.9744229316711426	-0.08567135781049728	-0.6040835976600647	-0.15431086719036102	-0.4950796961784363	-1.183013677597046	-0.03386850655078888	-0.0535963736474514	0.8068658113479614	-0.29701533913612366	0.041301876306533813	-0.2124510556459427	0.9394458532333374	0.041406646370887756	-0.2026393860578537	-1.1293078660964966	0.9049922227859497	-0.8339101076126099	0.17868685722351074	-0.10896354168653488	-0.1408424973487854	-0.5573895573616028	0.26960304379463196	-0.6362501978874207	-1.1166785955429077	-0.05677766352891922	-0.29751133918762207	0.2412627935409546	0.5335770845413208	0.4989129304885864	-0.27975860238075256	-0.10162076354026794	0.24958626925945282	-0.16491124033927917	0.11554338037967682	-0.6261276602745056	-0.5829116106033325	-0.5515666604042053	0.3118145763874054	0.8400842547416687	-0.6260339617729187	-0.13655410706996918	0.49297624826431274	0.08316246420145035	0.4485629200935364	-0.08416664600372314	-0.5213984847068787	0.6274163126945496	-0.544893205165863	0.4627380967140198	0.522185742855072	-0.1789568066596985	1.3591097593307495	-0.6791551113128662	0.5403468608856201	0.397201806306839	0.2977657914161682	1.5145461559295654	0.6902751922607422	-0.5241177082061768	-0.4106561839580536	
http://dbpedia.org/resource/North_Korea_national_football_team	-0.3975057303905487	0.11709363758563995	0.5754982233047485	-0.2620106339454651	-0.18713462352752686	0.04229359328746796	0.4270869791507721	0.33035433292388916	-0.04740794003009796	-0.10575892776250839	0.08127076923847198	0.15253539383411407	0.5521227717399597	-0.12690851092338562	0.8312055468559265	-0.6095083355903625	-0.4713452458381653	0.09422636032104492	-0.642089307308197	0.023775292560458183	-0.8976296186447144	-0.8193764090538025	0.4497857689857483	-0.2835574746131897	-0.4951069951057434	0.11686226725578308	-0.10687069594860077	-0.6584632992744446	-0.7510225772857666	0.20701324939727783	0.29504233598709106	0.7950435876846313	0.05191721022129059	0.25718000531196594	0.9360337853431702	0.34227630496025085	-0.45632776618003845	-0.3604589104652405	-0.3735029101371765	-0.3661807179450989	0.34984129667282104	0.14928779006004333	0.2332693636417389	-0.13915826380252838	0.054255176335573196	0.4689152240753174	0.23436245322227478	0.17713585495948792	-0.6511408090591431	0.6737409234046936	0.7611517906188965	0.24309873580932617	-0.5698102712631226	-0.09668983519077301	-0.6399102210998535	0.2600148022174835	1.0993971824645996	-1.357314109802246	0.638576328754425	-0.6748654246330261	-0.5971556305885315	-0.5260995030403137	0.2413136214017868	-0.7984369993209839	0.704967737197876	1.1042585372924805	0.1137070283293724	0.38848572969436646	-0.5351482629776001	0.3817734718322754	-0.03319460153579712	0.3213306665420532	-0.02673845738172531	-0.9803109765052795	0.939372181892395	0.21187177300453186	-0.12091415375471115	0.1052062138915062	0.3986969292163849	-0.4378194808959961	0.3531259298324585	1.8809008598327637	0.15780256688594818	0.41600728034973145	0.4232403039932251	-0.04208960384130478	0.36652591824531555	0.22809110581874847	0.3124258518218994	-0.01920272409915924	-0.12002000957727432	0.33367639780044556	-0.29978686571121216	0.36721426248550415	0.17933307588100433	-0.45780885219573975	-0.06104861572384834	0.6588338017463684	-0.4229426681995392	0.19266563653945923	-0.3953472673892975	0.5495491623878479	0.01810837909579277	-0.4696551263332367	0.057470303028821945	0.7310145497322083	0.2439292073249817	-0.7655055522918701	-0.3225385248661041	-0.027693795040249825	-0.4187740087509155	0.25103360414505005	1.1507911682128906	-0.2002081722021103	-0.03492901101708412	0.2575701177120209	-0.677130937576294	-0.6483219861984253	-0.04934154078364372	0.6737584471702576	0.2788700759410858	0.1181662380695343	-0.5189461708068848	0.05290881171822548	0.14786137640476227	0.3682572841644287	-0.16551755368709564	0.0910620391368866	0.6670429706573486	-0.6870547533035278	-0.36500275135040283	0.4774518609046936	-1.0659061670303345	0.13906371593475342	-0.6282815933227539	-0.6078780293464661	-0.7308793067932129	0.1834368109703064	1.445937156677246	-0.5008813142776489	-0.034001994878053665	0.10353939235210419	-0.6139048337936401	-0.5568786263465881	-0.7461459040641785	-0.02218746766448021	1.0945698022842407	-0.003212850308045745	-0.7835398316383362	0.11543653905391693	0.09775945544242859	0.4973343014717102	-1.0886234045028687	-0.37729811668395996	-0.034025516360998154	1.036157488822937	-0.40687257051467896	-0.3445313274860382	-0.06962184607982635	-0.363334596157074	-0.975443422794342	0.45184391736984253	-0.4727937877178192	-0.41015443205833435	-0.08510389924049377	0.41029471158981323	-0.05067269131541252	0.15016332268714905	-0.6772526502609253	-1.222670078277588	-0.6072795987129211	0.20449845492839813	0.20287422835826874	0.6311600208282471	-0.31148359179496765	-0.41406986117362976	-0.19299396872520447	-0.10315784811973572	0.5189855098724365	-0.34011203050613403	0.7516143321990967	-0.19672837853431702	-0.3457050323486328	-0.15303872525691986	0.04630006477236748	-0.7440754771232605	0.3055565357208252	0.17048819363117218	0.42016348242759705	-0.7086173295974731	-0.6094918251037598	0.7820139527320862	-0.35378116369247437	-0.6476865410804749	-0.48427608609199524	0.49610698223114014	0.7513250708580017	-0.04529883712530136	-0.2502584159374237	-0.8335976600646973	
http://dbpedia.org/resource/Dominican_Republic_national_football_team	-0.3471387028694153	0.691144585609436	0.32895025610923767	0.1547955721616745	-0.24202436208724976	0.2776220440864563	-0.17536267638206482	-0.2914126217365265	-0.5315558314323425	0.21053491532802582	0.7779290080070496	0.30785828828811646	-0.21666748821735382	-0.08663314580917358	-0.31374987959861755	0.6932436227798462	0.5245043039321899	0.4387703835964203	-0.7114992737770081	0.17889398336410522	-1.3992775678634644	-0.2923361361026764	-0.032638441771268845	-0.9471225738525391	0.6766654253005981	0.27039670944213867	-0.017612280324101448	-0.12371572107076645	0.04503292962908745	0.11786308139562607	0.3733062148094177	0.8255439400672913	0.3630806505680084	-0.2355521321296692	-0.0763484537601471	0.2968149781227112	0.35342392325401306	-0.5540496110916138	-0.45856839418411255	-0.11441808193922043	0.2985474467277527	0.23742860555648804	1.012052297592163	-0.36770302057266235	-0.6909180283546448	0.8121659159660339	0.509845495223999	0.42529264092445374	0.20072928071022034	0.3622232675552368	0.2621168792247772	-0.13972961902618408	-0.3095901608467102	0.6831626892089844	0.277763307094574	0.46589404344558716	-0.6017827391624451	-0.5587286949157715	0.3951979875564575	-0.5856809616088867	-0.4121882915496826	-0.6966491341590881	0.18791401386260986	-0.24721015989780426	-0.1936253160238266	0.6674361228942871	-0.3710073232650757	-0.14682674407958984	0.6876615881919861	0.40559065341949463	0.43079501390457153	0.3046492040157318	0.46126416325569153	-0.07859481871128082	0.7870644330978394	-0.35864585638046265	-0.20775042474269867	0.8550251722335815	-0.2665098011493683	0.7774420976638794	1.025261640548706	0.5717114210128784	-0.740541934967041	-0.5512756109237671	-0.7199162840843201	0.7630372643470764	-0.5377073884010315	0.44241178035736084	1.1949493885040283	0.6194581389427185	-0.2701893150806427	-0.5222537517547607	0.16232308745384216	0.20852738618850708	0.14090938866138458	-1.1450014114379883	-0.047280583530664444	-0.3113463521003723	-0.13309642672538757	-0.31505560874938965	0.010636823251843452	1.138590693473816	0.48232680559158325	-0.15728238224983215	0.08289598673582077	0.4612317383289337	0.008312839083373547	-0.03375215083360672	0.18093179166316986	-0.2959732115268707	-0.07505971938371658	0.5220940113067627	0.6596287488937378	0.37698686122894287	0.43331336975097656	-0.3166608214378357	-0.30559760332107544	-1.026341199874878	0.5725346207618713	-0.11837929487228394	0.9223266839981079	-0.551062285900116	0.046378690749406815	-0.39039021730422974	-0.17352619767189026	-0.6588615775108337	0.48361271619796753	0.029798919335007668	0.8893604278564453	-0.8106202483177185	0.030267439782619476	-0.6801995635032654	-0.3980649709701538	-0.046281032264232635	-0.7232210040092468	0.019040953367948532	0.34139516949653625	-0.2968554198741913	0.5804238319396973	-0.12050680071115494	-0.05843676999211311	-1.0466355085372925	-0.8613682985305786	0.7993625402450562	-0.5799700021743774	0.21352671086788177	0.514204204082489	-0.026240386068820953	-0.5505156517028809	-0.7508722543716431	1.1297006607055664	0.7026668787002563	-0.009898079559206963	0.010927379131317139	-1.5251609086990356	0.2853916883468628	-0.4911608099937439	0.3784688711166382	0.43154317140579224	0.5610426068305969	-0.19641940295696259	0.11069358140230179	-0.6314815282821655	-0.4953851103782654	-0.6384347677230835	-0.7583032250404358	-0.2386348843574524	-0.6743311285972595	-0.43079903721809387	-0.8678578734397888	0.44807788729667664	-0.0382336750626564	1.0386242866516113	0.8827220797538757	-0.6756808161735535	0.17687489092350006	-0.15951618552207947	-0.11964099854230881	-0.324164479970932	-0.771669328212738	0.821742594242096	-0.40156418085098267	0.8022915124893188	-0.10054384917020798	-0.6667396426200867	0.0035408849362283945	0.6600634455680847	-0.6337665319442749	0.41728857159614563	0.31363922357559204	-1.1063724756240845	0.3825066387653351	-0.5801922678947449	-0.030801523476839066	0.4304400086402893	0.0964064970612526	0.7132678627967834	0.44293496012687683	-0.026741378009319305	-0.008770531043410301	
http://dbpedia.org/resource/Costa_Rica_national_football_team	-0.7641870379447937	-0.014767543412744999	0.10939284414052963	0.6238317489624023	0.21016767621040344	0.4980769753456116	-0.20694613456726074	0.27927452325820923	-0.9193716645240784	-0.26450785994529724	0.7962610125541687	0.8347110152244568	0.4440140128135681	-0.16258889436721802	0.9401869177818298	0.5322088599205017	0.4793534278869629	-0.2767428457736969	-1.1449679136276245	0.25527718663215637	-0.2844940423965454	-0.07095978409051895	0.36020034551620483	-0.6153742074966431	-0.6126031279563904	0.37512466311454773	0.7136165499687195	0.6086324453353882	-0.6292454600334167	-0.2387332320213318	1.1012088060379028	0.7828682661056519	0.990796685218811	-0.20386816561222076	-0.17527492344379425	-0.2809629440307617	0.8370330929756165	-0.6086170673370361	0.06078842654824257	0.00152973725926131	0.12497497349977493	-0.0018307433929294348	0.029443243518471718	-0.5867211222648621	0.29111453890800476	0.7802395224571228	0.10104198008775711	-0.014528877101838589	-1.0517092943191528	0.07532595843076706	-0.4583328664302826	0.18686328828334808	-0.6163378357887268	0.15944324433803558	0.9987300634384155	-0.05538204312324524	0.8326259851455688	-0.8273240327835083	1.2511529922485352	0.45637860894203186	0.028769847005605698	-0.7662613987922668	0.13568496704101562	-0.5659781098365784	0.18152907490730286	1.0697557926177979	0.52060467004776	-0.3883770704269409	-0.30949798226356506	-0.6661360859870911	0.5028048157691956	0.14320816099643707	-0.6180438995361328	-0.3634922206401825	0.7501194477081299	-0.9041389226913452	1.1503444910049438	-0.2781980633735657	-0.24301379919052124	0.9241424798965454	0.6304075121879578	1.1894162893295288	0.44851386547088623	-0.2736864984035492	0.34577080607414246	-0.2562132179737091	0.7231881022453308	0.68349289894104	0.03431897982954979	0.24443718791007996	0.07924717664718628	0.3491230607032776	-0.9310784339904785	1.0673449039459229	0.10363923758268356	0.3135697841644287	0.09688525646924973	-0.07541676610708237	-0.294289231300354	-0.14248333871364594	0.3608216643333435	0.3411809504032135	0.027103617787361145	-0.4001356065273285	0.007598157040774822	0.585044801235199	-0.056787990033626556	0.37430840730667114	0.5298311710357666	-0.834074854850769	-0.026941893622279167	0.5754967331886292	0.9841555953025818	-0.11178705841302872	-0.13039003312587738	-0.9968917965888977	-0.349808931350708	-0.8754308223724365	-0.6522544622421265	-0.24636761844158173	0.9115419983863831	0.09924422204494476	-0.42488619685173035	-0.17794258892536163	-0.3399820625782013	-0.12980887293815613	0.3533684313297272	0.04938383027911186	1.0384951829910278	-1.1422317028045654	0.6032383441925049	-0.3666219711303711	0.09223200380802155	-0.04712024703621864	-0.2011566311120987	-0.4429301619529724	0.23489907383918762	0.4167027175426483	1.377935767173767	-0.34009966254234314	0.1957305669784546	-0.27056434750556946	-0.9331303238868713	0.43236327171325684	-0.8502655625343323	0.2617848813533783	1.2166069746017456	0.08997997641563416	-0.4420664608478546	-0.0882425308227539	0.6235682368278503	0.5915195345878601	-0.5110209584236145	-0.20360609889030457	-0.893358588218689	0.07803767919540405	-0.37107688188552856	-0.33043572306632996	0.37829792499542236	-0.22838366031646729	-0.8058531880378723	0.08773335814476013	0.054634448140859604	0.3647642731666565	0.42715057730674744	-0.44755983352661133	-0.5069518685340881	-0.477110356092453	-0.22175250947475433	-1.3010787963867188	-0.28124529123306274	-1.4491770267486572	0.6973345875740051	0.6146291494369507	-0.49929630756378174	0.5297061800956726	0.22696173191070557	-0.3828986585140228	-0.41411107778549194	-0.7310143113136292	0.1573883444070816	0.050972986966371536	-0.6376357078552246	0.489065021276474	0.020717550069093704	-0.9407216906547546	0.8927668333053589	0.7539805173873901	0.3215860426425934	-0.8986165523529053	-0.29038816690444946	-0.7200384140014648	-1.1918939352035522	-0.15017077326774597	0.7602989077568054	0.4408915936946869	0.8172334432601929	0.5114930272102356	0.1080416589975357	0.5685624480247498	
http://dbpedia.org/resource/United_Arab_Emirates_national_football_team	-0.7038348317146301	0.16343028843402863	-0.14811623096466064	0.24393503367900848	0.46007809042930603	0.0406828373670578	0.1047603115439415	0.1427638828754425	-0.23644840717315674	0.9021097421646118	-0.06987369805574417	0.3359026610851288	1.1081264019012451	-0.26089853048324585	0.588169276714325	-0.3116566240787506	-0.2615155279636383	0.35650932788848877	-0.9743216633796692	-0.18004290759563446	-0.9456842541694641	-0.04342477396130562	1.074318289756775	-0.7163465023040771	-0.3140385150909424	0.35509994626045227	0.1844663769006729	-0.2212488055229187	-0.7047588229179382	-0.46553561091423035	0.24765607714653015	1.9476215839385986	0.10274648666381836	0.05465026944875717	0.42504677176475525	0.3263188898563385	0.25251346826553345	-0.34487083554267883	-0.18385529518127441	-0.2190365493297577	-0.08269736915826797	0.05795109644532204	0.40973278880119324	0.7311701774597168	0.006103331223130226	0.7662774324417114	-0.00797133706510067	0.08716078847646713	-0.06875774264335632	0.31137344241142273	-0.329576700925827	-0.11379146575927734	-0.35166534781455994	0.8452704548835754	-0.13715042173862457	-0.1509973704814911	0.30747026205062866	-1.2893813848495483	0.5513481497764587	-0.1527772843837738	-0.3809889554977417	-0.09877309948205948	-0.009837215766310692	-0.16918717324733734	0.22371956706047058	-0.05721552297472954	-0.11201171576976776	-0.2118740677833557	-1.222999930381775	0.12771008908748627	0.46157437562942505	-0.06916315853595734	-0.21453405916690826	0.022332103922963142	0.5517372488975525	0.9580155611038208	-0.762793779373169	-0.7775730490684509	0.778950035572052	0.04849445819854736	0.9098290801048279	1.1416083574295044	0.8350679874420166	-0.6757735013961792	0.3850030303001404	-0.49263232946395874	0.10135608166456223	0.9533128142356873	0.8161001801490784	0.6239597201347351	-0.26005852222442627	0.4966319799423218	-0.3151772618293762	-0.35054460167884827	0.3418421149253845	0.5538409948348999	0.7813499569892883	0.4768664836883545	-0.13053615391254425	-0.07842356711626053	-0.25314638018608093	-0.13735848665237427	-0.6760250329971313	-0.5313800573348999	0.4511909484863281	1.0255465507507324	0.2913442552089691	-0.18131133913993835	0.32364508509635925	-0.022004518657922745	0.044235050678253174	1.253619909286499	1.4286748170852661	0.12415635585784912	-0.37638697028160095	-0.1617661565542221	-0.5413257479667664	-0.24755439162254333	0.7872111201286316	-0.059862345457077026	1.1002836227416992	0.46774759888648987	-0.6892526745796204	0.9534991979598999	1.0644078254699707	-0.262202650308609	-0.24618996679782867	-0.5573477149009705	0.22886578738689423	-0.47629106044769287	-0.6081909537315369	-0.9239705204963684	-0.17804428935050964	0.27071255445480347	-0.4809322953224182	0.005106837954372168	-0.16788429021835327	-0.30718907713890076	0.941672146320343	-0.3156620264053345	-0.47309762239456177	-0.8838252425193787	-0.2917323708534241	-0.226516991853714	0.22913113236427307	-0.466508686542511	-0.32904064655303955	0.37902507185935974	-0.47928741574287415	-0.4148397445678711	0.44114774465560913	0.22613786160945892	0.3139971196651459	0.47442343831062317	0.37339234352111816	-0.07485029846429825	-0.01180098857730627	-0.5455570220947266	-0.37761586904525757	-0.05995380878448486	-0.6805916428565979	-0.6170345544815063	0.22368387877941132	0.41911962628364563	0.3649197220802307	0.12375643104314804	-0.505690336227417	-0.4832971394062042	-0.2751685082912445	-0.8296826481819153	0.4163200259208679	0.38707250356674194	0.7822751998901367	0.5548222661018372	-0.4728895425796509	-0.2995760440826416	-0.21079745888710022	-0.36917001008987427	0.15816432237625122	-1.5095089673995972	-0.5967843532562256	-0.27724164724349976	-0.8630314469337463	0.5296204090118408	1.1335082054138184	-0.1549280881881714	1.127038836479187	0.35105374455451965	0.6538413166999817	-0.4394121468067169	0.010454695671796799	-0.005694536957889795	-0.5679959654808044	-0.3216434121131897	0.5087370872497559	-0.0017898444784805179	1.0297024250030518	-0.2544732987880707	-0.25155243277549744	0.14772462844848633	
http://dbpedia.org/resource/Guyana_national_football_team	-0.2835656404495239	0.5930913090705872	-0.25282126665115356	-0.4534256160259247	-0.3674143850803375	-0.36687347292900085	-0.34882673621177673	0.24588800966739655	-0.1831006407737732	-0.2581483721733093	0.3484325408935547	0.9608572125434875	-0.12901046872138977	-0.18034961819648743	0.1009526476264	0.7438339591026306	0.18059028685092926	0.20648431777954102	-1.2380064725875854	0.16612902283668518	-0.82879638671875	0.3404310345649719	0.7128276824951172	0.07157595455646515	0.5708697438240051	0.1369398683309555	0.6198697686195374	-0.43605902791023254	0.32493335008621216	-0.4599604308605194	0.35136064887046814	1.0634758472442627	0.4588574171066284	0.17452198266983032	0.5930727124214172	-0.07543390244245529	0.1084514856338501	-0.4445004463195801	-0.24386991560459137	-0.4665239453315735	0.07093873620033264	0.0764089971780777	0.24617162346839905	0.5226805210113525	0.5305014252662659	1.4020965099334717	0.269008070230484	-0.4128313362598419	0.16137616336345673	-0.08605186641216278	-0.287197470664978	-0.29297107458114624	-0.2576960027217865	-0.6557966470718384	0.18068940937519073	0.2926406264305115	-0.20927807688713074	-1.6679683923721313	0.10709408670663834	-0.6515606045722961	0.07743219286203384	-0.31739482283592224	0.33801978826522827	0.21862231194972992	-0.06886608153581619	0.4607064127922058	-0.4800863564014435	-0.1308986246585846	0.6215853095054626	0.3650723099708557	-0.6666132211685181	-0.28494054079055786	-0.19683772325515747	0.3153288960456848	-0.15137144923210144	0.5379838943481445	0.3633621037006378	0.8466634154319763	0.006932335440069437	0.53382408618927	1.1198430061340332	0.4283200800418854	-0.05855906754732132	-0.19771000742912292	-0.25491011142730713	0.38876742124557495	-0.822756826877594	0.2982545495033264	0.9037188291549683	0.08942379802465439	-0.0634680911898613	0.5694028735160828	-0.6445200443267822	0.5216257572174072	0.20893652737140656	-0.03734702244400978	0.1264394223690033	-0.6418806910514832	0.2533981502056122	-0.07024675607681274	-0.07726041972637177	0.3170892596244812	-0.25129932165145874	-0.14947575330734253	0.16942134499549866	0.1644996553659439	0.39640456438064575	0.28369855880737305	0.47988155484199524	-0.024371743202209473	-0.39242520928382874	0.3010769784450531	1.0562732219696045	0.09310508519411087	0.2859208583831787	-0.6360095143318176	0.4208095371723175	-0.5220217704772949	0.45307260751724243	0.2421186864376068	0.5127842426300049	0.4289107918739319	-0.6971403360366821	0.8498290777206421	0.46318766474723816	-0.7967060804367065	-0.12124916166067123	-0.7763276100158691	0.32913297414779663	-0.4726535677909851	-0.2864345908164978	-0.15076273679733276	-0.8353098630905151	-0.3887476623058319	0.3492664098739624	-0.07344350963830948	-0.054208531975746155	0.3948042690753937	0.947540819644928	-0.3201521933078766	0.028052739799022675	0.022794218733906746	-0.9057244062423706	-0.004575324710458517	-0.32558003067970276	-0.07813873887062073	0.5168606638908386	0.014645567163825035	-1.4781322479248047	-0.5994225740432739	1.1929265260696411	0.7619478106498718	-0.304738312959671	0.5300562381744385	-1.8787784576416016	-0.3465651571750641	-0.8580622673034668	0.6273276805877686	0.9382555484771729	-0.8765190839767456	-1.1834830045700073	-0.3147073984146118	0.23885516822338104	-0.28027766942977905	0.5062436461448669	-0.565468966960907	-0.39823389053344727	-0.41691112518310547	-0.22392910718917847	-0.8708245754241943	-0.4922467768192291	0.4318248927593231	0.7196155786514282	1.017500400543213	0.0018579077441245317	0.08288047462701797	-0.013700732961297035	-0.1930828094482422	0.5970348715782166	-0.1422203928232193	0.7108635902404785	0.05093618109822273	0.014227017760276794	-0.02436876855790615	-0.16086916625499725	0.10144738107919693	0.7681176066398621	-0.36789700388908386	0.6782343983650208	-0.5683935880661011	-0.4457801282405853	0.5659423470497131	-1.0433517694473267	0.22328592836856842	0.1827756017446518	0.3581518828868866	1.167446255683899	0.2254776507616043	0.10223714262247086	0.0842909887433052	
http://dbpedia.org/resource/Ghana_national_football_team	-1.1959041357040405	-0.37834158539772034	-0.48178574442863464	-0.09108073264360428	0.2916508913040161	-0.2234157770872116	0.8443054556846619	0.1733478158712387	-0.5998667478561401	-0.48931199312210083	-0.3076651394367218	0.2584705352783203	0.3954755961894989	-0.2942749857902527	-0.12294815480709076	0.2461095154285431	0.4480809271335602	0.6188270449638367	-0.7707799077033997	0.8067495226860046	-0.12770697474479675	-0.9250360131263733	0.6774865388870239	-0.3017868101596832	-0.2472139149904251	1.2504650354385376	0.009219503030180931	-0.16763827204704285	-0.4706498682498932	-0.16636031866073608	0.3832002580165863	1.2717469930648804	0.35876208543777466	0.07810943573713303	0.9393032193183899	0.3566083014011383	0.7659502029418945	-0.7937510013580322	1.1385910511016846	1.054866909980774	0.4418208599090576	-0.5139139890670776	0.06466014683246613	0.3419850468635559	-0.05538536608219147	0.7573666572570801	-1.24066162109375	0.7480192184448242	0.3109022378921509	0.7711060643196106	-0.3917905390262604	0.08014347404241562	-0.39528289437294006	-0.4247601628303528	-0.31124061346054077	1.118707299232483	0.3153938949108124	-1.4905487298965454	0.2769409418106079	0.527832567691803	-0.8733904361724854	-0.5465720891952515	-0.5075820684432983	-0.11299730092287064	0.22617653012275696	-0.06106974557042122	0.3461940586566925	0.036111343652009964	-0.24315956234931946	-0.5061221718788147	0.39939242601394653	-0.30613553524017334	-1.1639295816421509	0.3004991114139557	-0.28501394391059875	0.6515277624130249	0.3224804103374481	0.21953900158405304	-0.35058313608169556	-0.2187098115682602	0.010837256908416748	0.4508124589920044	0.3264212906360626	-1.1057268381118774	0.9728469848632812	0.5185530185699463	0.5173560976982117	0.8571344017982483	0.5397111773490906	0.5900624394416809	1.0268447399139404	-0.7746139764785767	0.3009280264377594	0.49977362155914307	0.45406028628349304	-0.07744628190994263	0.04452572390437126	0.6721420884132385	-0.49722346663475037	-0.7514395117759705	0.22144150733947754	0.0732601135969162	0.23847202956676483	0.7621877193450928	-0.36741533875465393	1.184994101524353	-0.13678139448165894	-0.266867458820343	-0.3061538338661194	0.2032845914363861	-0.9422171711921692	0.555090069770813	0.8441942930221558	0.5449214577674866	-0.5701398849487305	0.08324301242828369	-0.8904788494110107	0.22268083691596985	0.2936696410179138	0.5662837028503418	0.9559478759765625	-0.7146050333976746	-0.809472382068634	0.03790882229804993	0.5156457424163818	-0.12446821480989456	0.33884158730506897	-0.9904742240905762	0.7367751002311707	-0.28655916452407837	-0.4168112277984619	0.06589744985103607	0.10591030865907669	0.5147842168807983	-0.20152921974658966	0.2651902735233307	-0.25331488251686096	-0.01761195994913578	1.493916392326355	-0.3248763084411621	0.013162875548005104	-0.030412951484322548	-0.9104593992233276	0.20970241725444794	0.3637608587741852	-0.8263644576072693	-0.20726436376571655	-0.2137313038110733	-1.2317012548446655	-0.28973767161369324	0.11128123104572296	0.9081040620803833	-0.2573409974575043	0.5247368812561035	-0.7392892241477966	0.11936693638563156	-0.227052241563797	0.572293758392334	0.058843497186899185	-0.8441996574401855	0.057719938457012177	0.030421050265431404	-0.10800735652446747	-0.5527106523513794	1.2251310348510742	0.29697385430336	-0.21915848553180695	0.021927647292613983	-0.963225781917572	-1.5364402532577515	-1.0673328638076782	-0.6653631329536438	1.129104495048523	0.6512688398361206	-0.09450235962867737	-1.071423053741455	-0.3769914209842682	0.633912980556488	-0.477343887090683	-0.14161580801010132	0.8808934092521667	-0.12225478142499924	-0.06061025336384773	0.6456219553947449	0.020092539489269257	0.3074813783168793	1.7282910346984863	-0.0013026287779211998	-0.1479649692773819	-0.6680358648300171	-0.1660514622926712	-0.6431646943092346	-1.3617538213729858	-0.2892950177192688	-0.38231855630874634	0.022120622918009758	0.7833950519561768	-1.109397292137146	-0.3664480447769165	0.046075135469436646	
http://dbpedia.org/resource/Namibia_national_football_team	-0.37364163994789124	-0.1587507128715515	0.25709018111228943	-0.4479457437992096	0.8551011085510254	-0.6535714864730835	0.3762941360473633	0.5432343482971191	-0.22905167937278748	-0.9533829092979431	0.7151181697845459	0.39413100481033325	0.4479736387729645	0.20599275827407837	0.2103116661310196	0.06758908927440643	0.10641712695360184	1.077612280845642	-0.28943684697151184	0.3821178376674652	-0.318782240152359	-0.15471124649047852	0.4512680470943451	-0.8593896627426147	-0.12599508464336395	0.4524414539337158	-0.14775103330612183	-0.22547362744808197	0.018968990072607994	-0.9675628542900085	-0.22409985959529877	1.0630877017974854	0.7434883713722229	0.02974426932632923	0.17435860633850098	0.2676820158958435	0.62349933385849	0.5303020477294922	-0.10542737692594528	-0.30492228269577026	0.7866033911705017	0.6412823796272278	0.5042169094085693	0.7514408230781555	-0.2994964122772217	1.4760890007019043	0.19717411696910858	-0.0883701890707016	0.2872926890850067	0.17716939747333527	0.5735451579093933	0.40795302391052246	0.3133620619773865	0.5465599894523621	-0.3027382791042328	0.3018140196800232	0.3063063621520996	-1.2946949005126953	0.027538705617189407	-0.6304227113723755	-0.30489611625671387	0.2035416066646576	-0.057077303528785706	0.5569930672645569	0.4031605124473572	0.609891951084137	0.19713877141475677	-0.5656366348266602	0.22503842413425446	-0.23826418817043304	-0.5687935948371887	-0.45849987864494324	-0.6257038116455078	-0.18772128224372864	0.35843905806541443	-0.6059717535972595	-0.34788039326667786	0.23420506715774536	-0.5673820376396179	0.3752107620239258	0.07860779762268066	0.7329859137535095	-0.11975543946027756	-0.2786947190761566	0.12575264275074005	1.0000993013381958	-0.030836617574095726	0.42566269636154175	0.6257153153419495	1.0592011213302612	0.22554625570774078	-0.13672667741775513	-0.4597853422164917	0.7209980487823486	0.19521115720272064	-0.8096424341201782	0.33275073766708374	0.043588295578956604	0.34435611963272095	-0.24087242782115936	-0.6653302311897278	-0.373684287071228	0.033527571707963943	0.10522856563329697	1.030206322669983	0.4478593170642853	-0.027482375502586365	0.01673758029937744	-0.3585616648197174	-0.07657458633184433	0.10928638279438019	0.1264919638633728	1.0585252046585083	0.14947907626628876	0.24056653678417206	0.015911342576146126	0.42365390062332153	-0.26498302817344666	0.36375775933265686	-0.5733662247657776	0.9062454700469971	-0.4102018177509308	-0.10668119788169861	0.57293701171875	1.0179184675216675	-0.7720557451248169	0.18318307399749756	-0.5138406753540039	0.6968303918838501	-0.1765548586845398	0.3296051323413849	-0.5639507174491882	-0.1686231940984726	0.2941945791244507	-0.47587403655052185	0.4864230751991272	-0.27869856357574463	0.7355146408081055	1.1353604793548584	0.39596468210220337	-0.025200745090842247	-0.22377066314220428	-1.2629033327102661	0.2762022614479065	-0.772883415222168	0.6274085640907288	0.7980667948722839	0.604544460773468	-0.4169931709766388	0.0073938509449362755	0.20125742256641388	0.30399930477142334	-0.35338619351387024	-0.2241417020559311	-1.0059651136398315	-0.12358666956424713	-1.0810245275497437	-0.3095445930957794	-0.4407136142253876	0.1429833471775055	-0.7782797813415527	-0.3837737739086151	-0.4446539580821991	-0.5414770245552063	0.16875828802585602	-0.09777294844388962	-0.45795732736587524	-0.24587228894233704	-0.41106492280960083	-0.8788591623306274	-0.34276556968688965	-0.04381612688302994	0.3817395269870758	0.6048425436019897	0.3154691755771637	-0.4137246608734131	-0.8443349003791809	0.6786870360374451	0.25539836287498474	-0.025302130728960037	0.7434523701667786	0.4554036855697632	0.27194035053253174	0.248349130153656	0.40665358304977417	0.09679558873176575	0.680959939956665	-0.18017421662807465	1.0474351644515991	-0.7812944650650024	-0.8265506029129028	0.2065936028957367	-1.0875961780548096	-0.6812808513641357	-0.34846100211143494	0.5246574282646179	0.9498313665390015	0.24518609046936035	-0.10694710910320282	-0.6618210673332214	
http://dbpedia.org/resource/Saint_Lucia_national_football_team	-0.01008697971701622	-0.4927213191986084	-0.4457274377346039	-0.3854561150074005	-0.5552427768707275	-0.19778625667095184	-0.5637511014938354	-0.26595577597618103	-0.15058232843875885	0.020105835050344467	0.4010756313800812	-0.054233331233263016	0.059835366904735565	-0.3686853051185608	-0.48511815071105957	0.33292946219444275	0.47054874897003174	0.4905391037464142	-1.455711007118225	-0.04864511266350746	-0.8470016717910767	0.06934159994125366	-0.33815109729766846	-0.3276593089103699	0.48049041628837585	0.8627611398696899	-0.1785663366317749	-0.3973686993122101	0.7138743996620178	-0.8114414811134338	0.28305166959762573	0.6292474269866943	0.965855062007904	-0.14880970120429993	0.9112949371337891	0.21596990525722504	0.3539390563964844	-0.1918070912361145	-0.5270591974258423	-0.09309423714876175	0.24050545692443848	0.37630003690719604	-0.1497175097465515	0.13183240592479706	0.3783751428127289	1.0638235807418823	0.049942970275878906	-0.18920375406742096	-0.5434314608573914	-0.3475320637226105	1.243661880493164	0.11209355294704437	-0.22884328663349152	0.12120936810970306	-0.06417559087276459	0.42571261525154114	0.3356647193431854	0.05527934804558754	0.35937508940696716	-0.9868075847625732	-0.40400266647338867	-0.8640583157539368	0.14045286178588867	-0.6892571449279785	-0.41318413615226746	0.7000964879989624	-0.0025317934341728687	0.4877961277961731	0.33878293633461	-0.009260129183530807	-0.7148872017860413	-0.19084937870502472	-0.26036545634269714	-0.4248484671115875	0.39044466614723206	0.17902016639709473	0.003139273962005973	-0.2544543147087097	0.42441436648368835	0.6693345308303833	0.29665708541870117	0.8192116618156433	0.6563550233840942	-0.4802984595298767	-0.44837436079978943	0.4319813847541809	-0.3746648132801056	0.8158351182937622	-0.11825741827487946	0.7069021463394165	0.5826278328895569	-0.4259386360645294	0.30431193113327026	0.8468917012214661	0.28660839796066284	-0.1136414110660553	-0.5340723991394043	0.19338572025299072	0.40886640548706055	-0.39167094230651855	-0.22846271097660065	0.23133866488933563	-0.24517947435379028	0.21039259433746338	0.014999713748693466	0.739528477191925	0.3913338780403137	-0.25365474820137024	0.5872665047645569	-0.3207356631755829	-0.10634312778711319	0.38778620958328247	1.0711274147033691	0.1538701057434082	-0.013450626283884048	-0.704994797706604	-0.2066623568534851	-0.3109816312789917	0.04251181334257126	-0.4640793204307556	1.644054889678955	-0.12004106491804123	-0.3106500804424286	1.2015600204467773	-0.20062196254730225	-1.166762113571167	0.4348140358924866	-0.14140039682388306	0.6745311617851257	-0.6190622448921204	-0.4598376452922821	-0.6370424628257751	-0.4079192280769348	0.1929195523262024	0.06919167190790176	-0.35195067524909973	-0.0847877785563469	0.42182403802871704	0.8684900403022766	-0.47457775473594666	0.5398883819580078	-0.6798540949821472	-0.8053641319274902	0.547669529914856	-1.3071261644363403	-0.5195988416671753	0.9618306756019592	0.009696822613477707	-1.0598499774932861	-0.48745274543762207	0.44429123401641846	0.5580720901489258	-0.22667597234249115	0.13313628733158112	-1.0845487117767334	0.8434770107269287	-0.22393056750297546	-0.030657146126031876	-0.04337485879659653	-0.22748413681983948	-0.7311508059501648	-0.16552770137786865	-0.5493950247764587	0.0472237803041935	0.07550959289073944	-0.7627664804458618	-0.8951317667961121	-0.2920571267604828	-0.622219979763031	-0.6446176767349243	-0.6719446778297424	-0.10477829724550247	0.755395233631134	0.5165848135948181	-0.15742844343185425	0.13171610236167908	0.010067104361951351	-0.05565767362713814	0.4363393485546112	-0.8432100415229797	0.5734007954597473	-0.1895975023508072	-0.16956695914268494	-0.3772622346878052	-0.3274597227573395	-0.47059139609336853	0.46695080399513245	0.4737749695777893	0.35244107246398926	-0.43628907203674316	-0.48514795303344727	0.13321949541568756	-1.1505980491638184	-0.05873957276344299	0.04567258059978485	-0.3022489845752716	0.9297701716423035	-0.13668663799762726	-0.16448178887367249	-0.17425164580345154	
http://dbpedia.org/resource/Kyrgyzstan_national_football_team	-0.08203311264514923	0.7802001237869263	-0.2137892097234726	-0.335824191570282	0.2587181329727173	0.0836416706442833	0.16942152380943298	0.7541226744651794	-0.50620436668396	-0.18685926496982574	0.6737748980522156	0.2549634575843811	0.1436925232410431	0.1813507378101349	0.20245347917079926	-0.5754001140594482	0.28872212767601013	0.5108173489570618	-0.0913659855723381	0.5111045837402344	-1.7893452644348145	-0.5955487489700317	0.13925179839134216	-1.0716345310211182	-0.403100848197937	0.9074529409408569	0.28862690925598145	-0.11540107429027557	0.44213876128196716	0.04699794575572014	0.787757396697998	1.0361824035644531	0.2833174765110016	-0.5637622475624084	-0.0224002655595541	-0.9679962992668152	0.14948906004428864	-0.18642494082450867	0.6807295680046082	-0.8639739751815796	0.2634715437889099	-0.4693947434425354	-0.15044525265693665	-0.34454140067100525	0.6159897446632385	1.253987193107605	0.359340637922287	-0.3811841905117035	-0.8161711096763611	0.639513373374939	1.0880521535873413	0.4950511157512665	-0.008607220835983753	-0.47239595651626587	-0.41517797112464905	0.1391841620206833	0.5919831395149231	-1.1965960264205933	0.31086868047714233	-0.11281998455524445	-0.47308528423309326	-0.8043355345726013	-0.22063212096691132	-0.7500571012496948	-0.3096420168876648	0.18806040287017822	-0.5541020631790161	0.4586036801338196	-0.1444578915834427	0.4988093078136444	0.046780940145254135	0.9097461700439453	-0.7366610765457153	-0.5571687817573547	-0.09805426001548767	0.006082682404667139	0.28055402636528015	0.10025076568126678	0.28270041942596436	0.7705329060554504	-0.46058186888694763	0.720281720161438	-0.16154718399047852	-0.18372640013694763	0.16004319489002228	0.7527948021888733	-0.14028042554855347	-0.027184627950191498	1.0456804037094116	0.27218592166900635	-0.4872368574142456	0.5328822135925293	-0.055483534932136536	0.040416866540908813	-0.24184779822826385	-0.07794877141714096	-0.37301430106163025	0.6891027688980103	0.8787779808044434	-0.01788230985403061	0.07451310008764267	0.04653488099575043	0.3301149010658264	0.32623040676116943	-0.0993867889046669	0.9608021378517151	-0.28140324354171753	0.4157648980617523	0.20611806213855743	0.007323085330426693	-0.002880733460187912	0.4891257584095001	0.5581726431846619	-0.18941518664360046	0.3613332509994507	-0.5476716160774231	0.9134050011634827	-0.5906068086624146	-0.18777014315128326	-0.14389950037002563	1.0895410776138306	0.01271380577236414	-1.240509033203125	0.4067424535751343	0.17124412953853607	0.12859556078910828	1.0577377080917358	-0.3396260142326355	0.42125552892684937	-0.44530996680259705	0.10237998515367508	0.44845250248908997	-0.5085186958312988	0.6047239303588867	0.23653851449489594	-0.0656409040093422	0.506712794303894	-0.4314609169960022	0.9694550037384033	-0.30554497241973877	0.1328510046005249	-0.5038679242134094	-1.1388815641403198	-0.4001803994178772	-0.3274425268173218	-0.3427754342556	0.5285832285881042	0.5649694800376892	-0.26421210169792175	1.1195626258850098	0.9093120098114014	0.8151320219039917	0.19194689393043518	0.4771392345428467	-0.18359757959842682	0.32053476572036743	-0.19937528669834137	-0.56117182970047	-0.2107369303703308	0.04777955636382103	-1.0189403295516968	0.2972957491874695	-0.36527204513549805	-0.23632627725601196	-0.07255350798368454	-0.18594428896903992	-0.8355834484100342	-0.4905928373336792	-0.5114443898200989	-0.4362322986125946	-0.024250708520412445	-0.058267220854759216	0.6004310250282288	0.5143375396728516	0.03981403261423111	-0.23225471377372742	-0.47741982340812683	-0.32489028573036194	0.39573121070861816	-0.6948601007461548	0.24572552740573883	0.14829914271831512	-0.2310768961906433	0.8560658693313599	-0.14580224454402924	-0.2870272994041443	0.8507826924324036	0.012835334986448288	1.0156207084655762	-0.9275667071342468	-0.36537861824035645	0.3909744322299957	-0.3847702443599701	-0.13258591294288635	0.31144317984580994	-0.020682038739323616	0.9872147440910339	0.8181912899017334	0.11934958398342133	-0.2927672863006592	
http://dbpedia.org/resource/Croatia_national_football_team	-0.9031704664230347	0.1597985178232193	-0.030293961986899376	-0.58115553855896	0.46330517530441284	-0.6880533695220947	0.28391024470329285	0.8730669021606445	-0.3975767493247986	-0.10415025055408478	-0.08709900081157684	0.24573712050914764	-0.3337399661540985	-0.7666351199150085	0.20843204855918884	0.5854927897453308	0.07053651660680771	-0.4138011932373047	-1.434590220451355	0.08115829527378082	-1.4919904470443726	-0.24304169416427612	0.3708748519420624	-0.5599513053894043	1.257657766342163	0.6165419816970825	0.9288051128387451	-0.00969987828284502	-1.0872113704681396	-0.39273786544799805	0.7477390766143799	0.7227579355239868	1.1608189344406128	0.07337061315774918	-0.49488890171051025	0.6523659825325012	0.6997876763343811	-1.0807116031646729	0.03620754927396774	0.5355460047721863	-0.31664079427719116	-1.0087080001831055	0.7520017623901367	0.6910449862480164	0.18334190547466278	0.483585000038147	0.0667225643992424	-0.37603887915611267	-0.28843143582344055	0.36191877722740173	-0.05716744810342789	0.020106889307498932	-0.8280274868011475	-0.5700641870498657	-0.11442820727825165	0.4391971230506897	0.5555979013442993	-0.3196094036102295	0.3435324430465698	-0.21441541612148285	-0.10066233575344086	-0.5294557809829712	-0.0022963634692132473	-1.2181389331817627	-0.7726677656173706	0.6895133256912231	-0.19901619851589203	0.5554586052894592	0.20484620332717896	-0.04252038151025772	-0.9818211793899536	-0.3805301785469055	-0.2817516028881073	0.19219182431697845	0.6701920032501221	0.31701698899269104	-0.0305592343211174	-0.5823245048522949	-0.22643156349658966	0.7689436078071594	0.7819247841835022	1.305794358253479	0.4860042333602905	-0.5691694021224976	-0.1483323872089386	-0.26019179821014404	0.5953187346458435	0.9045929312705994	0.6655580401420593	1.2087610960006714	0.2328781634569168	0.3331851363182068	-0.40722379088401794	0.01695537567138672	0.5027234554290771	-0.6100177764892578	0.5371914505958557	-0.22554847598075867	-0.6823297142982483	-0.4590050280094147	0.3077350854873657	-0.46959295868873596	1.2839471101760864	0.6363564133644104	-0.06395646184682846	0.3845255970954895	-0.11388218402862549	0.09783513844013214	0.16697078943252563	0.19428114593029022	-0.10403086245059967	-0.013840129598975182	0.6146054863929749	-0.6428233981132507	-0.6304938793182373	0.10584654659032822	-1.007263422012329	0.08478286862373352	-0.2072363644838333	-0.006551631260663271	0.710163414478302	-0.2425958663225174	0.04112604260444641	-0.46481138467788696	0.6022002100944519	1.6127936840057373	0.8885001540184021	0.10771258175373077	0.6132174134254456	0.42224806547164917	-1.0182324647903442	0.8451828360557556	-0.4764188826084137	0.3534732758998871	-0.4216795265674591	0.23846863210201263	0.3439840078353882	0.15403878688812256	1.4137580394744873	0.1385382115840912	0.10159671306610107	0.33957549929618835	-0.8903239369392395	0.5826302170753479	0.28375664353370667	-0.8465465903282166	-0.15484680235385895	0.7900160551071167	-0.33981457352638245	0.24424895644187927	0.8272072076797485	0.5286730527877808	-0.16805796325206757	0.10519033670425415	-0.34441614151000977	0.143240824341774	-0.8794897794723511	0.1639905720949173	0.40439823269844055	-0.19331350922584534	0.4562634229660034	-0.6056023240089417	0.5437192320823669	-0.5613621473312378	0.1398860216140747	0.5387780666351318	-0.6265074014663696	-0.23580704629421234	0.03483787178993225	-0.7555627822875977	0.17184476554393768	0.26313358545303345	0.047412771731615067	0.5024717450141907	-0.22879014909267426	-0.4477999210357666	-0.4034010171890259	-0.25541695952415466	1.1600778102874756	-0.3121287226676941	0.11955409497022629	-0.018773069605231285	0.5912725925445557	0.28629034757614136	0.06700840592384338	-0.3929569721221924	1.5708069801330566	0.5105562806129456	0.19994981586933136	0.13739140331745148	-0.5019807815551758	-0.6550046801567078	-0.8425520658493042	0.1849655658006668	-0.8231801986694336	-0.97930508852005	0.669704020023346	0.39635351300239563	-0.3804904520511627	0.17440254986286163	
http://dbpedia.org/resource/Qatar_national_football_team	0.6560261249542236	0.39226794242858887	0.02837851271033287	0.14226490259170532	0.14125478267669678	0.46009162068367004	-0.5855741500854492	0.06377957761287689	-1.1289836168289185	0.2563124895095825	0.7655415534973145	-0.3664942681789398	1.0239664316177368	-0.21003802120685577	0.5595040321350098	0.25778883695602417	-0.08918967843055725	0.43480467796325684	-0.9242329001426697	0.7638095021247864	-0.9777331352233887	-0.14320765435695648	0.4033876359462738	-0.719237208366394	-0.2171197533607483	1.0631043910980225	0.6393433809280396	0.5461779832839966	-0.32040077447891235	-0.9529276490211487	-0.12548574805259705	0.5513917207717896	-0.0915040448307991	-0.5077900290489197	0.003303840756416321	0.33858099579811096	-0.17415612936019897	-0.5515971183776855	0.44259175658226013	-0.13673822581768036	0.1425703912973404	-0.7802214622497559	-0.23004800081253052	0.6585729122161865	1.3328860998153687	0.3735649585723877	0.09236343950033188	0.9386823177337646	-0.32820335030555725	0.9054556488990784	-0.3036125898361206	-0.023090170696377754	-0.09631960093975067	0.4676872193813324	0.02142481878399849	1.0657522678375244	0.10542531311511993	-1.5608692169189453	0.5089863538742065	-0.8402206897735596	-0.3917023837566376	-0.3453265130519867	-0.3595062494277954	-0.5419347882270813	0.2940065562725067	0.06687892228364944	-0.6030592918395996	-0.2247934490442276	-0.6415176391601562	-1.020694613456726	0.014226204715669155	0.19056515395641327	-0.21742016077041626	-0.6120015978813171	0.16167064011096954	-0.2504531145095825	0.32291674613952637	-0.3624201714992523	0.16803167760372162	0.051168493926525116	0.019524002447724342	0.10325971990823746	1.545309066772461	0.16624988615512848	0.5474320650100708	0.09264826774597168	0.378986656665802	1.6352566480636597	0.531164824962616	0.10284152626991272	-0.29664814472198486	0.6380969882011414	0.23616693913936615	-0.05688249692320824	-0.10877890139818192	-0.11756914854049683	-0.017212025821208954	0.5704429149627686	0.38798537850379944	0.1733088195323944	-0.4142419099807739	-0.03232860565185547	0.20514710247516632	-0.8638811707496643	0.27842041850090027	0.6639527082443237	-1.277043342590332	0.17106199264526367	-0.010860228911042213	0.13087397813796997	-0.16679851710796356	0.9696258306503296	1.2271302938461304	-0.2283506691455841	-0.4617089629173279	-0.15972091257572174	-0.6374611258506775	-0.5457062721252441	0.21154175698757172	0.3298366069793701	1.3976820707321167	0.7488407492637634	-0.38018786907196045	0.9779360294342041	-0.1759328693151474	-0.07634293287992477	0.5543383359909058	-0.05185449495911598	0.3232412040233612	-1.1661115884780884	0.19317078590393066	-0.16479246318340302	-0.09203191101551056	0.64643794298172	-0.1627221256494522	-0.6949691772460938	-0.9146425724029541	-0.4614237844944	1.3828617334365845	0.8119568228721619	0.30260857939720154	-1.1597678661346436	0.20369362831115723	0.47979629039764404	-0.053297724574804306	0.30355992913246155	-0.09100393205881119	0.7478609085083008	-0.6298215985298157	-0.7086244821548462	0.4796868860721588	1.0231014490127563	0.2492762953042984	0.0909852385520935	-0.26399168372154236	-0.3222722113132477	-1.2601348161697388	-0.22768686711788177	0.3563368618488312	0.07475961744785309	-1.3267301321029663	0.2548764944076538	0.17515400052070618	-0.8054819703102112	0.22998258471488953	0.3103120028972626	0.33917540311813354	-0.21972589194774628	0.15917165577411652	-0.1722845733165741	-0.06600823253393173	-0.16419103741645813	1.0608240365982056	0.6578299403190613	-0.7710625529289246	-0.5871853828430176	-0.9967162609100342	-0.16117127239704132	-0.08901998400688171	-1.4059029817581177	0.03423701599240303	0.5868573188781738	0.26101645827293396	1.1149171590805054	0.04777902364730835	-0.03801865503191948	0.5502439141273499	-0.11970889568328857	0.8713927865028381	-0.3951939642429352	-0.22502127289772034	0.024220427498221397	0.28578606247901917	-0.8210297226905823	-0.7426542043685913	-0.022930271923542023	0.9999235272407532	0.7034149169921875	0.29699403047561646	-0.7257047891616821	
http://dbpedia.org/resource/Algeria_national_football_team	-1.2498406171798706	-0.23428043723106384	-0.9321864247322083	0.804508626461029	0.10167481750249863	0.8896404504776001	0.864669919013977	0.3752300441265106	-0.4829990565776825	0.020343467593193054	0.7829475402832031	0.3809219002723694	0.8032324314117432	0.03180532902479172	0.8602832555770874	0.48191899061203003	0.19915297627449036	0.5343940258026123	-0.44791969656944275	0.45881137251853943	-0.3514423668384552	-0.48439642786979675	-0.16660141944885254	-0.8804419040679932	0.6153970956802368	1.2241767644882202	0.6412780284881592	0.4692111909389496	0.07556018978357315	-0.604136049747467	0.7218434810638428	0.46955063939094543	0.18318744003772736	0.10478048026561737	0.6485397219657898	-0.2928517162799835	0.2350219041109085	0.1430346965789795	-0.2969111502170563	0.6445225477218628	0.6654932498931885	-0.2225656658411026	0.4896140396595001	0.2394254058599472	-0.14344899356365204	0.716966986656189	-0.009406151250004768	0.01012460421770811	-1.2836955785751343	0.4854753315448761	-0.2727225124835968	0.13421010971069336	-0.6319018006324768	0.18126848340034485	0.018863698467612267	0.20631250739097595	1.3064558506011963	-0.8473837375640869	0.32193490862846375	-0.2772170603275299	0.13893680274486542	-0.47181594371795654	0.0817134752869606	-0.7399691343307495	0.25098058581352234	-0.3491060733795166	-0.1780298352241516	-0.7451104521751404	-0.6578521728515625	-0.5298346877098083	-0.622488796710968	-0.8538006544113159	-0.7403825521469116	-0.2047358602285385	0.7297254204750061	-0.40740492939949036	0.49371886253356934	0.41294652223587036	-0.14575700461864471	0.2798696458339691	0.3708128035068512	0.8236818909645081	0.8377737998962402	-0.30370309948921204	-0.03717629611492157	0.5032983422279358	0.3175407350063324	0.44715356826782227	0.1312791258096695	-0.20555974543094635	0.6697041392326355	0.2103712558746338	-0.2974265217781067	0.559911847114563	-0.025356072932481766	-0.3606083393096924	-0.13485054671764374	0.19713802635669708	0.11461249738931656	-0.2126680463552475	-0.7996695637702942	0.07466717064380646	-0.4909874498844147	-1.2334249019622803	0.2309747338294983	0.5819967985153198	-0.33077776432037354	0.6378481388092041	-0.006091210525482893	-0.5769501328468323	-1.0541802644729614	0.7397688627243042	0.6646395325660706	0.15982186794281006	-0.4278450906276703	0.44492852687835693	-0.5470149517059326	0.1332860141992569	0.8499087691307068	0.561106264591217	1.227522850036621	-0.46500399708747864	-0.5180941224098206	0.2603379786014557	1.0729154348373413	-0.5667837858200073	0.23757509887218475	-0.18231019377708435	0.4186352789402008	-0.6229243874549866	0.051355570554733276	-0.5856446027755737	-0.9739933609962463	1.1100900173187256	-0.6938704252243042	0.680972158908844	0.08480922877788544	0.3333345353603363	1.9090495109558105	0.5930907726287842	-0.1964952051639557	0.13946351408958435	-0.5758916735649109	-0.26476341485977173	-0.7033103704452515	0.1177453100681305	-0.13684174418449402	1.0704797506332397	-0.7009949088096619	0.908812940120697	0.8126802444458008	0.5723117589950562	-0.4102659523487091	1.339500904083252	-0.2510156035423279	0.12857115268707275	0.018932217732071877	-0.1411391645669937	-0.35098519921302795	-0.057819001376628876	-0.9993003010749817	0.20094084739685059	0.19101209938526154	-0.5801845788955688	0.05028094723820686	-0.33985435962677	0.025103287771344185	-0.572709858417511	-0.7897180914878845	-0.40202292799949646	-1.3905235528945923	0.2331974357366562	0.6661706566810608	0.008340938948094845	0.15939946472644806	-0.645648181438446	-0.08234777301549911	-0.49961772561073303	-0.26428261399269104	-1.3757060766220093	-0.2306937873363495	0.3834056556224823	0.38025447726249695	1.031205654144287	0.7847800254821777	-0.0509597472846508	1.0043667554855347	-0.7153955101966858	0.3778603971004486	-0.7567015886306763	-0.0530182346701622	0.5182708501815796	-0.20941634476184845	-0.06454932689666748	-0.32503074407577515	1.0604748725891113	1.0605909824371338	-0.019169406965374947	-0.5893207788467407	-1.0254875421524048	
http://dbpedia.org/resource/New_Zealand_national_football_team	-0.3436465263366699	-0.35419121384620667	-0.017480850219726562	0.03372804820537567	0.19314347207546234	-0.7347398996353149	-0.017467200756072998	0.7419158220291138	0.03908945992588997	-0.8494830131530762	0.6922706961631775	0.49502888321876526	0.15938866138458252	-0.23142775893211365	0.9131604433059692	0.49936333298683167	-0.08886818587779999	-0.3113882839679718	-1.0543962717056274	0.06578007340431213	-0.9469858407974243	-0.18153433501720428	0.47158733010292053	-0.35578882694244385	0.39238399267196655	1.746687412261963	-0.3165435492992401	-0.43724024295806885	-0.16902731359004974	-0.5497311949729919	0.7848279476165771	1.3676347732543945	-0.7597453594207764	0.20384947955608368	-0.08516451716423035	-0.5649488568305969	-0.17579714953899384	0.31273898482322693	-0.47839751839637756	0.03293533995747566	0.7527637481689453	0.24186408519744873	-0.2881101965904236	0.45974084734916687	-0.08790162205696106	1.0836515426635742	1.024495005607605	0.6760837435722351	0.7237884402275085	0.2897159457206726	-0.11539120972156525	0.10506106168031693	-0.3431764543056488	-0.2932127118110657	-1.0870195627212524	0.44140321016311646	1.057361125946045	-0.5951316952705383	1.287326455116272	-0.41129571199417114	0.11399710923433304	-0.1916271597146988	0.15636369585990906	0.14352837204933167	0.19437626004219055	-0.8067405223846436	0.2896822392940521	-0.40699002146720886	-0.10054393112659454	0.24943821132183075	-0.3584347665309906	-0.3331736922264099	0.28538647294044495	0.15273815393447876	1.3371772766113281	-0.39782994985580444	-1.4090133905410767	0.1324888914823532	-0.6928737759590149	-0.16313539445400238	0.6132037043571472	1.5380377769470215	0.4330001473426819	-0.20053349435329437	0.2666098475456238	0.3073940575122833	0.42181554436683655	0.3901374042034149	0.01809939555823803	0.1555453985929489	-0.7360382080078125	0.7802719473838806	-0.5198350548744202	0.5767059922218323	-0.25470227003097534	0.042531900107860565	0.1671529859304428	0.15574689209461212	0.3077996075153351	0.14336533844470978	0.05433252826333046	0.642973005771637	0.3231714963912964	-0.30964261293411255	0.34350889921188354	0.15541017055511475	-0.28722211718559265	-0.1410948783159256	0.23607859015464783	0.9252027273178101	-0.6903042793273926	0.45268651843070984	1.1748541593551636	-0.24609363079071045	-0.09749750047922134	0.058081623166799545	-0.5825689435005188	-0.5441822409629822	0.22214555740356445	-0.49540024995803833	0.5009821057319641	0.0854518860578537	-0.19753268361091614	-0.06155502423644066	-0.08970796316862106	0.3907901644706726	0.2572484016418457	0.5133291482925415	-0.17627541720867157	-1.0572757720947266	0.03176673874258995	-0.01357576996088028	-0.8098639845848083	0.12705084681510925	-0.6898152232170105	0.20941957831382751	1.147984504699707	0.1494901180267334	0.7609338760375977	-0.8232499361038208	0.20361505448818207	-0.07693290710449219	-0.6729733943939209	-0.47387751936912537	-0.5294350981712341	-0.08198881894350052	0.7686424255371094	-0.3793606758117676	-0.9945716261863708	-0.8578851819038391	-0.09640220552682877	0.5003125667572021	-0.5783230066299438	0.07058099657297134	-1.0241892337799072	0.7093544602394104	-0.8811817765235901	0.21667063236236572	-0.5701162219047546	-0.6076636910438538	-0.6663506627082825	-0.19732606410980225	0.13613145053386688	-0.6253837943077087	1.047736644744873	-0.040678657591342926	-0.43222230672836304	-0.7359843850135803	-0.3340592384338379	-0.7856683135032654	0.4683246314525604	1.1323790550231934	0.2225264012813568	1.17218017578125	0.015126173384487629	-0.41768500208854675	0.16468264162540436	-0.6056900024414062	0.5520437359809875	-0.7941237092018127	0.05618460103869438	1.0475445985794067	-0.27332791686058044	0.3733348250389099	0.039569173008203506	-0.4806613326072693	0.9942951202392578	-0.19184313714504242	0.031616050750017166	-0.0938042402267456	-0.5691086649894714	0.20574721693992615	-0.7857628464698792	0.26136893033981323	0.18635481595993042	-0.2105768769979477	0.570609986782074	0.5423866510391235	-0.09788427501916885	-0.19889114797115326	
http://dbpedia.org/resource/Guam_national_football_team	-0.38348063826560974	0.030774664133787155	-0.541294276714325	-0.49144724011421204	-0.38403230905532837	0.08823636919260025	0.00790838897228241	0.4209742248058319	0.2070838212966919	-0.27219703793525696	0.029812971130013466	0.2924419641494751	-0.2153983861207962	-0.9392891526222229	1.5377202033996582	-0.36379995942115784	-0.12984858453273773	0.5458414554595947	-0.6012792587280273	-0.2439131736755371	-1.1865065097808838	-0.1732877492904663	0.11827061325311661	-0.6222995519638062	-0.5933762192726135	0.5578389167785645	0.35358482599258423	-0.6684128046035767	0.05821235105395317	-0.2253231555223465	1.2031261920928955	1.2843209505081177	0.21430280804634094	0.25359922647476196	0.38153278827667236	-0.6260285973548889	0.08179856091737747	-0.06596538424491882	0.2906874418258667	-0.33903104066848755	0.44955238699913025	-0.37056922912597656	-0.42428284883499146	0.06903901696205139	0.35791102051734924	1.1894570589065552	0.8818715810775757	0.4312049150466919	0.38565653562545776	0.1186361238360405	0.14797323942184448	0.10166989266872406	-0.07209458202123642	0.3152667284011841	-0.5223023295402527	0.09220824390649796	0.4920802712440491	-0.1401279866695404	0.909497857093811	-1.1422135829925537	-0.146786630153656	-0.5774345993995667	0.07567989826202393	-0.8329334259033203	-0.188293918967247	0.9664598703384399	-0.2087886780500412	0.20277194678783417	0.2940402925014496	-0.12626563012599945	-0.5524596571922302	-0.2290872186422348	-0.20591333508491516	-0.5016540288925171	0.27592742443084717	0.8583874106407166	-0.37323224544525146	-0.8033707737922668	0.806334912776947	0.4174386262893677	-0.3936302661895752	0.8976064324378967	0.36196473240852356	0.20597469806671143	0.2498399317264557	0.4369780421257019	-0.21778424084186554	1.4537862539291382	0.586898148059845	0.18199722468852997	0.19434185326099396	0.767340898513794	-0.823839008808136	0.40960586071014404	-0.29792267084121704	-0.9188455939292908	0.12165985256433487	0.6959426403045654	0.24362805485725403	0.04441042244434357	-0.1431594043970108	0.2814028859138489	0.7050612568855286	-0.09909573197364807	-0.2172723263502121	0.5100654363632202	-0.07494617253541946	-0.317326158285141	-0.33822986483573914	-0.052740417420864105	0.23045913875102997	0.609900712966919	1.190780758857727	-0.2121715098619461	-0.37561360001564026	0.40540897846221924	0.02492080256342888	-0.5019862651824951	0.2699434757232666	-0.2544832229614258	0.9965249300003052	-0.22176024317741394	-0.5091073513031006	0.5992573499679565	0.7056869864463806	0.06624850630760193	-0.270785391330719	-0.5914788246154785	0.919913113117218	-0.10029037296772003	0.10441365838050842	0.2934143841266632	-0.1650027334690094	-0.45472434163093567	0.5932667255401611	0.06375375390052795	0.21515145897865295	0.2906096279621124	0.5115936398506165	-0.9001259803771973	-0.46879756450653076	-0.4061194658279419	-1.0802927017211914	-0.5343151688575745	-0.2845515310764313	0.12606674432754517	0.10581578314304352	0.6538816690444946	-0.5808292627334595	0.0247863307595253	0.7251427173614502	0.270336776971817	-0.2892453074455261	0.23553448915481567	-0.9649513363838196	-0.009563417173922062	-0.8976073265075684	-0.0778917446732521	0.5004479885101318	-0.5810389518737793	-1.049816370010376	0.03126341849565506	-0.1987425535917282	-0.7940045595169067	0.24150699377059937	-0.34837615489959717	-0.8312848210334778	-0.13646332919597626	0.06855925172567368	-0.3264774978160858	0.5259267687797546	0.07394112646579742	1.076687216758728	0.9041880369186401	0.1366661638021469	-0.6623459458351135	-0.34636208415031433	-0.5081505179405212	0.06527451425790787	-0.33952346444129944	0.17614160478115082	0.20517058670520782	0.2700609266757965	0.3299384117126465	-0.5762948989868164	-0.434574693441391	0.38021889328956604	-0.039819084107875824	0.8028537631034851	-0.28448396921157837	-0.5334590673446655	-0.4044778048992157	-0.7907562255859375	-0.6021629571914673	0.17867562174797058	-0.4018043875694275	1.5190787315368652	0.0785716101527214	-0.263919472694397	0.02367813140153885	
http://dbpedia.org/resource/Switzerland_national_football_team	-0.8831290006637573	0.5465391874313354	-0.7467231750488281	-0.45183059573173523	0.29602858424186707	-0.1688687950372696	0.7125052213668823	0.5312778949737549	-0.2096785455942154	-0.5386103391647339	-0.43586504459381104	-0.05468637868762016	0.281337171792984	-0.3786364197731018	-0.06633663177490234	0.16960132122039795	-0.06655300408601761	0.7138436436653137	-0.621566891670227	0.6346580386161804	-0.4977329671382904	0.7491586208343506	-0.25328707695007324	-0.8912287354469299	0.04683750495314598	0.7113008499145508	0.6893637776374817	-0.2529151439666748	0.06906796246767044	-0.3876836895942688	1.1169054508209229	0.6101645231246948	0.35904034972190857	-0.18178246915340424	0.3297274708747864	0.7123258113861084	0.914813756942749	-1.0152721405029297	-1.159613847732544	-0.4645652174949646	-0.17701581120491028	0.094072125852108	0.44351011514663696	0.543976902961731	0.26229622960090637	0.5830853581428528	-0.17244970798492432	-0.6321811676025391	0.28663548827171326	-0.29276835918426514	-0.6868682503700256	-0.26336681842803955	0.7287281155586243	0.020054398104548454	-0.4860551059246063	1.0943342447280884	0.7861056327819824	-0.7302391529083252	-0.7034584879875183	-0.020401550456881523	-0.07896658778190613	-0.11014166474342346	0.5464204549789429	0.17848990857601166	-0.17523972690105438	0.5925766229629517	0.4791085422039032	0.04162778705358505	-0.18792995810508728	-0.5290619134902954	-0.26254040002822876	-0.25045695900917053	-0.6413096189498901	-0.18298588693141937	1.3726624250411987	-0.2875165343284607	0.0037850337103009224	-0.16234661638736725	-0.19410184025764465	-0.7536198496818542	1.1384433507919312	1.0559767484664917	0.2927296459674835	0.19844494760036469	-0.7464010715484619	0.2468050718307495	0.759312093257904	1.3751140832901	1.553000807762146	-0.02833111397922039	1.108527660369873	0.0022823913022875786	0.2594737708568573	0.7041422724723816	0.46297651529312134	-0.14711672067642212	-0.12801724672317505	0.3021496534347534	0.28013357520103455	-0.6102858185768127	-0.17552080750465393	-0.6631707549095154	0.4221554696559906	-0.8050889372825623	0.36113306879997253	0.675516664981842	-0.1462259590625763	-0.007426295429468155	-0.006969411391764879	0.24351108074188232	0.6238805055618286	0.30070602893829346	1.5584158897399902	0.046186916530132294	-0.6470385193824768	0.24736939370632172	-0.1769079864025116	0.14953479170799255	0.4127849042415619	-0.47373345494270325	0.5365244746208191	0.12346312403678894	-0.6446251273155212	0.5535005331039429	0.5314950942993164	0.4172687232494354	0.8512763977050781	0.029657339677214622	0.8051488995552063	0.9306791424751282	-0.45074179768562317	-0.38776564598083496	-0.6812817454338074	0.5623728632926941	-0.5453713536262512	0.37945809960365295	-0.8449521064758301	0.348819762468338	1.73341703414917	-0.2855871319770813	-0.028114106506109238	-0.26783302426338196	-0.16778434813022614	0.22821466624736786	-0.5400365591049194	-0.4988202750682831	-1.4029828310012817	0.7659081220626831	-0.6192629933357239	0.1333398073911667	0.2418481856584549	1.0127004384994507	-0.15118759870529175	-0.4847087562084198	-0.17704126238822937	0.51485675573349	-0.5063943862915039	0.06584501266479492	0.4541521966457367	0.6035128235816956	-0.8609917163848877	0.2944287061691284	-0.0706964060664177	-0.8186126351356506	0.4201141893863678	0.25675031542778015	-0.22642388939857483	-0.49327409267425537	-0.7207005620002747	-0.41167470812797546	-0.1979287564754486	0.6494399905204773	0.5062199234962463	1.6527994871139526	-0.23960979282855988	0.6678236126899719	-0.42399677634239197	-0.8803558945655823	1.0287541151046753	-0.8777265548706055	0.3840060234069824	-0.07087884843349457	0.21392932534217834	1.252403974533081	0.3099939525127411	-0.15440905094146729	1.0091224908828735	1.1174860000610352	-0.34354913234710693	-0.2719256281852722	-0.8413169384002686	0.4223639667034149	-1.0364123582839966	-0.06349263340234756	0.048131562769412994	-0.40342965722084045	0.6198341846466064	0.05171670764684677	-1.1100528240203857	-0.47428905963897705	
http://dbpedia.org/resource/India_national_football_team	-0.933546781539917	0.07581686228513718	0.2488868534564972	0.1366284340620041	0.8143059611320496	0.18919144570827484	0.8217881321907043	0.27225181460380554	-0.1366540938615799	0.678240954875946	0.6186487078666687	0.844914972782135	0.6405665874481201	-0.8787033557891846	1.033250331878662	-0.0829324796795845	0.2077067494392395	0.18552705645561218	-0.9909118413925171	0.7087279558181763	-1.5406461954116821	0.10862390697002411	0.3569766581058502	-0.02674112282693386	0.5300536155700684	0.3710603713989258	0.3848768174648285	-0.4889580011367798	-0.4843752682209015	-0.28118064999580383	-0.3436530530452728	1.1706191301345825	-0.12805284559726715	0.5644105672836304	-0.06191612035036087	-0.9942842721939087	-0.029240641742944717	-1.0460697412490845	-0.1707974523305893	-0.259663850069046	-0.32852596044540405	-0.7077229619026184	0.3556482791900635	0.26036179065704346	0.744398295879364	0.8421434760093689	0.0970003679394722	-0.31049370765686035	1.1046154499053955	1.1176363229751587	0.200045645236969	-1.3253753185272217	0.13623802363872528	-0.32215774059295654	0.10159477591514587	1.3628581762313843	0.2261630892753601	-1.7991057634353638	0.8743751645088196	-0.8239738941192627	-0.5383977293968201	0.0042496658861637115	-0.8305511474609375	-0.22324886918067932	1.0755319595336914	0.6877211332321167	-0.3179786205291748	-0.5187599062919617	-0.5715231895446777	-0.3919423222541809	0.17484189569950104	-0.6100521087646484	-0.4025450050830841	-0.370745986700058	0.46115314960479736	0.8926277160644531	0.9181668162345886	-0.9462223649024963	-0.04791989177465439	-0.3853088617324829	0.016027303412556648	1.2020659446716309	0.3382333815097809	-0.13688458502292633	0.634206235408783	-0.15855252742767334	0.5777890682220459	0.21673424541950226	0.27234479784965515	0.3369150161743164	0.03982764109969139	0.5582571625709534	-0.028449080884456635	0.4657524526119232	0.010447388514876366	0.4509083032608032	0.5619695782661438	1.0833086967468262	0.8834121227264404	0.30051568150520325	0.09901247918605804	-0.10614175349473953	0.8808106780052185	-0.6317151784896851	0.19413675367832184	0.4295389950275421	-0.009450238198041916	-0.25098752975463867	0.12491504848003387	1.1778290271759033	-0.3877004086971283	0.20055420696735382	1.0881179571151733	0.29452335834503174	0.2154417634010315	0.40528929233551025	-0.15919873118400574	-0.7072944641113281	0.11862123757600784	0.21559661626815796	1.031241536140442	0.18117739260196686	-0.5493236184120178	0.7875497937202454	0.7454378604888916	0.4720699191093445	0.6162952184677124	-0.48935773968696594	0.37388354539871216	-0.524328887462616	0.2527838945388794	0.4521787166595459	-0.7579442858695984	0.6096470355987549	-0.30462518334388733	-0.17785686254501343	-0.26030874252319336	-0.20795117318630219	0.8321549892425537	0.5047837495803833	-0.5914766192436218	-0.15101663768291473	-0.081466905772686	-0.06142538785934448	0.251595675945282	-0.16766972839832306	0.08711928129196167	0.4071664810180664	-0.0007800145540386438	0.32479774951934814	-0.1200326681137085	0.48644042015075684	0.32897132635116577	-0.06532111763954163	-0.8721250891685486	-0.6387410759925842	-0.7610939145088196	0.3457500636577606	0.15729963779449463	0.10568811744451523	-0.41255292296409607	0.35285040736198425	-0.37210002541542053	-0.3281289339065552	0.042799271643161774	0.1820794939994812	-0.015833517536520958	0.03058512695133686	-0.37041571736335754	-0.5262103080749512	0.08297056704759598	-0.014177477918565273	1.4236295223236084	0.7011993527412415	-0.6621432304382324	-0.16415077447891235	-0.1904207319021225	-0.8901323080062866	0.9893430471420288	-0.582020103931427	0.6389043927192688	0.5045561194419861	0.23577763140201569	0.9533752202987671	-0.40172407031059265	-0.09285766631364822	1.1949193477630615	1.1664999723434448	0.3836621344089508	-0.6238935589790344	-0.6241301894187927	-0.0202796533703804	-0.9039328098297119	0.1592998206615448	0.007539868354797363	0.31210634112358093	0.7277052998542786	0.22765067219734192	0.703795850276947	0.554787278175354	
http://dbpedia.org/resource/Mauritania_national_football_team	-1.2584779262542725	0.123049795627594	-0.2690018117427826	0.13324952125549316	0.30454960465431213	0.5310773849487305	-0.020629744976758957	-0.3175336420536041	-0.7476756572723389	-0.643462598323822	0.08239883929491043	0.703103244304657	0.05037945508956909	-0.1976182758808136	0.8976508975028992	0.8732916712760925	0.09582612663507462	0.967668890953064	-0.35083258152008057	1.242824912071228	-0.8089936375617981	-0.022961094975471497	0.5466862320899963	-0.4768785536289215	-0.5013864636421204	0.779367208480835	0.22295773029327393	0.32034727931022644	-0.3407094180583954	-0.5130417346954346	0.2106744349002838	0.7286121845245361	-0.0020728339441120625	0.1599513441324234	0.5318902134895325	0.030812373384833336	0.7496147155761719	-0.589764416217804	0.23565833270549774	0.2949006259441376	0.6618214845657349	-0.2747841775417328	0.4340974986553192	0.32990533113479614	-0.13932566344738007	0.9178376793861389	0.4845011830329895	0.11573069542646408	0.09919600933790207	0.03267950937151909	0.5689154863357544	-0.20778506994247437	-0.719326913356781	0.21615487337112427	0.18760383129119873	0.158347949385643	0.44623780250549316	-0.4380054473876953	0.43947988748550415	-0.3986192047595978	-0.2463057041168213	-0.027176106348633766	-0.09661652147769928	-0.6485589742660522	-0.34682828187942505	0.6282103061676025	0.48027756810188293	-0.8626845479011536	-0.6736778020858765	0.7182008624076843	-0.9029492139816284	0.3494306206703186	-0.0420854277908802	0.11097559332847595	0.4018706679344177	-0.6503505706787109	0.2711828351020813	0.27427202463150024	-0.008068006485700607	0.3482314646244049	0.42870983481407166	1.046486258506775	0.376681923866272	-0.4153566062450409	0.5342608690261841	0.015505431219935417	0.18434664607048035	0.7195265889167786	0.07595916092395782	0.5562885403633118	0.5479064583778381	0.04247960448265076	-0.043510694056749344	0.4936264455318451	0.39843517541885376	-0.3985869884490967	0.21148745715618134	0.8276286125183105	0.3670591115951538	0.22969475388526917	0.5965418219566345	0.3033643364906311	-0.0815146267414093	-0.794807493686676	-0.07641477137804031	0.41455012559890747	0.4226112961769104	0.03552350774407387	-0.03595845028758049	-0.6279069781303406	-0.3097652494907379	-0.27896904945373535	0.0850871354341507	-0.5169546604156494	-0.2506306767463684	0.2567078173160553	0.10650810599327087	-0.7929413318634033	0.739791989326477	-0.08790810406208038	0.16034317016601562	-0.7377637028694153	-0.4122737944126129	0.950092613697052	0.6043983101844788	-0.9048380851745605	0.07474395632743835	-0.18689049780368805	0.6314110159873962	-0.6391150951385498	0.3570908010005951	-0.03614060953259468	-0.9667842984199524	0.46008580923080444	0.047633543610572815	0.13394704461097717	0.3945580720901489	-0.2036847174167633	1.3180750608444214	-0.15917696058750153	0.11658066511154175	-0.021601136773824692	-0.17209704220294952	0.1668800413608551	-0.450555682182312	0.6188944578170776	-0.06709876656532288	0.6825379729270935	-1.2523958683013916	0.48379218578338623	0.324919730424881	0.7111132144927979	-0.28523021936416626	0.4032277464866638	-0.39968013763427734	0.4418160617351532	-0.46096497774124146	0.7000280618667603	0.28399524092674255	-0.3919373154640198	-0.8812335133552551	-0.01822797954082489	0.010576515458524227	-0.36374303698539734	-0.1997227966785431	0.13587966561317444	0.08569840341806412	-0.15367956459522247	-0.610056459903717	-1.0841329097747803	-0.3280222713947296	-0.2413671910762787	0.8310520052909851	1.326341986656189	-0.007640909869223833	-0.2298477590084076	0.11570604145526886	-0.4010409414768219	0.7676730751991272	-1.109562635421753	0.5560075044631958	-0.27782735228538513	0.28268691897392273	0.3942756950855255	0.05039728805422783	-0.689057469367981	0.8389096856117249	-0.21660928428173065	0.7515255212783813	-0.5237003564834595	-0.39111584424972534	0.32897061109542847	-0.852645993232727	-0.5678709149360657	-0.07254496961832047	0.04367618262767792	0.8732909560203552	0.5968596339225769	0.7134402990341187	-0.7340990900993347	
http://dbpedia.org/resource/Serbia_national_football_team	-0.8315909504890442	0.28295406699180603	-0.7093329429626465	0.6991811394691467	0.12726478278636932	0.5245235562324524	0.2954943776130676	0.8017182946205139	-0.30426740646362305	-0.08783397078514099	0.36895301938056946	-0.1512758880853653	0.5508459806442261	-0.8020898699760437	-0.20622661709785461	0.39522743225097656	0.8082498908042908	0.07033277302980423	-0.5195530652999878	0.08674076944589615	-0.820520281791687	-0.8773209452629089	0.15307049453258514	-0.9692780375480652	0.2030019760131836	0.721146821975708	0.8447307348251343	-0.27318596839904785	0.07973327487707138	-0.41021624207496643	0.6072733402252197	0.8715029358863831	0.8968811631202698	-0.5457545518875122	-0.05059049651026726	0.9069868326187134	0.07909402996301651	-1.0175429582595825	-0.43134069442749023	-0.014410457573831081	0.8237289190292358	-0.43009763956069946	0.1767009049654007	0.807471513748169	0.6794936060905457	1.1742165088653564	0.42058566212654114	0.15291011333465576	-0.9747207760810852	0.5964680910110474	-0.11198841035366058	0.09353794902563095	0.1963510811328888	0.8738182187080383	-0.4091810882091522	-0.35322633385658264	1.5582027435302734	-0.38534170389175415	0.6672121286392212	0.06775283068418503	-0.31922754645347595	-0.4596039354801178	-0.33154797554016113	-0.2518988251686096	-0.5292524695396423	0.3560064435005188	0.043906666338443756	-0.4563211500644684	0.23404312133789062	0.10651268064975739	-0.47836029529571533	0.14023517072200775	-0.565696656703949	-0.18984968960285187	0.78142249584198	-0.08028402179479599	0.8626458644866943	-0.6709334850311279	-0.23104040324687958	0.08541149646043777	-0.07105714082717896	1.2636480331420898	0.03970203176140785	-0.09294150024652481	1.0933040380477905	0.16293826699256897	0.8346492052078247	1.1794836521148682	0.130008727312088	0.4334637522697449	0.801861584186554	-0.28770649433135986	0.4436902105808258	0.7277796864509583	0.2650241255760193	0.03299923241138458	-0.0992845892906189	-0.44174572825431824	-0.7926732897758484	-0.5661422610282898	-0.10892222821712494	-0.3972317576408386	-0.5279684066772461	-0.8522958755493164	0.9017833471298218	1.1123623847961426	0.04924388974905014	-0.23704893887043	-0.5093880891799927	-0.29424935579299927	0.1444489061832428	0.25123509764671326	0.6350098848342896	0.7442378997802734	-0.4402107894420624	0.40470245480537415	-0.7059978246688843	-0.28966331481933594	0.38130801916122437	0.09420564770698547	1.2376737594604492	0.30756646394729614	0.10852894932031631	-0.5419425368309021	1.34287691116333	1.0154238939285278	0.7084229588508606	-0.8689799308776855	0.37647008895874023	-0.10793568193912506	-0.4045966565608978	-0.2330474853515625	-0.2040354609489441	0.10105222463607788	-0.47278937697410583	0.4922921061515808	0.626727819442749	0.33181649446487427	1.283765435218811	-0.701474666595459	0.03202157840132713	-0.0369311198592186	-1.1071704626083374	0.8793504238128662	0.15148022770881653	-0.07540099322795868	-0.24133341014385223	0.5857640504837036	0.38869228959083557	0.6780257225036621	0.0735512524843216	0.4788075387477875	0.1758301705121994	0.07529432326555252	-0.40407273173332214	0.42203083634376526	-1.1894761323928833	0.198531836271286	0.29680654406547546	-0.11107758432626724	-0.36728689074516296	0.05081920698285103	-0.02661774680018425	-0.5599013566970825	0.052852436900138855	-0.04225466772913933	-0.8200948238372803	-0.4015502631664276	-0.02622850239276886	-0.1783880591392517	-0.6490964293479919	0.5535553097724915	0.14424145221710205	-0.1190657988190651	-0.6014890670776367	0.641872227191925	-0.13960963487625122	0.9202212691307068	0.4871657192707062	-0.4850356876850128	0.26602381467819214	-0.30276304483413696	-0.3891831338405609	0.9505304098129272	-0.4096660614013672	-0.7466027140617371	1.3004238605499268	0.42936667799949646	0.1672784835100174	0.04498506709933281	-0.8133054375648499	0.3330529034137726	-1.190865397453308	-0.29524552822113037	-0.44400274753570557	-0.4960881769657135	1.4813003540039062	0.3957408368587494	-0.024714123457670212	-0.8017711043357849	
http://dbpedia.org/resource/Cameroon_national_football_team	-0.8367028832435608	-0.26659876108169556	-0.6457499265670776	-0.20974746346473694	0.602333128452301	-0.06703256070613861	-0.5546032190322876	0.6980414986610413	-0.9273170828819275	-1.0333765745162964	0.18019260466098785	0.2918207347393036	0.9827589392662048	-0.6062744855880737	1.098051905632019	0.4954066872596741	-0.005346332211047411	0.6699427366256714	-0.46028614044189453	0.7959359884262085	-1.5793970823287964	-0.1912497580051422	0.7654863595962524	-1.6742480993270874	0.144648477435112	0.5379027724266052	0.5416638255119324	0.5715813636779785	-0.13317494094371796	-0.7468969821929932	0.9030417799949646	0.33778291940689087	0.8419700860977173	-0.5783662796020508	0.5456815361976624	1.154924750328064	0.16527120769023895	-1.1455309391021729	0.6095391511917114	-0.3450393080711365	0.27447524666786194	-0.36119216680526733	1.1834834814071655	0.31858476996421814	-0.8055859208106995	1.1079972982406616	0.5212515592575073	0.18116669356822968	-0.0510709322988987	1.891444444656372	-0.05616016685962677	-0.13887397944927216	0.42877429723739624	0.22655147314071655	-0.3261440098285675	0.5185781717300415	0.7835655808448792	-1.2285115718841553	-0.1405368149280548	-0.9114828109741211	0.34692057967185974	-0.32102832198143005	0.7863765954971313	-0.5133561491966248	0.5599152445793152	0.4852083623409271	0.2470036745071411	0.5233480930328369	0.3996120095252991	0.37004533410072327	0.6777852773666382	-0.735127866268158	-0.9203968644142151	-0.3162497580051422	1.1373660564422607	-0.8519183397293091	0.35883915424346924	0.2549532651901245	-1.3578847646713257	-0.14273592829704285	0.8022160530090332	0.7819442749023438	0.39584460854530334	0.32832908630371094	-0.010567835532128811	0.30483198165893555	0.37057462334632874	1.0854038000106812	0.19030292332172394	-0.059117939323186874	0.3232530355453491	0.20756782591342926	-0.3444041311740875	0.6920603513717651	0.3324918746948242	0.33049651980400085	-0.5153117179870605	0.2405039519071579	-0.0321018286049366	-0.41726624965667725	-0.4472222626209259	0.4434984028339386	0.15231898427009583	-0.042101919651031494	0.863314151763916	-0.011668303981423378	-0.18234631419181824	-0.045718275010585785	-0.33837634325027466	-0.7260000705718994	-0.41728177666664124	0.6926984786987305	0.23785817623138428	0.4046548008918762	0.2763850688934326	0.011494905687868595	-0.1518368422985077	-0.9902791380882263	-0.18510761857032776	0.40684425830841064	1.832872986793518	-0.7136766314506531	-0.6812411546707153	0.7550804615020752	0.7766886949539185	-0.7711098790168762	0.3855326473712921	-0.3325643539428711	0.5429782271385193	-0.7016583681106567	-0.1721135675907135	-0.3346015512943268	-0.40431690216064453	0.8885529637336731	-0.362899512052536	-0.09627225250005722	-0.5232722759246826	-0.05633164197206497	1.6707003116607666	-0.012894238345324993	0.3405842185020447	-0.2619091272354126	-0.2902572453022003	0.18234866857528687	0.13038291037082672	0.3181236684322357	0.36474910378456116	1.0679787397384644	-0.8749789595603943	0.30243757367134094	0.2670292556285858	0.6100879907608032	0.9376174211502075	0.7537792921066284	-0.25096550583839417	-0.02673528715968132	0.04493371769785881	-0.1995185911655426	0.3016306757926941	-0.3354051411151886	-0.9133239388465881	-0.4835697114467621	0.19788871705532074	-0.1363317370414734	-0.27549371123313904	0.25163066387176514	0.2763217091560364	0.1661902517080307	0.4319145083427429	-0.11557623744010925	-0.49626967310905457	0.039479222148656845	-0.10628597438335419	0.3632054626941681	-0.07052035629749298	0.08319677412509918	0.10047725588083267	0.7323296070098877	-0.9005222916603088	-0.35745862126350403	0.2810073494911194	-0.22501331567764282	0.29600054025650024	-0.03949322551488876	0.33883136510849	-0.2830562889575958	1.3225959539413452	0.07008512318134308	0.9072217345237732	-0.21034763753414154	-0.9670947790145874	1.059242606163025	-0.5867854356765747	0.3856704533100128	0.12206126749515533	-0.11822646856307983	0.3547901511192322	0.02937052957713604	-0.054853662848472595	-0.8360273241996765	
http://dbpedia.org/resource/British_Virgin_Islands_national_football_team	-0.12713542580604553	0.0874757394194603	-0.41728341579437256	-0.023622609674930573	-0.5427418351173401	0.2933414578437805	0.2216109186410904	-0.11280719190835953	0.1869509220123291	-0.40162432193756104	0.6932007670402527	0.3162512481212616	0.06415922939777374	-0.5015148520469666	0.3513248562812805	0.5847691297531128	-0.0053113652393221855	0.4480729103088379	-0.5456416606903076	0.3352130651473999	-0.7080348134040833	0.028109842911362648	0.7664163112640381	-0.3018757402896881	0.04708900675177574	0.12524950504302979	-0.4910825192928314	-0.3169308006763458	0.04176320880651474	-0.30937445163726807	0.2876741290092468	0.8306626677513123	0.7360590696334839	0.28775858879089355	0.47243955731391907	-0.11448037624359131	0.903172492980957	-0.4859110713005066	-0.19302427768707275	-0.3808542490005493	0.29592734575271606	0.10072607547044754	0.8465384244918823	0.6272770166397095	0.16523806750774384	1.1590471267700195	0.42701566219329834	-0.14792996644973755	-0.11113246530294418	0.08711988478899002	0.41529735922813416	0.11136021465063095	-0.0034503277856856585	0.33751732110977173	-0.11941338330507278	0.08654884994029999	-0.13619540631771088	-1.088188886642456	0.4958796203136444	-0.593173623085022	-0.5914438366889954	-0.6512300968170166	0.27220991253852844	-0.014950793236494064	-0.4906824827194214	0.39708250761032104	0.1633409708738327	-0.3911491930484772	0.08162287622690201	0.7279261946678162	-0.6642401814460754	0.25790098309516907	-0.7226667404174805	0.05795727297663689	0.7815713286399841	0.11784017831087112	-0.03061283566057682	-0.06373684853315353	0.30303239822387695	1.0553771257400513	0.013101032003760338	0.9997623562812805	0.43323954939842224	-0.04365045577287674	0.3069193661212921	0.12229879945516586	-0.08756257593631744	0.7901385426521301	0.5472124218940735	0.010819238610565662	0.1421613246202469	-0.12138816714286804	-0.47102442383766174	0.5193793177604675	0.11592958867549896	-0.40772002935409546	0.15473051369190216	0.25105541944503784	-0.062310270965099335	0.17470893263816833	0.49721628427505493	0.21081309020519257	0.13896065950393677	0.17106637358665466	-0.4022728204727173	1.0914580821990967	0.13866792619228363	0.19048739969730377	0.5266583561897278	-0.4160356819629669	0.6580318808555603	0.4481618106365204	0.32704439759254456	-0.07996885478496552	-0.030101237818598747	0.3468029797077179	0.7751858830451965	-0.1559602916240692	0.16631735861301422	-0.4690512716770172	0.9534755945205688	-0.18392080068588257	-0.8905711770057678	0.8230269551277161	0.423354834318161	-0.6622915267944336	-0.03412150591611862	-0.4550448954105377	0.2542230784893036	-0.39253145456314087	0.1383683681488037	-0.7967018485069275	-0.405627578496933	-0.4309428334236145	-0.14233370125293732	0.001554584945552051	-0.223643496632576	-0.4634968042373657	1.0753229856491089	-0.34902480244636536	-0.2860545516014099	-0.5226339101791382	-0.8936060667037964	0.10052749514579773	-0.21799078583717346	0.0674237385392189	0.39040201902389526	-0.25069066882133484	-0.7599624395370483	-0.44355833530426025	0.8052166700363159	0.08213189244270325	0.10138862580060959	-0.4184037148952484	-1.2188695669174194	0.27876991033554077	-1.014633059501648	0.35619252920150757	-3.47641616826877e-05	-0.1751958727836609	-1.4376758337020874	-0.13576127588748932	0.029023706912994385	-0.334823876619339	0.18459632992744446	-0.17008867859840393	-0.6588327288627625	-0.7816368341445923	0.08718453347682953	-0.9026746153831482	0.5343101620674133	-0.8098906874656677	0.4172132909297943	1.4711332321166992	-0.16027450561523438	-0.5028175711631775	-0.5269944071769714	-0.6628260612487793	-0.25222474336624146	-1.018554449081421	0.10374672710895538	-0.1866806000471115	0.6076002717018127	0.11749809980392456	-0.5932353734970093	-0.6092671155929565	0.500994086265564	0.28508445620536804	0.6557310819625854	0.29930931329727173	-0.6176727414131165	0.0732719898223877	-1.174812912940979	0.2708549201488495	0.28801286220550537	-0.6573750972747803	0.507525622844696	0.4238956570625305	-0.06260234117507935	0.4464133679866791	
